{
  "inputs": [
    {
      "name": "trk_pt",
      "offset": 0,
      "scale": 1
    },
    {
      "name": "trk_eta",
      "offset": 0,
      "scale": 1
    },
    {
      "name": "trk_lambda",
      "offset": 0,
      "scale": 1
    },
    {
      "name": "trk_dxy",
      "offset": 0,
      "scale": 1
    },
    {
      "name": "trk_dz",
      "offset": 0,
      "scale": 1
    },
    {
      "name": "trk_dxyClosestPV",
      "offset": 0,
      "scale": 1
    },
    {
      "name": "trk_dzClosestPVClamped",
      "offset": 0,
      "scale": 1
    },
    {
      "name": "trk_ptErr",
      "offset": 0,
      "scale": 1
    },
    {
      "name": "trk_etaErr",
      "offset": 0,
      "scale": 1
    },
    {
      "name": "trk_lambdaErr",
      "offset": 0,
      "scale": 1
    },
    {
      "name": "trk_dxyErr",
      "offset": 0,
      "scale": 1
    },
    {
      "name": "trk_dzErr",
      "offset": 0,
      "scale": 1
    },
    {
      "name": "trk_nChi2",
      "offset": 0,
      "scale": 1
    },
    {
      "name": "trk_ndof",
      "offset": 0,
      "scale": 1
    },
    {
      "name": "trk_nInvalid",
      "offset": 0,
      "scale": 1
    },
    {
      "name": "trk_nPixel",
      "offset": 0,
      "scale": 1
    },
    {
      "name": "trk_nStrip",
      "offset": 0,
      "scale": 1
    },
    {
      "name": "trk_nPixelLay",
      "offset": 0,
      "scale": 1
    },
    {
      "name": "trk_nStripLay",
      "offset": 0,
      "scale": 1
    },
    {
      "name": "trk_n3DLay",
      "offset": 0,
      "scale": 1
    },
    {
      "name": "trk_nLostLay",
      "offset": 0,
      "scale": 1
    },
    {
      "name": "trk_algo",
      "offset": 0,
      "scale": 1
    }
  ],
  "layers": [
    {
      "activation": "rectified",
      "architecture": "dense",
      "bias": [
        1.2538734674453735,
        -0.28918078541755676,
        -2.2422938346862793,
        -0.4343949854373932,
        0.5170870423316956,
        -0.2211199849843979,
        -0.8773135542869568,
        -0.36813515424728394,
        -0.7957994937896729,
        1.7276287078857422,
        0.1622464805841446,
        -0.05123956501483917,
        -0.45654210448265076,
        0.9228654503822327,
        -0.45137712359428406,
        -1.3617945909500122,
        0.5930773615837097,
        -0.864048957824707,
        -1.2680513858795166,
        1.0476775169372559,
        1.237939715385437,
        0.8839096426963806,
        -0.3293793499469757,
        0.5638054013252258,
        1.041648268699646,
        0.24714013934135437,
        0.6983249187469482,
        1.1211895942687988,
        -1.8165767192840576,
        -1.2131801843643188,
        -1.3228588104248047,
        -0.8758559823036194,
        -1.3317822217941284,
        -1.760345458984375,
        -1.5625526905059814,
        0.05854345113039017,
        -0.9651898145675659,
        -0.10847099870443344,
        -0.22536198794841766,
        0.6654576659202576,
        0.15445034205913544,
        -0.1663069725036621,
        0.46675926446914673,
        0.6812002658843994,
        0.3933928310871124,
        1.4068536758422852,
        -1.0328150987625122,
        -0.150817409157753,
        -1.032420039176941,
        -0.08980073779821396,
        1.0495622158050537,
        0.685741126537323,
        -0.47937607765197754,
        1.1889257431030273,
        -0.026492293924093246,
        0.06758499145507812,
        -1.8695534467697144,
        -0.2777238190174103,
        -0.5505545139312744,
        0.06423021107912064,
        1.205573558807373,
        -0.04424617439508438,
        0.3526228070259094,
        -0.0946822315454483,
        0.4915038049221039,
        -2.24075984954834,
        -1.0944485664367676,
        0.8559621572494507,
        -0.4030427932739258,
        0.1189034953713417,
        0.08406887948513031,
        2.34342360496521,
        2.0822691917419434,
        1.6047217845916748,
        -0.11865472793579102,
        -0.46797826886177063,
        0.75692218542099,
        0.061044834554195404,
        -0.2567847967147827,
        1.490515947341919,
        -1.5025441646575928,
        -1.6571509838104248,
        0.7456280589103699,
        -0.457850843667984,
        -0.3288111686706543,
        0.6515879034996033,
        -2.3083434104919434,
        -0.2581616938114166,
        -0.21717730164527893,
        -0.440455824136734,
        0.47899141907691956,
        -1.8204776048660278,
        0.5015681982040405,
        0.13493192195892334,
        1.750677227973938,
        -1.3299254179000854,
        -1.0961889028549194,
        1.6778091192245483,
        1.1986016035079956,
        -0.22959831357002258,
        0.13617302477359772,
        -0.06620366871356964,
        0.016279226168990135,
        0.9421524405479431,
        -1.4742624759674072,
        -0.4103350341320038,
        -0.8344916105270386,
        1.3026562929153442,
        0.7689467668533325,
        -0.41635623574256897,
        -0.529241681098938,
        1.0370267629623413,
        0.3726513981819153,
        0.959250807762146,
        0.5184751749038696,
        1.4502943754196167,
        1.897005319595337,
        -2.0149364471435547,
        0.9237250089645386,
        -1.363301396369934,
        0.8069736957550049,
        1.4174083471298218,
        0.6443350911140442,
        -2.883091926574707,
        0.5356987714767456,
        -1.6446609497070312,
        -2.1786937713623047,
        1.6924800872802734,
        1.7470061779022217,
        -0.9514122009277344,
        0.988562822341919,
        0.40896669030189514,
        2.340852737426758,
        -0.294802725315094,
        -0.4319310784339905,
        0.5748305320739746,
        1.7139487266540527,
        -0.9560549259185791,
        -0.2686132490634918,
        1.8428449630737305,
        -1.082921028137207,
        0.9923560619354248,
        0.5510534048080444,
        -0.32238057255744934,
        -1.3442670106887817,
        0.17785243690013885,
        -0.10503774136304855,
        1.910942792892456,
        -0.07763883471488953,
        1.35056734085083,
        0.48127952218055725,
        1.665970802307129,
        0.8129833340644836,
        0.41048288345336914,
        0.9703540205955505,
        -0.11784426122903824,
        -0.8271214962005615,
        -0.05163608118891716,
        0.0965661033987999,
        -0.2317098081111908,
        0.24973028898239136,
        0.7505018711090088,
        -0.4408840239048004,
        -1.5558382272720337,
        -0.6402074694633484,
        0.2991443872451782,
        0.6547999382019043,
        1.993580937385559,
        0.36928850412368774,
        -0.053465455770492554,
        1.5798925161361694,
        -0.17479082942008972,
        1.4494394063949585,
        -0.5360915064811707,
        -0.4619297385215759,
        -1.125045657157898,
        1.13300359249115,
        -3.190880537033081,
        0.8840263485908508,
        -0.3287448585033417,
        -4.174691200256348,
        -0.07622744143009186,
        -0.6167054772377014,
        -0.7446852326393127,
        -4.933847904205322,
        0.4442407488822937,
        0.6779149174690247,
        0.5008549094200134,
        0.10234421491622925,
        -0.1869553029537201,
        -0.0747467428445816,
        -1.2264492511749268,
        -0.0002853360492736101,
        1.2658648490905762,
        -1.3358856439590454,
        0.9329404234886169,
        -0.5521136522293091,
        -0.04907872527837753,
        0.01174273993819952,
        -0.8500630855560303,
        -0.4585711359977722,
        -0.5507852435112,
        0.2994380593299866,
        1.1736018657684326,
        -1.2104644775390625,
        -0.4535864293575287,
        0.19021472334861755,
        1.7490981817245483,
        0.15127252042293549,
        0.9886254668235779,
        -1.6967277526855469,
        0.802980363368988,
        0.5743833184242249,
        1.309177041053772,
        0.7697027921676636,
        0.34811651706695557,
        0.46197792887687683,
        -0.867168128490448,
        -0.41773518919944763,
        0.8183957934379578,
        -0.9698658585548401,
        -1.2641232013702393,
        -0.8125627636909485,
        -0.2768648862838745,
        0.32925498485565186,
        1.7032439708709717,
        -0.9336710572242737,
        0.4356246292591095,
        0.28190550208091736,
        1.0437792539596558,
        -0.861794650554657,
        1.7563197612762451,
        -0.805318295955658,
        0.019475605338811874,
        -1.7727843523025513,
        -1.4137669801712036,
        1.1376196146011353,
        -0.7938729524612427,
        -0.7487047910690308,
        0.022072643041610718,
        1.608316421508789,
        0.123349629342556,
        -0.31902092695236206,
        1.8798842430114746,
        0.15718455612659454,
        -0.9052261114120483,
        0.9087784886360168,
        0.9742004871368408,
        -0.770197868347168,
        -0.6509122252464294,
        -0.43561407923698425,
        -0.646054744720459,
        -1.1309950351715088,
        -0.004655973520129919,
        0.4798302948474884,
        0.3932754397392273,
        0.9709872007369995,
        0.7967619299888611,
        -0.2519712448120117,
        0.6782766580581665,
        -0.23486924171447754,
        0.7579780220985413,
        0.014298943802714348,
        0.15367485582828522,
        0.061509594321250916,
        0.31790679693222046,
        -0.5245188474655151,
        -0.000619187718257308,
        -0.7584548592567444,
        0.8163461089134216,
        -0.7441837787628174,
        -0.3953626751899719,
        -1.2818145751953125,
        1.1741069555282593,
        0.19841936230659485,
        -1.2550081014633179,
        0.542976975440979,
        -0.34723642468452454,
        0.05657728388905525,
        0.1703454554080963,
        -0.943896472454071,
        1.1744853258132935,
        0.7069475650787354,
        1.130429983139038,
        -0.01834925264120102,
        0.8339307904243469,
        -0.3384464979171753,
        0.7167611718177795,
        0.31371936202049255,
        0.4169117510318756,
        -1.5094001293182373,
        0.7239761352539062,
        -0.9135989546775818,
        1.7105746269226074,
        -0.521396279335022,
        1.265176773071289,
        -1.791171908378601,
        -1.552890658378601,
        0.3878885805606842,
        -0.2909242808818817
      ],
      "weights": [
        -0.042275819927453995,
        -0.1247732862830162,
        -0.5207611322402954,
        0.02015007473528385,
        0.26630261540412903,
        0.06756041198968887,
        0.09130867570638657,
        -0.019869796931743622,
        3.041025161743164,
        3.7889785766601562,
        0.9029238224029541,
        -0.2294834703207016,
        0.0424090139567852,
        -0.6090822815895081,
        -0.6245787143707275,
        -2.555906057357788,
        0.1335415244102478,
        -1.39629328250885,
        -0.5578117966651917,
        0.9108186364173889,
        1.0443637371063232,
        0.0992906242609024,
        -0.6493361592292786,
        0.36354705691337585,
        0.2269991785287857,
        -0.5500343441963196,
        0.016233079135417938,
        -0.5036267042160034,
        -0.14409255981445312,
        0.07984364032745361,
        -1.8660595417022705,
        -0.6242598295211792,
        0.8291517496109009,
        -2.6962406635284424,
        0.12635552883148193,
        -0.8155490159988403,
        -0.15035147964954376,
        -0.1906042844057083,
        0.46087339520454407,
        -0.05740237981081009,
        0.0883617252111435,
        -0.5102459788322449,
        1.0029475688934326,
        -0.10686138272285461,
        -3.928265333175659,
        -0.027560953050851822,
        -0.013408757746219635,
        -0.0016756670083850622,
        0.013710728846490383,
        -0.03251729533076286,
        -0.005762991029769182,
        -20.687223434448242,
        -6.1453986167907715,
        -1.9520924091339111,
        -0.1558704674243927,
        0.3176919221878052,
        0.0184739138931036,
        0.07430870831012726,
        -0.014330506324768066,
        -0.08685996383428574,
        0.03551873192191124,
        -0.24881818890571594,
        0.7018231153488159,
        0.3654022514820099,
        0.14235155284404755,
        -0.005074524786323309,
        0.4976772964000702,
        0.033917371183633804,
        -0.025619881227612495,
        -0.09637659043073654,
        -0.00151308614294976,
        0.06439854204654694,
        -0.042389579117298126,
        -3.7220616340637207,
        -8.598587036132812,
        -6.409651279449463,
        0.7582870125770569,
        1.0863227844238281,
        -0.22918209433555603,
        0.05126892775297165,
        0.12185492366552353,
        -0.05772564932703972,
        -0.05840976908802986,
        0.14550673961639404,
        -0.483828604221344,
        0.18519631028175354,
        0.32871273159980774,
        -0.002880630549043417,
        0.03971436619758606,
        0.19857725501060486,
        -0.17636515200138092,
        0.0742570012807846,
        0.022211788222193718,
        0.023943321779370308,
        -0.03090435266494751,
        0.041008442640304565,
        -4.266908168792725,
        -0.9213451147079468,
        3.04099702835083,
        -2.024341583251953,
        -0.01974661462008953,
        -1.3781449794769287,
        0.17278969287872314,
        0.43705320358276367,
        0.9076719880104065,
        0.3391655385494232,
        -0.24613118171691895,
        0.15311738848686218,
        0.11953303217887878,
        -0.004576217848807573,
        -0.7067728042602539,
        0.09410305321216583,
        0.5436058640480042,
        -0.301395446062088,
        -0.20218119025230408,
        -0.3577483296394348,
        0.11704321205615997,
        -4.2126641273498535,
        -3.458092212677002,
        -2.6372780799865723,
        1.2995985746383667,
        -0.025037065148353577,
        -0.024851437658071518,
        -1.7732807397842407,
        0.1644475907087326,
        0.17690686881542206,
        0.2812163531780243,
        -0.019715441390872,
        0.6595195531845093,
        -0.9669523239135742,
        0.9513237476348877,
        0.0382901169359684,
        0.04139143228530884,
        -2.1265788078308105,
        -0.6579910516738892,
        0.03658420220017433,
        -0.06599515676498413,
        -0.05466359481215477,
        0.03427749127149582,
        -0.6189209818840027,
        -2.1438772678375244,
        -6.987422466278076,
        0.5692456364631653,
        0.17256022989749908,
        -0.004335808102041483,
        0.34519436955451965,
        0.026644453406333923,
        -0.419171005487442,
        -0.44033557176589966,
        -0.7538803219795227,
        -0.04311801865696907,
        -0.1596834659576416,
        0.39868372678756714,
        -0.38487356901168823,
        -0.96345454454422,
        -0.027543893083930016,
        -0.23493508994579315,
        0.017032774165272713,
        -0.21834775805473328,
        0.02666005678474903,
        -0.5022718906402588,
        0.037069886922836304,
        3.407593250274658,
        3.2118828296661377,
        -2.1652491092681885,
        -1.3998469114303589,
        0.01014444325119257,
        0.04144740104675293,
        -0.19326552748680115,
        -0.2668639123439789,
        -0.08529601991176605,
        -0.33967092633247375,
        0.06679847836494446,
        -0.06431364268064499,
        0.6794652342796326,
        0.03193698078393936,
        -0.16541257500648499,
        -0.7592164278030396,
        -0.14953173696994781,
        0.015322528779506683,
        0.26338711380958557,
        -0.11268746852874756,
        -0.31859907507896423,
        -0.021656323224306107,
        -10.853654861450195,
        -9.950875282287598,
        -0.15512219071388245,
        -1.1242189407348633,
        0.013292568735778332,
        -0.31015560030937195,
        -5.757390975952148,
        -0.06492304056882858,
        0.4462558329105377,
        0.22733654081821442,
        0.4461180567741394,
        -0.46349310874938965,
        -1.5599539279937744,
        -0.008009030483663082,
        -0.004457359202206135,
        -0.036678966134786606,
        0.021441983059048653,
        0.1740133911371231,
        0.010249463841319084,
        -0.003632589243352413,
        -0.03173869475722313,
        -0.06233043596148491,
        6.512914180755615,
        7.811716079711914,
        -3.942643642425537,
        -2.787022113800049,
        -0.06105170398950577,
        0.20700305700302124,
        0.4055131673812866,
        -0.3085942268371582,
        -0.17957070469856262,
        -0.3038032054901123,
        0.05829928070306778,
        -0.08076487481594086,
        0.37991732358932495,
        0.014590540900826454,
        0.034067943692207336,
        0.27954018115997314,
        0.2662298381328583,
        0.01628929376602173,
        0.026987727731466293,
        -0.015047290362417698,
        0.4541453719139099,
        -0.15773984789848328,
        1.7099957466125488,
        2.3026628494262695,
        0.7703313827514648,
        -1.6070626974105835,
        -0.6154964566230774,
        -1.08126699924469,
        1.849196195602417,
        -0.2805411219596863,
        -1.2953871488571167,
        0.0271279439330101,
        -0.7740083932876587,
        0.06720075756311417,
        2.264127731323242,
        0.001340156071819365,
        0.04107127711176872,
        0.03907040134072304,
        -0.07704544067382812,
        -0.007145090494304895,
        0.007401667535305023,
        0.009561069309711456,
        0.007244509179145098,
        -0.039359208196401596,
        3.053814172744751,
        1.7931634187698364,
        -0.9970244765281677,
        0.9989324808120728,
        0.041776131838560104,
        0.27196627855300903,
        0.9531900882720947,
        -0.7935624122619629,
        -0.32965654134750366,
        -0.5640959739685059,
        0.03931279480457306,
        0.7855026125907898,
        -0.8611103296279907,
        -0.009799769148230553,
        -0.03897852078080177,
        -2.1578173637390137,
        -0.5508496165275574,
        0.07983601838350296,
        -0.07763514667749405,
        0.009624077007174492,
        0.02395569160580635,
        0.03827662393450737,
        -3.69677734375,
        -6.160303592681885,
        -1.5106091499328613,
        0.6537315249443054,
        0.015667155385017395,
        -0.6054231524467468,
        0.5097659826278687,
        -0.3932781219482422,
        -1.3136049509048462,
        -0.43194541335105896,
        0.501844048500061,
        -0.5464542508125305,
        0.19354602694511414,
        -0.0018509436631575227,
        0.09504282474517822,
        0.016212524846196175,
        0.05053103342652321,
        0.04173210635781288,
        -0.02030794322490692,
        0.04812099412083626,
        0.005354218650609255,
        -0.022159110754728317,
        1.5884648561477661,
        -1.206712245941162,
        0.667030930519104,
        0.8845092058181763,
        -1.6992982625961304,
        0.15131530165672302,
        -0.7468327283859253,
        -0.15024198591709137,
        0.3324697017669678,
        0.030905624851584435,
        -1.4193607568740845,
        0.24257394671440125,
        -0.40893128514289856,
        0.009528730995953083,
        0.05387965962290764,
        0.04870728403329849,
        -0.09082899242639542,
        -0.013987493701279163,
        -0.004338680300861597,
        -0.0031125126406550407,
        -0.004853054881095886,
        0.0049018217250704765,
        -11.628169059753418,
        -10.261725425720215,
        1.1075541973114014,
        0.11803552508354187,
        -3.007761240005493,
        0.02707391418516636,
        -0.6780980229377747,
        0.13125386834144592,
        0.27532047033309937,
        0.06750493496656418,
        0.48972025513648987,
        -0.21441587805747986,
        0.6525946259498596,
        -0.00624679634347558,
        -0.46012741327285767,
        0.18064561486244202,
        -0.21655365824699402,
        -0.08048535138368607,
        -0.021926240995526314,
        0.0763721689581871,
        0.022422777488827705,
        -9.515341758728027,
        -14.1814546585083,
        -18.154191970825195,
        0.4883895218372345,
        0.13020512461662292,
        0.07036134600639343,
        0.6734866499900818,
        -0.054058946669101715,
        -0.7414673566818237,
        -0.32258474826812744,
        -0.1970084309577942,
        -0.503490686416626,
        -0.05391399934887886,
        -0.10246194154024124,
        -0.0025258788373321295,
        0.059651609510183334,
        0.03813953697681427,
        -1.3700060844421387,
        0.026114070788025856,
        -0.23551355302333832,
        -0.02931704744696617,
        0.041483327746391296,
        -0.32051771879196167,
        0.9081882238388062,
        2.3170435428619385,
        -1.2593683004379272,
        0.020416229963302612,
        0.08217409998178482,
        0.02683689445257187,
        0.46612846851348877,
        0.15276537835597992,
        -0.32923704385757446,
        -0.18338042497634888,
        0.5262933969497681,
        -0.2927783131599426,
        0.7861708402633667,
        -0.2617443799972534,
        -0.04290838539600372,
        0.49420392513275146,
        -0.5554227828979492,
        0.04309820756316185,
        0.39090830087661743,
        0.025512712076306343,
        -0.788877010345459,
        -0.6858153343200684,
        -6.472192287445068,
        -1.8887300491333008,
        -0.2881273329257965,
        0.2746630907058716,
        -0.3624759912490845,
        -0.06100272387266159,
        0.5673186182975769,
        0.1760159432888031,
        0.04508374258875847,
        -0.2551068067550659,
        0.0772571936249733,
        -0.008913679979741573,
        -0.2915874421596527,
        -0.004756702575832605,
        0.07076413929462433,
        -0.038787465542554855,
        0.02993764914572239,
        -0.03468094766139984,
        -0.004232045728713274,
        0.005020886193960905,
        0.003145313123241067,
        -1.7897869348526,
        -7.8603997230529785,
        -8.346990585327148,
        -0.4382721185684204,
        -0.2426207959651947,
        -0.10714790970087051,
        0.2073342353105545,
        0.09062183648347855,
        -0.050206419080495834,
        0.48605749011039734,
        -0.14347463846206665,
        0.14349260926246643,
        -0.19384713470935822,
        0.3351480960845947,
        0.0006378341349773109,
        0.01624174974858761,
        0.11285219341516495,
        -0.4369243085384369,
        0.027028888463974,
        -0.01906527392566204,
        -0.007245517801493406,
        0.08282378315925598,
        -0.02529834769666195,
        5.581867218017578,
        1.6186928749084473,
        -1.9050835371017456,
        0.5131644606590271,
        -0.009255141019821167,
        -0.9671021103858948,
        0.19260479509830475,
        0.3001171946525574,
        -0.2488863170146942,
        0.22727355360984802,
        0.44859349727630615,
        0.09994148463010788,
        0.19642505049705505,
        0.008042793720960617,
        -0.024652378633618355,
        0.1256938874721527,
        -0.09394625574350357,
        0.04282787814736366,
        0.01750597357749939,
        -0.050420746207237244,
        0.023758381605148315,
        0.03128449246287346,
        8.532730102539062,
        6.874180316925049,
        -0.08093080669641495,
        0.7703186273574829,
        -0.014077069237828255,
        0.038727663457393646,
        0.20343977212905884,
        -1.0756664276123047,
        -0.07837727665901184,
        -0.6761670112609863,
        0.3613039553165436,
        0.6316776275634766,
        0.4812059998512268,
        -0.17005455493927002,
        0.1665782928466797,
        0.2103899121284485,
        -0.7275508642196655,
        -0.06832470744848251,
        -0.0244198739528656,
        0.021325495094060898,
        -0.026473263278603554,
        -1.733467936515808,
        2.8459105491638184,
        1.363301157951355,
        -3.363680124282837,
        -0.17764802277088165,
        0.038455475121736526,
        -0.777793288230896,
        0.35766422748565674,
        0.2932812571525574,
        -1.0091485977172852,
        0.12551692128181458,
        0.37254440784454346,
        0.05741432309150696,
        0.4337162673473358,
        0.0005373837775550783,
        0.11368750035762787,
        -0.9085472822189331,
        0.7859266996383667,
        0.16153812408447266,
        0.025418687611818314,
        0.11873004585504532,
        -0.029518984258174896,
        -4.892579078674316,
        -8.57870101928711,
        -7.58444881439209,
        1.9829916954040527,
        0.11065710335969925,
        -0.46115052700042725,
        -0.056159067898988724,
        0.2701050937175751,
        0.018557511270046234,
        0.14332318305969238,
        0.3333570659160614,
        -0.05885991081595421,
        -0.010388626717031002,
        -0.47733789682388306,
        0.0011630631051957607,
        -0.8151389956474304,
        0.0264290701597929,
        0.08362361788749695,
        0.24621647596359253,
        0.19894003868103027,
        0.24170924723148346,
        -0.22091098129749298,
        0.0526638962328434,
        2.5772955417633057,
        2.4245147705078125,
        0.1856018751859665,
        -0.00030651394627057016,
        -0.6073271036148071,
        -2.863459348678589,
        1.0549495220184326,
        -0.8063866496086121,
        0.24695098400115967,
        -0.762952983379364,
        -0.4693906903266907,
        0.1023154929280281,
        1.0410951375961304,
        0.21893002092838287,
        0.059022508561611176,
        0.31876611709594727,
        0.4611961841583252,
        -0.05652189627289772,
        0.008373095653951168,
        -0.07706280797719955,
        0.07191544026136398,
        -0.061847664415836334,
        1.6323926448822021,
        2.0891611576080322,
        -1.723272442817688,
        1.0663020610809326,
        0.11540646851062775,
        -0.5855756998062134,
        -0.5517557859420776,
        -0.2876938581466675,
        0.5210162997245789,
        -0.23192808032035828,
        0.20286105573177338,
        -0.03116435930132866,
        -0.7653471827507019,
        -0.017872311174869537,
        -0.37858134508132935,
        -1.6952245235443115,
        -0.9170675277709961,
        0.007951784878969193,
        -0.3136935234069824,
        -0.05191739276051521,
        -0.03071766346693039,
        -0.190482959151268,
        3.580059289932251,
        1.8236392736434937,
        2.0560312271118164,
        1.1789770126342773,
        0.1829766184091568,
        -1.4718064069747925,
        1.5047495365142822,
        -0.15633942186832428,
        -1.4895023107528687,
        -0.3837202787399292,
        -0.378810316324234,
        -0.42960843443870544,
        2.078195095062256,
        -0.712513267993927,
        0.00553904240950942,
        1.0234040021896362,
        1.5006754398345947,
        0.03840794414281845,
        -0.006277359556406736,
        0.16332823038101196,
        -0.21325266361236572,
        0.006053047254681587,
        2.8067879676818848,
        3.1030499935150146,
        -0.38372495770454407,
        -1.4920002222061157,
        0.010238767601549625,
        -0.44370555877685547,
        -0.045377206057310104,
        -0.19901880621910095,
        -0.1209864690899849,
        -0.20112863183021545,
        -0.2851158082485199,
        -0.03370342031121254,
        0.6619872450828552,
        -0.006645027082413435,
        0.03219688683748245,
        0.17813095450401306,
        -0.22619996964931488,
        0.07413573563098907,
        -0.011469187214970589,
        -0.05491720512509346,
        -0.012083971872925758,
        -0.38114145398139954,
        -10.185420036315918,
        -14.032150268554688,
        1.4856595993041992,
        -4.647150993347168,
        -0.02446124330163002,
        -0.03318556770682335,
        0.01948726177215576,
        0.2515302300453186,
        0.33594396710395813,
        -0.026996824890375137,
        0.2124575674533844,
        0.1560067981481552,
        -0.7235825657844543,
        -0.42940035462379456,
        -0.07532180845737457,
        1.0122032165527344,
        -0.5892982482910156,
        0.013129258528351784,
        0.021990472450852394,
        0.0051218243315815926,
        0.01409345306456089,
        -0.0027561422903090715,
        -6.342003345489502,
        -11.71158218383789,
        0.6486161947250366,
        0.1925877183675766,
        0.03205497935414314,
        0.2752377986907959,
        0.036750953644514084,
        -0.29339927434921265,
        -0.16607633233070374,
        0.07633668929338455,
        0.15653783082962036,
        0.09720825403928757,
        0.2007930874824524,
        -0.014306040480732918,
        0.01565370336174965,
        1.1048542261123657,
        0.38584259152412415,
        0.08164523541927338,
        -0.13942286372184753,
        0.09403246641159058,
        0.08522041887044907,
        -0.035207513719797134,
        -3.911426305770874,
        -5.030462265014648,
        1.2621210813522339,
        0.621367871761322,
        0.006837898399680853,
        0.2298889458179474,
        0.541434109210968,
        -0.007556229829788208,
        -0.640720546245575,
        0.10902104526758194,
        0.29862576723098755,
        -0.2537640333175659,
        0.1626703143119812,
        -0.28335174918174744,
        0.03245687112212181,
        -0.040987834334373474,
        0.0538066029548645,
        -0.00048013325431384146,
        0.020128853619098663,
        0.034718532115221024,
        0.007771052420139313,
        0.08191211521625519,
        -6.0443620681762695,
        -4.872920989990234,
        0.45542821288108826,
        -4.291944980621338,
        0.0811552181839943,
        0.07057801634073257,
        0.7964600324630737,
        -0.07728709280490875,
        0.6735703945159912,
        -0.9577128291130066,
        0.04632953926920891,
        -0.3623773753643036,
        -0.6928310394287109,
        0.0005068999016657472,
        -0.10099858045578003,
        -0.1968950629234314,
        0.18480877578258514,
        -0.010765600018203259,
        -0.01657160185277462,
        0.006212991662323475,
        0.02871648222208023,
        -1.6038663387298584,
        -6.779670715332031,
        -5.876218318939209,
        -1.263526201248169,
        -0.12873917818069458,
        0.011976340785622597,
        -0.17777490615844727,
        -0.7411074638366699,
        0.2377706915140152,
        0.1165299192070961,
        0.8355425000190735,
        0.8113323450088501,
        -1.0222347974777222,
        1.234292984008789,
        0.00017433377797715366,
        0.12025011330842972,
        0.17800568044185638,
        -0.2699717879295349,
        0.0020582431461662054,
        0.009947364218533039,
        -0.030544377863407135,
        -0.19180330634117126,
        -0.21317920088768005,
        -1.5383999347686768,
        2.703357458114624,
        0.02384447120130062,
        -0.14413785934448242,
        -0.13898898661136627,
        -0.05270867794752121,
        3.100818395614624,
        -0.9389322400093079,
        0.742215096950531,
        -1.3687607049942017,
        -0.25558292865753174,
        -0.07156352698802948,
        0.8764588236808777,
        -0.5148213505744934,
        0.006265933625400066,
        1.529945969581604,
        -0.7774572968482971,
        -0.06638042628765106,
        -0.015086306259036064,
        0.03298453986644745,
        0.04388977214694023,
        0.03740561380982399,
        1.3338778018951416,
        -3.564384937286377,
        -3.7743701934814453,
        0.12238132208585739,
        0.011338106356561184,
        0.3389054536819458,
        -0.015701808035373688,
        -0.4967624545097351,
        -0.24675893783569336,
        -0.11634349822998047,
        -0.2900310456752777,
        0.04214346781373024,
        -0.26658791303634644,
        0.006773053668439388,
        -0.010423023253679276,
        -1.4824490547180176,
        0.6975681781768799,
        -0.08386538922786713,
        -0.03529833257198334,
        -0.03788872808218002,
        0.01908711902797222,
        0.0077771940268576145,
        3.1976916790008545,
        -1.482895016670227,
        -4.869022846221924,
        0.6957470178604126,
        0.0006254356121644378,
        0.4177009165287018,
        -0.1310330331325531,
        -0.47830072045326233,
        -0.6837067604064941,
        -0.07003764063119888,
        0.009175245650112629,
        -0.0014803054509684443,
        0.27660512924194336,
        -0.0007887816755101085,
        -1.1895129680633545,
        -1.3840974569320679,
        -1.0933575630187988,
        0.011420822702348232,
        -0.004957383032888174,
        -0.06173097342252731,
        -0.019875574856996536,
        -0.008920209482312202,
        4.176089763641357,
        1.0619511604309082,
        0.7363631725311279,
        0.31093740463256836,
        -0.022922636941075325,
        -0.21736587584018707,
        0.3099021911621094,
        -0.2820932865142822,
        0.2423895001411438,
        -0.1215730831027031,
        0.4125462472438812,
        0.24826787412166595,
        -0.39658817648887634,
        -0.5046838521957397,
        -0.033642206341028214,
        1.814767837524414,
        0.2886548936367035,
        -0.22107329964637756,
        0.014581937342882156,
        0.0637541264295578,
        -0.022315118461847305,
        -0.0023888463620096445,
        -4.393255233764648,
        -7.574857711791992,
        -1.55800461769104,
        -0.18510381877422333,
        -0.02357476018369198,
        0.20096205174922943,
        0.23003076016902924,
        -0.21959972381591797,
        -0.9009542465209961,
        -0.05791691318154335,
        -1.372270107269287,
        -0.13661184906959534,
        0.29476386308670044,
        -0.001910320483148098,
        -2.3547983169555664,
        -0.9140357971191406,
        -1.4905879497528076,
        0.0987602025270462,
        -0.09679180383682251,
        0.01227966696023941,
        -0.07427904009819031,
        0.04696821793913841,
        2.859754800796509,
        1.5999656915664673,
        -1.5888537168502808,
        -4.323553085327148,
        -0.10472104698419571,
        0.09678295999765396,
        -0.3220061659812927,
        -0.172515869140625,
        0.019782308489084244,
        -0.08338285982608795,
        -0.06184592470526695,
        -0.04591355100274086,
        0.2665063142776489,
        0.0008311888086609542,
        0.323160320520401,
        -0.039406098425388336,
        -0.08944910764694214,
        -0.36280861496925354,
        0.06219136342406273,
        -0.35182854533195496,
        0.2358752191066742,
        -0.7848830223083496,
        -10.763540267944336,
        -8.723122596740723,
        1.6726157665252686,
        -1.861243724822998,
        0.03827077895402908,
        -0.783941388130188,
        -0.8035592436790466,
        -0.12968005239963531,
        -2.2468690872192383,
        -0.10268155485391617,
        -2.136516571044922,
        -0.2866610288619995,
        -0.9307963252067566,
        0.1547752320766449,
        -0.10730350017547607,
        -0.447416752576828,
        -0.037474047392606735,
        -0.01891050860285759,
        -0.41910842061042786,
        -0.037104420363903046,
        0.1506461799144745,
        -0.011643072590231895,
        5.3072614669799805,
        3.5461208820343018,
        0.13568198680877686,
        0.3812614381313324,
        -0.1081007793545723,
        -0.0013602360850200057,
        0.2355952262878418,
        -2.255782127380371,
        -0.3495194613933563,
        -0.1723443865776062,
        0.36062338948249817,
        0.6929850578308105,
        0.6373239159584045,
        -0.2865493893623352,
        -0.008990185335278511,
        -0.0014808017294853926,
        -0.00681337108835578,
        -0.09296223521232605,
        -0.004519308917224407,
        -0.0024661666247993708,
        6.723822116851807,
        0.004085823427885771,
        3.2142982482910156,
        4.802232265472412,
        0.0816677138209343,
        -4.956430435180664,
        -0.001858375035226345,
        -0.0306486077606678,
        0.07253297418355942,
        -0.07025153189897537,
        0.00028651938191615045,
        0.07224563509225845,
        0.03659328818321228,
        -0.0466659851372242,
        -0.10425520688295364,
        0.0009811600903049111,
        -0.2927769720554352,
        1.9097944498062134,
        1.3108714818954468,
        -0.21321150660514832,
        0.051249414682388306,
        -0.17408867180347443,
        -0.21921883523464203,
        -1.7237143516540527,
        -2.6078596115112305,
        -2.7790400981903076,
        -0.9532772898674011,
        -1.147196888923645,
        -0.5490702986717224,
        0.4003945589065552,
        1.4825127124786377,
        -2.607081413269043,
        -0.14362773299217224,
        -1.8698794841766357,
        -0.6092546582221985,
        0.08007478713989258,
        0.8471193909645081,
        -0.3389164209365845,
        0.014524903148412704,
        -1.5776965618133545,
        -1.1481903791427612,
        -0.003268435364589095,
        -0.19474491477012634,
        -0.06663079559803009,
        -0.02935197204351425,
        -0.029956838116049767,
        0.5401269793510437,
        -1.1203097105026245,
        -0.8852763772010803,
        0.6603789925575256,
        -0.030666090548038483,
        -0.4134975075721741,
        -0.2304660975933075,
        -1.0297269821166992,
        -0.03665616363286972,
        -0.8296107649803162,
        -0.39725878834724426,
        0.31495651602745056,
        0.7501131892204285,
        -0.0008256671717390418,
        -0.007851940579712391,
        0.12527215480804443,
        -0.23726195096969604,
        0.014922183938324451,
        0.012140965089201927,
        -0.025505349040031433,
        0.011024052277207375,
        -0.029297780245542526,
        5.964198112487793,
        6.90633487701416,
        -2.7455954551696777,
        1.0283284187316895,
        -0.004114462528377771,
        0.0024890857748687267,
        -0.1739630103111267,
        -0.14713792502880096,
        -0.04301607236266136,
        0.1957702934741974,
        0.47406116127967834,
        0.10033289343118668,
        0.5547997355461121,
        -0.15108104050159454,
        -0.8163039684295654,
        1.021873116493225,
        0.9878848195075989,
        0.026825955137610435,
        0.24500316381454468,
        -0.04929233714938164,
        -0.29278963804244995,
        -0.4935148060321808,
        1.7393003702163696,
        1.3857207298278809,
        0.7704772353172302,
        -0.0738321989774704,
        -0.481065571308136,
        -0.6531810164451599,
        1.558703899383545,
        -0.3666650354862213,
        0.03262723609805107,
        -0.37840303778648376,
        0.048596132546663284,
        -0.5224030017852783,
        1.7980901002883911,
        -0.022909844294190407,
        -0.1088918074965477,
        -0.15111340582370758,
        -0.27756768465042114,
        -0.22448545694351196,
        -0.019681187346577644,
        -0.2609676420688629,
        0.013813722878694534,
        0.04572165012359619,
        -0.4100632071495056,
        -2.0054426193237305,
        1.5056824684143066,
        0.9743350744247437,
        -0.06895513832569122,
        -0.5373188257217407,
        -5.629303455352783,
        -6.848244667053223,
        -1.0486232042312622,
        -6.660885334014893,
        -0.5338395833969116,
        0.04671991243958473,
        -4.263866424560547,
        0.7550889849662781,
        -0.5517443418502808,
        0.03863484039902687,
        0.033180706202983856,
        -0.35896408557891846,
        -0.008009376004338264,
        -0.4208390712738037,
        0.07145609706640244,
        0.16598355770111084,
        -5.802443027496338,
        -8.16260814666748,
        0.2698356807231903,
        0.6792680621147156,
        -0.22340448200702667,
        0.05304998531937599,
        -1.1432114839553833,
        -0.30919069051742554,
        0.010725217871367931,
        -0.28291064500808716,
        -0.916162371635437,
        1.0563240051269531,
        -3.3924672603607178,
        -0.011119302362203598,
        0.35608935356140137,
        -1.4940434694290161,
        -1.080859899520874,
        0.024042785167694092,
        -0.050909027457237244,
        -0.07239595055580139,
        -0.055977921932935715,
        -4.034639835357666,
        1.498502492904663,
        1.0252470970153809,
        -0.4617166221141815,
        -0.6499160528182983,
        0.009458567015826702,
        -0.712795615196228,
        -0.029366709291934967,
        -0.28953519463539124,
        -1.9965988397598267,
        -0.28574439883232117,
        -2.674219846725464,
        -0.18053734302520752,
        -0.0540861077606678,
        -0.0002989345812238753,
        -0.04956391081213951,
        0.8945651054382324,
        -0.6756447553634644,
        -0.11541968584060669,
        -0.11824318021535873,
        -0.0471905842423439,
        0.17281889915466309,
        -2.5867137908935547,
        -7.901159286499023,
        -10.273079872131348,
        0.23632875084877014,
        -0.17459911108016968,
        -0.2760606110095978,
        0.007933511398732662,
        0.29966214299201965,
        0.3171347677707672,
        -0.10976770520210266,
        0.07136409729719162,
        0.3890579640865326,
        -0.17475149035453796,
        0.3774634003639221,
        0.0013054142473265529,
        -0.40034690499305725,
        -0.7563940286636353,
        0.766453742980957,
        0.029629437252879143,
        -0.019376540556550026,
        -0.05050596967339516,
        -0.040157705545425415,
        -14.738882064819336,
        -7.261309623718262,
        -3.969395399093628,
        -1.0188325643539429,
        0.07054811716079712,
        -0.00853651948273182,
        -0.2693154811859131,
        -0.1708003282546997,
        0.2331988513469696,
        0.06559230387210846,
        0.00819435529410839,
        0.6624391078948975,
        0.06367697566747665,
        -1.3709889650344849,
        -1.1400428775232285e-05,
        -0.01735861226916313,
        -0.0253852978348732,
        0.061336442828178406,
        -0.03107394091784954,
        -0.00543119665235281,
        -0.07597015798091888,
        0.0037955213338136673,
        -0.05420391261577606,
        0.8244815468788147,
        -0.4996018707752228,
        0.07788058370351791,
        -0.09449660032987595,
        -0.012538103386759758,
        0.026117246598005295,
        0.701210618019104,
        -0.9482840299606323,
        -0.01742747239768505,
        -0.7044363021850586,
        0.015188689343631268,
        -0.01735435053706169,
        0.8363128900527954,
        0.22818812727928162,
        -0.09645870327949524,
        -0.16404341161251068,
        0.27167773246765137,
        -0.01034217793494463,
        -0.02108408883213997,
        -0.10131856799125671,
        0.05882204696536064,
        -0.09898797422647476,
        -4.188345909118652,
        -2.7474803924560547,
        0.91436368227005,
        -6.217638969421387,
        0.006956960540264845,
        -0.41964638233184814,
        -0.04217704012989998,
        0.418731689453125,
        0.5012512803077698,
        -0.10629985481500626,
        0.1276395469903946,
        0.06321229040622711,
        -0.4128012955188751,
        -0.08548123389482498,
        -0.7164825201034546,
        -1.3629310131072998,
        -0.14683647453784943,
        0.15871168673038483,
        -0.011220048181712627,
        0.05133014917373657,
        -0.07387981563806534,
        -2.7771737575531006,
        -4.909755706787109,
        -5.513570785522461,
        0.28578948974609375,
        -0.08923852443695068,
        0.007083471864461899,
        -0.013839693740010262,
        0.8944095969200134,
        -0.018840985372662544,
        -0.7648693323135376,
        0.1863006353378296,
        -0.3227079510688782,
        -0.05733747407793999,
        0.09265881031751633,
        -0.15175867080688477,
        -0.4999014139175415,
        -0.00734331738203764,
        -1.185791254043579,
        0.0259206835180521,
        0.007512550801038742,
        0.0034329304471611977,
        -0.014255737885832787,
        0.013110710307955742,
        3.1002914905548096,
        1.6759103536605835,
        0.6594041585922241,
        -0.7771610617637634,
        -0.16109414398670197,
        -0.17034171521663666,
        -1.4789506196975708,
        0.19590765237808228,
        -0.3733774423599243,
        0.11677335947751999,
        0.790184736251831,
        -0.5027339458465576,
        -0.05715421959757805,
        0.0011068969033658504,
        0.2593887448310852,
        -0.18770623207092285,
        0.22024370729923248,
        0.02141404338181019,
        -0.0033023853320628405,
        -0.06372398883104324,
        4.753314715344459e-05,
        -16.706340789794922,
        -4.821277618408203,
        -3.988070249557495,
        0.8622453212738037,
        0.5886619091033936,
        0.007353891618549824,
        -0.1029077097773552,
        -0.5579007267951965,
        0.05491993576288223,
        0.13991163671016693,
        -0.073817178606987,
        -0.2603106200695038,
        0.27139633893966675,
        -0.5309468507766724,
        0.004306361544877291,
        0.18088661134243011,
        1.1614491939544678,
        1.453716516494751,
        0.0042184568010270596,
        0.062105096876621246,
        0.01719779148697853,
        -0.012495218776166439,
        -3.382427453994751,
        0.997692883014679,
        1.5601918697357178,
        -1.2250993251800537,
        -3.723628044128418,
        -0.00505981408059597,
        -0.7947240471839905,
        -0.10069910436868668,
        -0.2934280037879944,
        -0.17299994826316833,
        -0.19619448482990265,
        -0.06579990684986115,
        -0.2587393522262573,
        0.18266110122203827,
        0.00012032469385303557,
        0.026284102350473404,
        -1.664635419845581,
        0.346024751663208,
        -0.09145676344633102,
        0.002820228459313512,
        0.08809167146682739,
        0.06034636124968529,
        -0.4159781336784363,
        -1.7633506059646606,
        -6.684396266937256,
        -2.281717538833618,
        0.23959071934223175,
        0.016323549672961235,
        0.18169835209846497,
        -0.4041737914085388,
        -0.3600357174873352,
        0.07667946815490723,
        -0.15466096997261047,
        0.10779869556427002,
        -0.20776891708374023,
        0.22756393253803253,
        0.0006415595998987556,
        -0.4203540086746216,
        -1.3347567319869995,
        -1.289455771446228,
        0.04593011364340782,
        0.26210328936576843,
        0.16694329679012299,
        0.16403740644454956,
        -0.7575281858444214,
        -0.5747396945953369,
        -1.3798551559448242,
        -0.02114960551261902,
        0.35602739453315735,
        -0.021987320855259895,
        0.3094666302204132,
        0.5235015153884888,
        -0.9572378993034363,
        -0.5616159439086914,
        -0.5712066292762756,
        0.333598792552948,
        -0.43192005157470703,
        0.6162630915641785,
        -0.18487586081027985,
        -1.2343417406082153,
        0.7807148694992065,
        0.26064759492874146,
        0.10638313740491867,
        0.05259157717227936,
        -0.010950298048555851,
        -0.04940253868699074,
        0.006923676934093237,
        -7.88392972946167,
        -8.211956977844238,
        -1.1420289278030396,
        -6.103810787200928,
        -0.037534043192863464,
        -0.18195511400699615,
        0.45524919033050537,
        -0.36747685074806213,
        0.729443371295929,
        0.23471133410930634,
        -0.07100558280944824,
        -0.3617839515209198,
        -1.5260013341903687,
        0.03504557907581329,
        -2.6727542877197266,
        0.22089533507823944,
        -0.245427206158638,
        -0.07362742722034454,
        -0.006928765680640936,
        0.03668617457151413,
        0.020863579586148262,
        0.07059755176305771,
        0.8203326463699341,
        -0.09627576917409897,
        0.8752829432487488,
        -1.1699339151382446,
        0.130078986287117,
        -0.45930594205856323,
        0.5623738169670105,
        0.7643517255783081,
        0.14872097969055176,
        0.2687242031097412,
        0.47370636463165283,
        -0.17009183764457703,
        -0.09355349093675613,
        0.0008546612225472927,
        -0.39147019386291504,
        -0.05499805882573128,
        0.14777809381484985,
        -0.08440029621124268,
        -0.061134256422519684,
        0.04611074924468994,
        0.023756397888064384,
        0.022995470091700554,
        1.00527822971344,
        -0.6677059531211853,
        1.0905474424362183,
        0.282683402299881,
        0.032125797122716904,
        -0.25443270802497864,
        -0.9481831192970276,
        0.26891785860061646,
        -0.39842689037323,
        -0.1986485868692398,
        0.8484225273132324,
        -0.06797429174184799,
        0.06949925422668457,
        -0.047755952924489975,
        0.0022146760020405054,
        0.008728661574423313,
        0.0012839529663324356,
        10.143813133239746,
        -0.0016491255955770612,
        3.0022406578063965,
        0.015007329173386097,
        5.271285772323608e-07,
        1.2499834299087524,
        -0.863754153251648,
        -7.561627388000488,
        -0.08557009696960449,
        -0.006750296335667372,
        -0.004095598589628935,
        0.005787729285657406,
        0.0034046252258121967,
        -0.037682000547647476,
        -0.03599816560745239,
        0.023276709020137787,
        0.051455989480018616,
        0.00426270067691803,
        -0.000474265223601833,
        -4.675825595855713,
        -0.2592901587486267,
        0.46397215127944946,
        -0.10275524109601974,
        0.0009827630128711462,
        -0.034747280180454254,
        0.02019048109650612,
        -0.9489074945449829,
        4.417685508728027,
        4.280696392059326,
        -1.0515246391296387,
        0.024617787450551987,
        -0.5905438661575317,
        0.24144884943962097,
        -0.06294910609722137,
        -0.40359169244766235,
        -0.2927018105983734,
        0.21279805898666382,
        0.24813765287399292,
        0.24495749175548553,
        0.7044184803962708,
        -0.013518770225346088,
        0.10075587779283524,
        0.018818961456418037,
        -0.08509302139282227,
        0.003282580990344286,
        0.01442231796681881,
        -0.0037194043397903442,
        -0.02023227885365486,
        -3.407320737838745,
        -12.133963584899902,
        -12.625980377197266,
        0.23012791574001312,
        0.26781389117240906,
        -2.5045578479766846,
        0.6185848116874695,
        -0.25592240691185,
        -0.30188485980033875,
        0.13167807459831238,
        -0.5829919576644897,
        -0.4799002707004547,
        -0.7319602966308594,
        -0.7369650602340698,
        0.027281535789370537,
        -1.3437039852142334,
        -1.029366374015808,
        0.31990376114845276,
        -0.51377934217453,
        0.04282451793551445,
        -0.6875888705253601,
        0.0681048035621643,
        0.04482176899909973,
        2.3711776733398438,
        2.689345121383667,
        0.6463771462440491,
        0.6804126501083374,
        0.08994655311107635,
        -0.5320286750793457,
        0.6127804517745972,
        -0.11537366360425949,
        0.3301619291305542,
        -0.0184548981487751,
        -0.3152143657207489,
        0.11916761845350266,
        -0.3092938959598541,
        -0.009572422131896019,
        0.11793286353349686,
        -0.26953643560409546,
        0.40230268239974976,
        -0.037599023431539536,
        0.015247529372572899,
        0.03030533343553543,
        0.010109943337738514,
        -1.6288254261016846,
        -9.255990982055664,
        -5.119327545166016,
        0.44782984256744385,
        -0.026112036779522896,
        0.05207040160894394,
        -0.19035543501377106,
        0.623894453048706,
        0.4435679316520691,
        0.6216918230056763,
        0.14902426302433014,
        0.030253490433096886,
        -0.20148682594299316,
        -0.19405056536197662,
        0.0037744164001196623,
        -0.01726885698735714,
        2.2034411430358887,
        0.9739026427268982,
        0.05994156002998352,
        0.07115887105464935,
        0.011275812983512878,
        0.12918105721473694,
        0.05001002177596092,
        -4.362732887268066,
        -7.753876686096191,
        -0.2307436317205429,
        -0.7973029613494873,
        0.028868254274129868,
        -0.11314374208450317,
        -0.13691353797912598,
        -0.05107744783163071,
        0.1802774965763092,
        0.008878668770194054,
        0.07140952348709106,
        -0.08219148963689804,
        -0.02836076356470585,
        -0.0025772959925234318,
        0.024549134075641632,
        0.19507218897342682,
        0.20799405872821808,
        0.11542891710996628,
        0.04739343374967575,
        0.15804487466812134,
        0.28797444701194763,
        -0.4072302281856537,
        -1.2183130979537964,
        -2.852905511856079,
        -8.734100341796875,
        -4.8551411628723145,
        -0.21165674924850464,
        0.18477603793144226,
        -0.42182043194770813,
        -0.026887595653533936,
        -0.16939741373062134,
        -0.07487480342388153,
        -0.5568640828132629,
        0.06021140515804291,
        -0.30266305804252625,
        -0.001562622026540339,
        0.1602035015821457,
        0.09863509982824326,
        -0.07948601245880127,
        -0.455188512802124,
        0.011794837191700935,
        -0.49129968881607056,
        -0.19162937998771667,
        0.024202929809689522,
        -2.125033378601074,
        -2.837954521179199,
        -0.6950140595436096,
        0.6923190951347351,
        0.039927251636981964,
        0.5192497372627258,
        1.259926199913025,
        -0.10107535123825073,
        -0.717948853969574,
        -0.6208391785621643,
        -0.7910183668136597,
        0.021220941096544266,
        1.8419122695922852,
        -0.34467220306396484,
        -0.1823979616165161,
        0.01829022541642189,
        0.07634817063808441,
        0.16747011244297028,
        0.4332168698310852,
        0.15842990577220917,
        0.19442829489707947,
        0.037933602929115295,
        7.207302093505859,
        7.121058464050293,
        -0.9161332845687866,
        0.17362624406814575,
        0.0373765267431736,
        0.048219721764326096,
        -0.07824118435382843,
        -0.822932779788971,
        -0.1675347089767456,
        -0.2711569666862488,
        0.11521254479885101,
        -0.06571623682975769,
        -0.0804438441991806,
        -0.0019269195618107915,
        0.07978522777557373,
        0.3179871141910553,
        -0.5434294939041138,
        0.03501313924789429,
        -0.016928697004914284,
        0.022776488214731216,
        0.24289745092391968,
        -12.050479888916016,
        -5.253857135772705,
        -3.1399083137512207,
        2.1835289001464844,
        -1.5644373893737793,
        -0.00617917999625206,
        -0.020093398168683052,
        0.3128301501274109,
        0.0869109258055687,
        -0.4017731249332428,
        0.20090535283088684,
        0.09011907130479813,
        0.19098858535289764,
        0.0679822787642479,
        0.0022437372244894505,
        0.03177445009350777,
        -0.07955645024776459,
        0.07698221504688263,
        0.02646891213953495,
        -0.019909456372261047,
        -0.012194240465760231,
        0.013398416340351105,
        0.0011513440404087305,
        -2.620354175567627,
        -1.6681513786315918,
        0.2356249988079071,
        -1.6254901885986328,
        -1.2094827890396118,
        0.005247556138783693,
        -0.802270233631134,
        0.02175641432404518,
        0.2990410625934601,
        -0.2699291706085205,
        -0.030462129041552544,
        -0.015241534449160099,
        0.30894577503204346,
        -0.004399089142680168,
        0.08297349512577057,
        0.01519885752350092,
        -0.07160171121358871,
        -0.2607314884662628,
        -0.011865401640534401,
        -0.004826161544770002,
        -0.2636517584323883,
        -0.014891915023326874,
        1.3078060150146484,
        0.9045674800872803,
        -1.6502763032913208,
        0.5576540231704712,
        0.06487220525741577,
        -0.08159979432821274,
        0.1399977058172226,
        -0.1431584507226944,
        0.06999828666448593,
        0.24903173744678497,
        0.11502634733915329,
        0.4223802983760834,
        0.2408861666917801,
        -1.0404213666915894,
        -0.00875456165522337,
        -0.2597768306732178,
        0.47728046774864197,
        -0.026597417891025543,
        -0.0227526742964983,
        0.009674659930169582,
        0.04601385071873665,
        -0.29557591676712036,
        1.247515320777893,
        2.3126418590545654,
        0.2440810650587082,
        -0.37069833278656006,
        -0.023765461519360542,
        0.22730247676372528,
        0.08726483583450317,
        -0.5463041067123413,
        -0.5298386812210083,
        -0.37488049268722534,
        0.3572288751602173,
        0.276297390460968,
        -0.20076894760131836,
        -0.00790503527969122,
        -0.25574809312820435,
        0.5180188417434692,
        0.19153884053230286,
        0.03761126101016998,
        -0.06952209770679474,
        0.011377032846212387,
        0.07275702059268951,
        -3.0831336975097656,
        2.841186285018921,
        1.7715153694152832,
        -4.06060266494751,
        -1.069298505783081,
        0.046003106981515884,
        -0.06375031918287277,
        -0.46929609775543213,
        -1.0437301397323608,
        -0.2535473108291626,
        0.11286195367574692,
        0.9112072587013245,
        0.24522504210472107,
        0.1934904009103775,
        0.031132927164435387,
        -0.7111494541168213,
        0.023514065891504288,
        -0.425660103559494,
        0.4435458779335022,
        -0.1416674703359604,
        0.5225623846054077,
        0.12458234280347824,
        -0.9922556281089783,
        -1.4827936887741089,
        -2.3431622982025146,
        -4.943774700164795,
        -3.6075708866119385,
        -0.35202860832214355,
        -0.41216346621513367,
        -3.2005605697631836,
        0.018422476947307587,
        0.5668017864227295,
        -0.18619386851787567,
        0.10832272469997406,
        0.18565739691257477,
        -3.139605760574341,
        -0.24493908882141113,
        0.0030849729664623737,
        -1.186785340309143,
        -1.1149766445159912,
        -0.03904945030808449,
        0.015113663859665394,
        0.012958942912518978,
        -0.021565303206443787,
        -0.022908328101038933,
        0.6131771802902222,
        -1.8496358394622803,
        -0.8712841272354126,
        0.25150609016418457,
        -5.14699931954965e-05,
        -0.41953331232070923,
        0.04034340754151344,
        -0.052414387464523315,
        -0.11499179154634476,
        -0.2367173582315445,
        0.09101518988609314,
        0.1583891212940216,
        0.22445154190063477,
        -0.00554677052423358,
        -0.5585710406303406,
        0.46062999963760376,
        0.02926931343972683,
        -0.2391074001789093,
        -0.15874545276165009,
        -0.23939630389213562,
        -0.1338598132133484,
        0.029349202290177345,
        1.8069095611572266,
        2.64216685295105,
        0.7870258092880249,
        -0.3519883155822754,
        -0.012984410859644413,
        -2.2753384113311768,
        -0.09763887524604797,
        -3.5393083095550537,
        -1.1351581811904907,
        -3.3924944400787354,
        -0.6396790146827698,
        -0.9753246903419495,
        -0.7791721820831299,
        -0.08747947961091995,
        -0.7323228120803833,
        -0.03139009326696396,
        -0.15982817113399506,
        -0.05344212055206299,
        0.06611859798431396,
        -0.14145183563232422,
        -0.044313058257102966,
        -0.34474700689315796,
        -5.414719581604004,
        -4.2433977127075195,
        2.058964252471924,
        0.19407658278942108,
        -0.2545704245567322,
        -0.8106415271759033,
        -0.11479856073856354,
        0.059643253684043884,
        0.0373900942504406,
        -0.03235914930701256,
        0.24517332017421722,
        -0.2837296426296234,
        -1.0305900573730469,
        0.01195409893989563,
        -0.012057165615260601,
        0.0007495154859498143,
        0.06887979060411453,
        0.062000107020139694,
        -0.01941400207579136,
        -0.06479407101869583,
        0.02177879586815834,
        0.01752927154302597,
        6.501213550567627,
        3.04990553855896,
        -10.850785255432129,
        -3.9878311157226562,
        -0.2189227193593979,
        -0.24193793535232544,
        0.07086087018251419,
        0.009693589992821217,
        0.2235993891954422,
        -0.19283714890480042,
        -0.031158994883298874,
        0.1982423961162567,
        -0.10251422226428986,
        0.024367278441786766,
        -6.8864665031433105,
        0.003260992933064699,
        0.03567858040332794,
        0.10224808007478714,
        0.012327977456152439,
        0.03730582445859909,
        -0.13508349657058716,
        -13.322412490844727,
        -0.2443811148405075,
        3.3471763134002686,
        0.38669055700302124,
        0.09973374754190445,
        0.03377879038453102,
        -0.07392112165689468,
        0.6365557312965393,
        0.31102150678634644,
        0.506639301776886,
        0.10940118879079819,
        0.12774266302585602,
        -0.1687704175710678,
        0.7169025540351868,
        -0.00017407936684321612,
        -0.05498955771327019,
        -1.3311244249343872,
        1.3670488595962524,
        0.0019243925344198942,
        -0.035609688609838486,
        0.09487387537956238,
        0.048252303153276443,
        -4.406479358673096,
        -8.540969848632812,
        -10.723050117492676,
        0.49789029359817505,
        0.33449870347976685,
        0.02916642464697361,
        -0.0549117848277092,
        0.27053385972976685,
        0.030659984797239304,
        -0.1674002856016159,
        0.17730356752872467,
        0.5640980005264282,
        0.10665774345397949,
        0.17863129079341888,
        -0.008336909115314484,
        -0.006339394487440586,
        0.36908087134361267,
        1.5975908041000366,
        0.00019088247790932655,
        -0.035156071186065674,
        -0.03226328268647194,
        0.02119448035955429,
        -0.01717623695731163,
        1.7476390600204468,
        2.76802659034729,
        -0.12495922297239304,
        -0.6695622205734253,
        0.01969704031944275,
        -0.22470219433307648,
        0.17068946361541748,
        -0.13436317443847656,
        -0.1238575428724289,
        -0.10936721414327621,
        0.19900944828987122,
        0.03163611516356468,
        -0.1658843755722046,
        0.0010436279699206352,
        -0.47374311089515686,
        -0.121738001704216,
        0.0265253446996212,
        -0.02443736046552658,
        0.028246672824025154,
        -0.16825170814990997,
        -0.02077379636466503,
        -0.06209840252995491,
        -8.537008285522461,
        -7.402379035949707,
        1.3106993436813354,
        -0.9094727635383606,
        -0.027585262432694435,
        -0.09412907809019089,
        0.20087625086307526,
        0.3404214680194855,
        0.22158505022525787,
        0.14106321334838867,
        0.1342322677373886,
        -0.04633285850286484,
        -0.661892831325531,
        0.008973056450486183,
        0.06424178183078766,
        0.25711238384246826,
        -0.3261405825614929,
        -0.33735644817352295,
        -0.0016225408762693405,
        -0.32251280546188354,
        -0.015808627009391785,
        -0.8140007257461548,
        -7.461018085479736,
        -5.230645179748535,
        0.8659375309944153,
        -0.09726336598396301,
        -0.21353667974472046,
        -0.43362051248550415,
        0.13932229578495026,
        0.512114942073822,
        0.0867646113038063,
        0.2072179764509201,
        0.2950054705142975,
        0.02956266887485981,
        -0.15160951018333435,
        0.01916356571018696,
        -0.019181331619620323,
        0.3344673216342926,
        -0.5712977051734924,
        -0.077256940305233,
        0.5971779823303223,
        0.0004334043769631535,
        0.016048960387706757,
        0.04706256836652756,
        6.472644805908203,
        3.9509191513061523,
        -0.47558847069740295,
        -0.22350016236305237,
        -0.00040480511961504817,
        0.06746752560138702,
        -0.4986155927181244,
        -0.6365354061126709,
        -0.33717474341392517,
        -0.24089515209197998,
        -0.0641000047326088,
        0.13938984274864197,
        -0.31658080220222473,
        -0.01231907308101654,
        0.029051288962364197,
        -0.06498231738805771,
        0.128388911485672,
        0.016380656510591507,
        0.01594601199030876,
        0.06335576623678207,
        0.004633211065083742,
        0.037800081074237823,
        -12.112909317016602,
        -9.692279815673828,
        -0.6120399832725525,
        -0.27017855644226074,
        0.01962166838347912,
        -0.013659928925335407,
        -0.43555930256843567,
        -0.15762017667293549,
        0.3375035226345062,
        0.25059646368026733,
        0.3815915286540985,
        0.005924812983721495,
        0.5518497824668884,
        -0.128244549036026,
        0.005364491604268551,
        -0.20071370899677277,
        0.1699787676334381,
        -0.04334332048892975,
        -0.010797401890158653,
        -0.15081967413425446,
        -0.05097392573952675,
        0.11351142078638077,
        -6.898527145385742,
        -4.362890243530273,
        4.274469375610352,
        -0.6035452485084534,
        0.1593933403491974,
        -0.24165675044059753,
        0.22231431305408478,
        0.22521477937698364,
        0.1812911033630371,
        0.1919630914926529,
        0.1154911145567894,
        -0.04711267724633217,
        -0.023719605058431625,
        -0.008456709794700146,
        0.1465543806552887,
        -0.2639486491680145,
        0.4012318253517151,
        -0.06294212490320206,
        -0.099022775888443,
        -0.2717786133289337,
        0.11017406731843948,
        -2.1648049354553223,
        -5.713264465332031,
        -6.345541954040527,
        1.1663377285003662,
        -0.2735954821109772,
        0.10545919090509415,
        -0.26427435874938965,
        -0.02622065506875515,
        0.3928837180137634,
        -0.22112993896007538,
        0.11265312880277634,
        0.7436488270759583,
        -0.40777450799942017,
        -0.22362376749515533,
        -0.013939843513071537,
        0.1217728778719902,
        0.18665964901447296,
        -0.22242522239685059,
        -0.020040439441800117,
        -0.007298055104911327,
        -0.0016430099494755268,
        0.012062324211001396,
        -0.08262567967176437,
        -9.347143173217773,
        -9.34093189239502,
        1.7289284467697144,
        0.13794460892677307,
        -0.7888901233673096,
        -0.1002606451511383,
        -0.6469858288764954,
        0.19053082168102264,
        0.1885787695646286,
        0.18168602883815765,
        0.012831322848796844,
        0.20267117023468018,
        0.8341381549835205,
        0.023270955309271812,
        0.25959715247154236,
        -0.10739216208457947,
        0.1417098492383957,
        0.038014233112335205,
        0.019656013697385788,
        -0.020117728039622307,
        0.004380587488412857,
        -9.1817626953125,
        4.894951343536377,
        1.043791651725769,
        -1.4871413707733154,
        1.0488375425338745,
        0.15466415882110596,
        -0.4748605191707611,
        -0.43392735719680786,
        0.18288500607013702,
        -0.5055427551269531,
        0.07677359879016876,
        0.09241614490747452,
        0.0035898436326533556,
        -0.6480934619903564,
        0.00918098259717226,
        -0.014336529187858105,
        1.9686182737350464,
        -0.6465794444084167,
        0.034204959869384766,
        0.01116748433560133,
        -0.04099733754992485,
        -0.0034585660323500633,
        -0.0018630492268130183,
        1.6877557039260864,
        -3.349294900894165,
        -1.1895257234573364,
        0.4466874897480011,
        0.0020146681927144527,
        0.3546006381511688,
        -0.19035117328166962,
        -0.6216751933097839,
        -0.6137875318527222,
        0.01013509277254343,
        0.219358891248703,
        -0.10570160299539566,
        0.1543581783771515,
        0.00012814419460482895,
        0.08909487724304199,
        -1.0553027391433716,
        -1.1105737686157227,
        -0.033431656658649445,
        -0.0009960519382730126,
        0.09052339196205139,
        0.19308878481388092,
        -0.049865465611219406,
        -3.1626408100128174,
        -3.386151075363159,
        -3.988349437713623,
        -5.2701544761657715,
        -0.014986878260970116,
        -0.39959725737571716,
        0.4849815368652344,
        -0.10428844392299652,
        -1.54379403591156,
        -0.08360271155834198,
        0.4742947816848755,
        -0.2195628434419632,
        0.9446132779121399,
        0.006299434695392847,
        -1.2609879970550537,
        0.4577598571777344,
        -0.6240850687026978,
        0.4705949127674103,
        -0.025253580883145332,
        0.4227123260498047,
        -0.07228511571884155,
        -2.5303874015808105,
        -4.415966987609863,
        -3.473689317703247,
        0.7035477161407471,
        0.13307559490203857,
        0.05124926194548607,
        -1.2264527082443237,
        0.2935430407524109,
        0.17168636620044708,
        0.2630555033683777,
        0.40235182642936707,
        0.6434838771820068,
        -0.46265020966529846,
        1.613480806350708,
        -0.0992041751742363,
        -2.364847183227539,
        -0.30289196968078613,
        0.17053945362567902,
        0.023816769942641258,
        0.010132713243365288,
        -0.0210026353597641,
        -0.02077319845557213,
        0.017469780519604683,
        10.557494163513184,
        8.90445327758789,
        -0.460946261882782,
        0.10145679861307144,
        -0.007243266794830561,
        0.0195945892482996,
        0.3694756031036377,
        -0.8590871691703796,
        0.37567418813705444,
        0.16602325439453125,
        -0.04089708998799324,
        -0.1896735280752182,
        1.357288122177124,
        -0.07876543700695038,
        -0.5189446806907654,
        -0.3673156499862671,
        -0.1192600205540657,
        0.007756056729704142,
        0.10166038572788239,
        0.04503006115555763,
        -0.2839196026325226,
        -0.8220652341842651,
        -5.372600078582764,
        -2.9985806941986084,
        0.4651761054992676,
        0.22412261366844177,
        -0.04277670755982399,
        -0.36940106749534607,
        1.4151496887207031,
        0.0950363501906395,
        0.44243890047073364,
        -0.1780463606119156,
        0.13824447989463806,
        0.0998658612370491,
        1.2075015306472778,
        -0.008394947275519371,
        -0.06953403353691101,
        0.1551966816186905,
        -0.27136555314064026,
        -0.028490034863352776,
        -0.02613663487136364,
        0.01355669368058443,
        0.0116569297388196,
        -0.1291133165359497,
        -5.077643394470215,
        -2.188509464263916,
        0.15789973735809326,
        -1.4301817417144775,
        0.13779428601264954,
        -0.026033775880932808,
        -0.33749309182167053,
        -0.26517951488494873,
        0.2548883259296417,
        -0.721926748752594,
        -0.3794916570186615,
        1.0117143392562866,
        0.07820974290370941,
        -0.009884390980005264,
        -0.23095394670963287,
        0.17300249636173248,
        -0.2504715025424957,
        0.047084685415029526,
        0.02147516794502735,
        -0.06827311962842941,
        0.07801554352045059,
        0.005916860420256853,
        1.0377004146575928,
        2.4860122203826904,
        1.570350170135498,
        -0.38023847341537476,
        0.02409328520298004,
        -0.0077894264832139015,
        0.36887213587760925,
        -0.13704021275043488,
        0.32563361525535583,
        -0.5549179911613464,
        -0.9210721254348755,
        0.46871310472488403,
        -0.2584865689277649,
        0.00011875674681505188,
        -3.5809695720672607,
        0.06510347127914429,
        0.2655755579471588,
        0.02900770492851734,
        -0.025525392964482307,
        -0.05158349126577377,
        0.00287720188498497,
        0.026850014925003052,
        5.312476634979248,
        2.9171807765960693,
        1.2708395719528198,
        0.26289665699005127,
        -0.06904677301645279,
        0.1587613821029663,
        0.4387233257293701,
        0.037432361394166946,
        0.3864448070526123,
        -0.20164449512958527,
        -0.8386099338531494,
        -0.012695358134806156,
        -0.27295711636543274,
        -0.046892572194337845,
        -3.227703332901001,
        0.17224372923374176,
        -0.16021567583084106,
        0.1610846072435379,
        0.018532315269112587,
        -0.07256164401769638,
        -0.06679724901914597,
        -6.061498641967773,
        0.5215568542480469,
        0.8272132873535156,
        0.29402297735214233,
        -0.8251734972000122,
        -0.049062371253967285,
        0.43177711963653564,
        0.516602635383606,
        0.1598350703716278,
        -1.1450835466384888,
        0.19021070003509521,
        -1.1409220695495605,
        0.23164433240890503,
        0.0853283628821373,
        0.0019360812148079276,
        0.010118180885910988,
        -0.1003851443529129,
        0.03645477443933487,
        -0.0055495696142315865,
        -0.0845574215054512,
        0.12901686131954193,
        0.10555265843868256,
        -0.36916106939315796,
        4.4931559562683105,
        5.110726833343506,
        0.21095304191112518,
        0.661934494972229,
        0.05952338129281998,
        0.37175461649894714,
        1.9267826080322266,
        -0.10749033093452454,
        -0.28015148639678955,
        0.4743137061595917,
        -0.4171912968158722,
        -0.7650889754295349,
        1.4923640489578247,
        -0.23280438780784607,
        -2.4280121326446533,
        -0.5376284718513489,
        -0.41950055956840515,
        -0.13921591639518738,
        0.21161529421806335,
        -0.15069755911827087,
        -0.03101130947470665,
        0.11683843284845352,
        4.354059219360352,
        2.3920435905456543,
        -3.9004573822021484,
        -0.45378604531288147,
        0.09671570360660553,
        0.17693565785884857,
        -0.42329081892967224,
        -0.20393133163452148,
        -0.46012455224990845,
        0.053780436515808105,
        -0.047139931470155716,
        0.10826583206653595,
        0.5048531889915466,
        -0.003769171191379428,
        -0.36134836077690125,
        0.8219673037528992,
        1.0913764238357544,
        0.01602109894156456,
        0.03857457637786865,
        0.04778585582971573,
        -0.08962755650281906,
        -11.352395057678223,
        2.239344596862793,
        1.2587989568710327,
        -4.873804569244385,
        -0.8688042759895325,
        0.00584476999938488,
        -0.4001493453979492,
        -0.7584570050239563,
        -0.07650405913591385,
        0.311852365732193,
        -0.15187421441078186,
        -0.05538076534867287,
        0.10094186663627625,
        -0.1304478496313095,
        0.013167211785912514,
        0.17908380925655365,
        0.2955302298069,
        -0.25109609961509705,
        0.2205890715122223,
        0.006615667138248682,
        0.1203843355178833,
        0.012083698064088821,
        -15.841367721557617,
        1.1398375034332275,
        2.4701778888702393,
        -4.2080583572387695,
        -1.343332290649414,
        0.0570564866065979,
        0.12799513339996338,
        0.05453768000006676,
        -0.2142181694507599,
        -0.1951206773519516,
        0.04829106479883194,
        0.10222739726305008,
        -0.047045961022377014,
        0.1682731658220291,
        0.0007552949246019125,
        -1.841797947883606,
        0.036693815141916275,
        -0.1318710297346115,
        -0.033323585987091064,
        0.019016321748495102,
        0.007265602238476276,
        -0.14847888052463531,
        -0.4227105677127838,
        -8.08043098449707,
        -6.7800469398498535,
        0.12869733572006226,
        -1.0469872951507568,
        0.11645295470952988,
        -0.008757170289754868,
        -0.16850119829177856,
        -0.2112414389848709,
        0.2682502865791321,
        -0.29320642352104187,
        0.07173989713191986,
        0.10076148808002472,
        -0.3350523114204407,
        0.140907421708107,
        -1.6384708881378174,
        0.9410467147827148,
        0.2783648371696472,
        0.09216389805078506,
        0.3089149594306946,
        0.06736340373754501,
        -0.14398103952407837,
        -0.02548474818468094,
        -1.8569787740707397,
        -2.0648844242095947,
        0.6502266526222229,
        1.512501835823059,
        -0.20279410481452942,
        0.02340981364250183,
        1.51323664188385,
        0.2803041338920593,
        -0.7299753427505493,
        -0.16759882867336273,
        0.013641905039548874,
        -0.42757633328437805,
        -1.378434419631958,
        -0.19159464538097382,
        -1.333076000213623,
        0.8513273000717163,
        0.5873850584030151,
        0.01918361708521843,
        0.12601782381534576,
        -0.06224050372838974,
        -0.13429149985313416,
        -0.0206401739269495,
        -5.912226676940918,
        -6.237543106079102,
        -0.16267405450344086,
        0.9739738702774048,
        0.12026596069335938,
        -0.057716645300388336,
        -1.2802479267120361,
        -0.42633408308029175,
        -0.1980239599943161,
        0.225060373544693,
        0.13087162375450134,
        0.3255714476108551,
        0.13661718368530273,
        -0.19184505939483643,
        -0.019686251878738403,
        0.2647087872028351,
        1.0740351676940918,
        -0.019175389781594276,
        0.012972133234143257,
        -0.011512648314237595,
        0.008286021649837494,
        -0.07431842386722565,
        6.91776704788208,
        6.296369552612305,
        -0.5546983480453491,
        -0.2706798017024994,
        0.06598832458257675,
        -0.06338445097208023,
        0.40034228563308716,
        -0.9309301972389221,
        -0.28518038988113403,
        -0.49270227551460266,
        0.4954037070274353,
        0.27214157581329346,
        1.2611569166183472,
        -0.006971566937863827,
        0.047170739620923996,
        -0.03826963156461716,
        -0.609088122844696,
        0.14635689556598663,
        -0.22221289575099945,
        0.0956454873085022,
        -0.11136079579591751,
        -0.34915685653686523,
        0.54547119140625,
        0.5688902139663696,
        0.3088720142841339,
        -0.07179881632328033,
        -1.0222097635269165,
        -3.3918533325195312,
        -1.1448943614959717,
        -0.3441646993160248,
        0.11628267914056778,
        -0.1815074384212494,
        0.6910977959632874,
        -0.0065404074266552925,
        -0.683911919593811,
        0.10691583156585693,
        -0.07006093859672546,
        0.149865984916687,
        -0.2641470730304718,
        0.0396868921816349,
        0.0015394844813272357,
        0.019516853615641594,
        0.017448868602514267,
        -0.7971115708351135,
        -6.043198108673096,
        -4.746392726898193,
        1.4584460258483887,
        0.09242567420005798,
        -0.41456109285354614,
        -0.1479651778936386,
        -0.5021191835403442,
        0.47319695353507996,
        0.013788172043859959,
        0.4112941324710846,
        0.25849536061286926,
        -0.09645398706197739,
        -0.4240196943283081,
        0.007945967838168144,
        0.03847977891564369,
        0.1808815747499466,
        -0.3334813117980957,
        -0.09216374903917313,
        0.07826195657253265,
        -0.06836030632257462,
        -0.4186220169067383,
        -0.2791903018951416,
        -0.07324741780757904,
        1.1410799026489258,
        0.40942391753196716,
        0.4666893780231476,
        -1.6138708591461182,
        -0.08424220979213715,
        1.9972604513168335,
        0.4738057851791382,
        0.1898297220468521,
        0.1691010594367981,
        -0.0679522231221199,
        0.23355989158153534,
        -0.7391292452812195,
        -0.48071372509002686,
        0.08667942136526108,
        -1.5918500423431396,
        -1.85520601272583,
        0.18921849131584167,
        -0.3256855607032776,
        0.01914084516465664,
        -0.08039331436157227,
        0.04759892448782921,
        0.6624727249145508,
        1.4213550090789795,
        0.49925848841667175,
        1.1134694814682007,
        -0.1751285046339035,
        0.06703346967697144,
        3.1456289291381836,
        -2.8114352226257324,
        -0.9311878085136414,
        -2.531735897064209,
        -0.9309846758842468,
        -1.3898783922195435,
        2.966766595840454,
        -0.04498109966516495,
        -0.7566506862640381,
        -1.320630669593811,
        -1.1423331499099731,
        0.015779197216033936,
        -0.007665945217013359,
        0.059352170675992966,
        0.060352351516485214,
        -0.0972958505153656,
        2.494392156600952,
        0.07089468091726303,
        -0.7252634763717651,
        -0.9881564378738403,
        -0.03331674635410309,
        -0.06472599506378174,
        0.4893249571323395,
        -0.7834210991859436,
        0.25094619393348694,
        -0.6362521648406982,
        -0.18354539573192596,
        0.2182542234659195,
        -0.11747480183839798,
        -0.00739066069945693,
        -2.4944534301757812,
        0.07346957921981812,
        -0.07719727605581284,
        -0.06165046989917755,
        0.0005950791528448462,
        0.03463265672326088,
        -0.008092586882412434,
        -15.435680389404297,
        4.591466426849365,
        5.1797966957092285,
        1.3109112977981567,
        -0.08331535756587982,
        0.007486335001885891,
        0.046469517052173615,
        -0.5446907877922058,
        -0.06411750614643097,
        -0.2482011616230011,
        0.07972883433103561,
        0.346163809299469,
        -0.019110675901174545,
        0.4977972209453583,
        -0.005327701102942228,
        0.003743825713172555,
        -1.0683774948120117,
        -1.5174598693847656,
        0.40101826190948486,
        0.06554478406906128,
        0.3882807195186615,
        0.0022349851205945015,
        -0.00864843837916851,
        -1.5880001783370972,
        -2.2661709785461426,
        1.7602293491363525,
        0.3146478831768036,
        0.24892960488796234,
        -0.5977302193641663,
        -2.684215784072876,
        -5.319545745849609,
        -0.8648923635482788,
        -6.0034332275390625,
        -0.44906365871429443,
        -0.160066157579422,
        -0.33101391792297363,
        0.44612544775009155,
        0.10480206459760666,
        2.325579881668091,
        2.067751407623291,
        -0.0017818966880440712,
        0.07176234573125839,
        -0.0800316259264946,
        -0.030546871945261955,
        -0.021702054888010025,
        0.7865469455718994,
        -1.2230745553970337,
        0.8146547675132751,
        0.218790203332901,
        -0.017691204324364662,
        -0.4815346896648407,
        0.11958644539117813,
        -1.4373013973236084,
        -0.6234230399131775,
        -1.3150843381881714,
        0.2533232569694519,
        -0.5507521033287048,
        0.7723875641822815,
        0.005659165792167187,
        -0.516575813293457,
        0.008184889331459999,
        -0.052018944174051285,
        0.008579082787036896,
        0.005710190627723932,
        -0.05942275747656822,
        0.0011232281103730202,
        -0.013690994121134281,
        9.59151554107666,
        7.900631904602051,
        -2.0448856353759766,
        -0.20316706597805023,
        -0.052116841077804565,
        -0.06344456970691681,
        0.23842425644397736,
        -0.020548470318317413,
        0.05698617920279503,
        -0.4760112464427948,
        0.2051994502544403,
        0.12585432827472687,
        -0.7625463008880615,
        -0.0011556760873645544,
        0.07153085619211197,
        -0.4452100396156311,
        0.2969048023223877,
        0.057741548866033554,
        0.2945466637611389,
        0.0026762038469314575,
        -0.18425047397613525,
        -0.2604982852935791,
        -5.6479716300964355,
        -4.899460792541504,
        0.6036776304244995,
        0.326142817735672,
        0.03447699919342995,
        0.16992253065109253,
        -0.9880391359329224,
        -0.47258439660072327,
        -0.294532835483551,
        0.08348433673381805,
        0.3962348401546478,
        0.2516290247440338,
        0.5783841013908386,
        -0.002700391225516796,
        -0.0214556735008955,
        -0.142391175031662,
        0.2623880207538605,
        0.006124730221927166,
        0.015702461823821068,
        0.062368448823690414,
        -0.018857894465327263,
        -0.010233829729259014,
        2.3830082416534424,
        1.7288209199905396,
        1.115776538848877,
        -0.270656943321228,
        0.05424914136528969,
        0.42658546566963196,
        0.3950541913509369,
        0.9131481647491455,
        -0.5326913595199585,
        -0.7163587808609009,
        0.18396605551242828,
        -0.8259493112564087,
        -0.466957151889801,
        -0.0028113918378949165,
        -0.1535612791776657,
        0.4025883376598358,
        -0.4761912524700165,
        0.016784898936748505,
        0.01607702299952507,
        0.09677479416131973,
        0.060431186109781265,
        -0.017640050500631332,
        -3.153280258178711,
        -2.7259700298309326,
        0.026493817567825317,
        -3.698056697845459,
        0.00881233997642994,
        0.3191782534122467,
        0.7609214186668396,
        0.21697667241096497,
        -0.7486099600791931,
        -0.034314997494220734,
        0.14517439901828766,
        0.1104021742939949,
        1.0562881231307983,
        0.0010277943219989538,
        -0.16527169942855835,
        -0.014051917940378189,
        -0.006926574744284153,
        0.00783216767013073,
        -0.0013082197401672602,
        -0.02507052570581436,
        0.023760024458169937,
        -0.4431711435317993,
        -4.379377365112305,
        -7.32175874710083,
        -0.3351608216762543,
        0.8777716159820557,
        -2.8081703186035156,
        0.4201675057411194,
        0.7332212924957275,
        -0.5313332676887512,
        -0.2495618462562561,
        0.15749932825565338,
        -0.3114491105079651,
        0.15852272510528564,
        -1.3638707399368286,
        -0.0034981193020939827,
        -1.3508102893829346,
        0.07324188202619553,
        -0.4230286478996277,
        0.02087041363120079,
        0.23131799697875977,
        -0.05447257682681084,
        -0.06260063499212265,
        -3.6123485565185547,
        9.644865036010742,
        9.46965217590332,
        -1.9504462480545044,
        0.027981696650385857,
        -0.34488487243652344,
        -0.34462979435920715,
        0.13268041610717773,
        -0.31236448884010315,
        0.1090138629078865,
        0.01778264530003071,
        0.5621232986450195,
        -0.018418729305267334,
        0.5738993883132935,
        0.005619736388325691,
        -0.977547287940979,
        0.09571767598390579,
        0.10834506899118423,
        -0.14727196097373962,
        0.008003530092537403,
        -0.02996985800564289,
        -0.035326071083545685,
        -7.210214614868164,
        2.5808229446411133,
        1.8028216361999512,
        -4.517386436462402,
        0.4001674950122833,
        -0.42804309725761414,
        -0.7039983868598938,
        0.09167175740003586,
        0.2151777297258377,
        -0.2439422607421875,
        0.34249114990234375,
        -0.6082705855369568,
        0.305873841047287,
        -0.5172458291053772,
        -0.16253283619880676,
        -0.3820684552192688,
        -0.1403099000453949,
        0.13033966720104218,
        1.1455334424972534,
        0.009792876429855824,
        1.027495265007019,
        0.1464310586452484,
        0.05116607993841171,
        2.833156108856201,
        2.153549909591675,
        0.48151206970214844,
        0.13077378273010254,
        0.08866436034440994,
        -0.5568965673446655,
        -4.245097637176514,
        -6.351367950439453,
        -0.6578343510627747,
        -9.861898422241211,
        -2.4764657020568848,
        -3.4735307693481445,
        -3.008941173553467,
        -3.649714469909668,
        -0.007313254289329052,
        0.016520649194717407,
        -0.02197703719139099,
        0.11676161736249924,
        -0.002504913602024317,
        -0.04858130216598511,
        -0.0024164735805243254,
        0.0466923788189888,
        -4.838958740234375,
        -3.2469747066497803,
        2.735614061355591,
        0.21597550809383392,
        0.01680733636021614,
        -0.3470032215118408,
        0.10708515346050262,
        0.5110750794410706,
        0.29118281602859497,
        0.42684152722358704,
        -0.1166723221540451,
        0.2608046531677246,
        -0.4486914873123169,
        -0.19663342833518982,
        0.05036583170294762,
        0.034226033836603165,
        -0.15479901432991028,
        -0.05266560986638069,
        0.01734950765967369,
        0.06093282625079155,
        0.15304578840732574,
        -0.5011805295944214,
        -4.3306121826171875,
        -2.893630266189575,
        -1.3074363470077515,
        -0.9632043242454529,
        -0.0009058744180947542,
        -0.4701363146305084,
        0.14623169600963593,
        0.5932523012161255,
        0.12931540608406067,
        0.1629442274570465,
        0.6164546012878418,
        0.15034662187099457,
        0.03489008918404579,
        0.007222767919301987,
        0.17611975967884064,
        0.3931466042995453,
        -0.46476826071739197,
        0.01832183077931404,
        0.007903523743152618,
        0.0203310064971447,
        -0.01832951419055462,
        -0.10600282996892929,
        -11.735976219177246,
        -12.487401962280273,
        2.140556812286377,
        -0.464600145816803,
        0.10136011987924576,
        0.020938904955983162,
        -0.16970524191856384,
        0.48754140734672546,
        0.18870073556900024,
        -0.7862329483032227,
        0.05163447931408882,
        0.15937407314777374,
        0.21002638339996338,
        0.010921234264969826,
        -0.07795112580060959,
        0.3245577812194824,
        0.40972691774368286,
        -0.07015957683324814,
        0.0014669577358290553,
        -0.060281965881586075,
        0.015687549486756325,
        -4.520057201385498,
        -1.935286521911621,
        -2.4058711528778076,
        1.4964299201965332,
        -1.2176016569137573,
        -0.05891714245080948,
        -0.3289099931716919,
        -0.07080554962158203,
        0.2249433994293213,
        0.3878498077392578,
        -0.17693085968494415,
        0.3103456497192383,
        0.04879334196448326,
        0.0464647114276886,
        -0.3223980665206909,
        -0.586797297000885,
        0.081002376973629,
        -0.06964156776666641,
        -0.009975077584385872,
        0.001098399399779737,
        -0.02089395560324192,
        0.19271163642406464,
        0.05703714117407799,
        0.484450101852417,
        -0.005350773688405752,
        -3.0428569316864014,
        -0.7234454154968262,
        -0.049249403178691864,
        -0.026743503287434578,
        0.03767549246549606,
        0.14748740196228027,
        -0.019113706424832344,
        0.6586284041404724,
        0.06975646317005157,
        0.17427292466163635,
        0.035592615604400635,
        -1.0839431285858154,
        0.01834934763610363,
        0.2654086649417877,
        -0.32582634687423706,
        -0.017128799110651016,
        -0.050923869013786316,
        -0.07736174017190933,
        0.014748685993254185,
        -3.1001639366149902,
        -1.8854050636291504,
        3.3066565990448,
        0.8211141228675842,
        0.7954643964767456,
        -0.16518978774547577,
        -0.020305274054408073,
        1.4880245923995972,
        0.4136490821838379,
        0.4657156467437744,
        0.9554505944252014,
        -0.03208283334970474,
        -1.5228800773620605,
        0.27840590476989746,
        0.011895189061760902,
        0.4428654909133911,
        -0.15802571177482605,
        0.27387499809265137,
        -0.06168413907289505,
        -0.005044658202677965,
        0.01754613034427166,
        -0.07623445242643356,
        -9.32818603515625,
        -5.596704959869385,
        -4.11517333984375,
        0.39618659019470215,
        -0.7667589783668518,
        -0.07208925485610962,
        0.04259868338704109,
        -1.2307944297790527,
        -0.09708967059850693,
        -0.11650724709033966,
        -0.15917986631393433,
        -0.04632601514458656,
        0.10876902937889099,
        -0.5194341540336609,
        0.0020294468849897385,
        -0.08973561227321625,
        1.041921615600586,
        1.0144180059432983,
        -0.13992063701152802,
        -0.1812112033367157,
        -0.05954291671514511,
        0.03438727185130119,
        -0.07819804549217224,
        -0.5292440056800842,
        0.26866188645362854,
        -2.3790836334228516,
        -0.14766570925712585,
        0.11971817910671234,
        -0.38649746775627136,
        2.2898454666137695,
        -0.24775271117687225,
        -0.5511951446533203,
        -0.31658273935317993,
        0.5995734930038452,
        -0.9188125133514404,
        1.5409529209136963,
        -0.0356462299823761,
        0.012782343663275242,
        0.06886373460292816,
        -0.06985750049352646,
        -0.07032086700201035,
        -0.0036711760330945253,
        0.04712432995438576,
        -0.004199303220957518,
        0.025891104713082314,
        4.369429111480713,
        2.940897226333618,
        -1.2911297082901,
        -0.30781129002571106,
        0.03312838822603226,
        0.01771017722785473,
        -0.3256581723690033,
        0.158182293176651,
        -0.03159535303711891,
        -0.6994917988777161,
        0.07865344732999802,
        0.28108543157577515,
        0.17386750876903534,
        -0.279861181974411,
        -1.8457415103912354,
        0.1843266636133194,
        -0.27522969245910645,
        0.23222766816616058,
        0.012502860277891159,
        0.30645570158958435,
        0.032141152769327164,
        -0.0031300901900976896,
        0.45461174845695496,
        1.2670844793319702,
        -2.9873721599578857,
        1.258642554283142,
        -0.7575590014457703,
        0.22755484282970428,
        1.3380069732666016,
        0.2586138844490051,
        -0.7070775628089905,
        -0.005718476139008999,
        -0.10050094872713089,
        -0.3558076322078705,
        0.24190624058246613,
        0.1277446746826172,
        -0.15892910957336426,
        -0.016309525817632675,
        -0.17580591142177582,
        -0.07797195017337799,
        -0.09669478982686996,
        0.03761971741914749,
        0.08426766842603683,
        -0.2582966685295105,
        -2.707152843475342,
        -2.712873697280884,
        0.007526184897869825,
        -0.27718451619148254,
        -0.16841377317905426,
        -0.20697976648807526,
        -0.28683221340179443,
        -0.22100268304347992,
        -0.5314115881919861,
        -0.03780459240078926,
        -0.22035843133926392,
        -0.3283596932888031,
        0.10068321228027344,
        -0.3010982573032379,
        -0.35490795969963074,
        -0.008803772740066051,
        0.043735478073358536,
        -0.0306202732026577,
        0.013362761586904526,
        0.07906777411699295,
        -0.03233432397246361,
        0.07570181041955948,
        3.1558756828308105,
        4.319793224334717,
        -1.5725657939910889,
        0.7781649827957153,
        -0.9022480249404907,
        -0.3790113925933838,
        -0.07632458209991455,
        0.254438579082489,
        0.31307655572891235,
        0.15438218414783478,
        -0.37899404764175415,
        0.34628957509994507,
        0.005236190743744373,
        -0.006289409473538399,
        -0.5462276339530945,
        0.0005599235882982612,
        0.1782006025314331,
        0.03361322730779648,
        0.004613006021827459,
        -0.07937292754650116,
        -0.04009144380688667,
        -1.0993291139602661,
        4.008866310119629,
        5.572100639343262,
        -2.058358907699585,
        -1.1076359748840332,
        -0.17800219357013702,
        0.024997705593705177,
        1.105210542678833,
        -0.15475130081176758,
        -0.09755516052246094,
        0.21466492116451263,
        0.7555510997772217,
        -0.9435423612594604,
        -0.496040403842926,
        -0.05132433399558067,
        -0.19284766912460327,
        1.9703184366226196,
        0.9807303547859192,
        -0.01417988259345293,
        0.06524452567100525,
        -0.016130203381180763,
        0.01117379404604435,
        -0.3350510001182556,
        -3.1404170989990234,
        -6.620914459228516,
        0.8774493336677551,
        -0.13439030945301056,
        -0.014287903904914856,
        0.0060202633030712605,
        -0.34603583812713623,
        -0.35023483633995056,
        0.08565729856491089,
        -0.43970292806625366,
        -0.13908177614212036,
        -0.043639544397592545,
        -0.27772414684295654,
        0.004374565090984106,
        0.18403613567352295,
        1.0976059436798096,
        0.8136781454086304,
        -0.3269825875759125,
        -0.09173579514026642,
        -0.4085513651371002,
        0.16948576271533966,
        -0.31861042976379395,
        -0.4578078091144562,
        -1.2366772890090942,
        -1.424370288848877,
        0.7415893077850342,
        -1.999356746673584,
        0.6621698141098022,
        -1.475264549255371,
        -0.8362075090408325,
        -0.7837924361228943,
        -0.2819497585296631,
        -0.7989357113838196,
        -0.2711026072502136,
        -0.6494213342666626,
        -0.21469028294086456,
        -0.4905425012111664,
        0.014301344752311707,
        0.07090525329113007,
        -0.02256561443209648,
        0.008453994058072567,
        -0.005875463597476482,
        -0.019295163452625275,
        0.007172747980803251,
        7.911538600921631,
        6.108226299285889,
        0.8152418732643127,
        -0.07990629971027374,
        0.07976742833852768,
        0.07560501992702484,
        -0.42538753151893616,
