{
  "inputs": [
    {
      "name": "trk_pt",
      "offset": 0,
      "scale": 1
    },
    {
      "name": "trk_eta",
      "offset": 0,
      "scale": 1
    },
    {
      "name": "trk_lambda",
      "offset": 0,
      "scale": 1
    },
    {
      "name": "trk_dxy",
      "offset": 0,
      "scale": 1
    },
    {
      "name": "trk_dz",
      "offset": 0,
      "scale": 1
    },
    {
      "name": "trk_dxyClosestPV",
      "offset": 0,
      "scale": 1
    },
    {
      "name": "trk_dzClosestPVNorm",
      "offset": 0,
      "scale": 1
    },
    {
      "name": "trk_ptErr",
      "offset": 0,
      "scale": 1
    },
    {
      "name": "trk_etaErr",
      "offset": 0,
      "scale": 1
    },
    {
      "name": "trk_lambdaErr",
      "offset": 0,
      "scale": 1
    },
    {
      "name": "trk_dxyErr",
      "offset": 0,
      "scale": 1
    },
    {
      "name": "trk_dzErr",
      "offset": 0,
      "scale": 1
    },
    {
      "name": "trk_nChi2",
      "offset": 0,
      "scale": 1
    },
    {
      "name": "trk_ndof",
      "offset": 0,
      "scale": 1
    },
    {
      "name": "trk_nInvalid",
      "offset": 0,
      "scale": 1
    },
    {
      "name": "trk_nPixel",
      "offset": 0,
      "scale": 1
    },
    {
      "name": "trk_nStrip",
      "offset": 0,
      "scale": 1
    },
    {
      "name": "trk_nPixelLay",
      "offset": 0,
      "scale": 1
    },
    {
      "name": "trk_nStripLay",
      "offset": 0,
      "scale": 1
    },
    {
      "name": "trk_n3DLay",
      "offset": 0,
      "scale": 1
    },
    {
      "name": "trk_nLostLay",
      "offset": 0,
      "scale": 1
    },
    {
      "name": "trk_algo",
      "offset": 0,
      "scale": 1
    }
  ],
  "layers": [
    {
      "activation": "rectified",
      "architecture": "dense",
      "bias": [
        -0.41391271352767944,
        -0.47539710998535156,
        -0.15696874260902405,
        -4.201201438903809,
        0.7127845883369446,
        1.332448124885559,
        -1.7126885652542114,
        -0.32861611247062683,
        1.9496548175811768,
        -1.5720535516738892,
        -0.44661828875541687,
        -0.057524342089891434,
        0.4013969600200653,
        -1.611349105834961,
        -3.9229495525360107,
        0.5670673847198486,
        -2.0155270099639893,
        -0.7812105417251587,
        0.4166586995124817,
        -0.8699495792388916,
        -0.5493947267532349,
        -0.6753216981887817,
        -3.0041990280151367,
        -0.023355374112725258,
        -3.056511878967285,
        -1.0500980615615845,
        1.1214510202407837,
        -0.6627630591392517,
        2.687087059020996,
        -0.31996798515319824,
        2.1988580226898193,
        0.1691470444202423,
        -1.8159552812576294,
        -0.9871799945831299,
        0.6966912150382996,
        -3.475782871246338,
        0.1759607195854187,
        -5.377073287963867,
        -0.23066416382789612,
        1.393589973449707,
        0.050682183355093,
        -1.9923869371414185,
        1.8018081188201904,
        -3.9874320030212402,
        -0.18706613779067993,
        3.233992576599121,
        1.452015995979309,
        1.2867436408996582,
        0.7208889722824097,
        -0.4956270456314087,
        -1.9193263053894043,
        1.5674797296524048,
        0.14673355221748352,
        -1.3022739887237549,
        -0.36226773262023926,
        -1.1890416145324707,
        1.4588329792022705,
        0.8111745119094849,
        0.6889626383781433,
        -0.8611243367195129,
        -1.114989161491394,
        0.33590182662010193,
        1.4372073411941528,
        0.005139095708727837,
        -0.8184679746627808,
        -0.44566527009010315,
        0.6409399509429932,
        -1.4606893062591553,
        -0.2419886291027069,
        -2.9613330364227295,
        -0.6626108288764954,
        -2.552370071411133,
        1.3239729404449463,
        -2.6705729961395264,
        2.6292784214019775,
        -3.7726457118988037,
        -0.2414950728416443,
        -1.1912895441055298,
        0.7585822939872742,
        0.21369311213493347,
        -0.9135447144508362,
        0.788275957107544,
        0.41812071204185486,
        0.6868065595626831,
        -1.6482235193252563,
        -0.041914988309144974,
        0.055880431085824966,
        1.3826489448547363,
        -1.934553623199463,
        -0.35184264183044434,
        1.545436978340149,
        0.6064004302024841,
        -2.8368077278137207,
        0.004529393278062344,
        0.7530391812324524,
        0.4032360315322876,
        0.22807544469833374,
        1.1251912117004395,
        -0.12497931718826294,
        0.4127672612667084,
        -4.397584915161133,
        0.9765815138816833,
        -0.8655495643615723,
        1.1791458129882812,
        3.105705976486206,
        0.7949053049087524,
        3.4392919540405273,
        -0.09573279321193695,
        -0.8717707395553589,
        -1.9079387187957764,
        -1.6228857040405273,
        -2.434389591217041,
        0.14105023443698883,
        -0.46871131658554077,
        -0.44480279088020325,
        0.6591145992279053,
        -1.9605803489685059,
        -0.2407829314470291,
        -2.9054040908813477,
        -1.2726918458938599,
        -2.240865468978882,
        1.5545098781585693,
        1.4194234609603882,
        -0.8943309783935547,
        0.06236955150961876,
        -2.4883627891540527,
        0.1739472895860672,
        -3.8547348976135254,
        -8.668646812438965,
        -2.2303786277770996,
        -2.658616542816162,
        -0.3961825370788574,
        2.0218656063079834,
        1.415658950805664,
        -0.800092875957489,
        0.48574602603912354,
        1.6664446592330933,
        -0.8469352722167969,
        0.9549984931945801,
        0.6932236552238464,
        -2.6136841773986816,
        -0.9157411456108093,
        0.7462900876998901,
        -2.4208788871765137,
        1.1555421352386475,
        0.37190455198287964,
        0.145673930644989,
        -1.0074726343154907,
        2.926661491394043,
        0.8236424326896667,
        -3.2401113510131836,
        -1.714322805404663,
        2.0933451652526855,
        -1.9093153476715088,
        0.50999516248703,
        2.4121317863464355,
        -0.7285463213920593,
        -0.6511926651000977,
        -2.3876218795776367,
        0.03714730963110924,
        -0.7331107258796692,
        -2.713759660720825,
        -0.1796344369649887,
        -1.0037195682525635,
        2.3669629096984863,
        1.0237479209899902,
        -0.6244906783103943,
        0.7008377313613892,
        -1.966976523399353,
        -0.45490819215774536,
        -0.6336341500282288,
        0.9544124603271484,
        -0.8767749071121216,
        1.0748780965805054,
        0.1273830384016037,
        -2.332329273223877,
        2.558987617492676,
        0.3506500720977783,
        0.24983593821525574,
        -1.761161208152771,
        2.128441095352173,
        -0.45489436388015747,
        -1.8373247385025024,
        -0.1636817753314972,
        -0.833897590637207,
        1.017507553100586,
        0.16679373383522034,
        0.22198940813541412,
        3.203054666519165,
        -4.867125034332275,
        -0.7206733226776123,
        -3.4733035564422607,
        -0.5683391690254211,
        -0.5505444407463074,
        2.114964008331299,
        0.3722078800201416,
        -0.38631707429885864,
        1.6219485998153687,
        1.962459921836853,
        -0.030834635719656944,
        -1.5814682245254517,
        2.642378330230713,
        -0.4221722483634949,
        -0.7912187576293945,
        -3.2656288146972656,
        -1.0029032230377197,
        -1.1986615657806396,
        -2.085637331008911,
        -0.5088596940040588,
        0.5222049355506897,
        -3.985328435897827,
        -1.5260261297225952,
        -2.215712785720825,
        1.1260156631469727,
        0.790469765663147,
        -3.0094780921936035,
        -0.8564359545707703,
        -3.4489119052886963,
        -0.5927096009254456,
        1.785436987876892,
        -0.6393821239471436,
        1.9811419248580933,
        -1.0594682693481445,
        0.7326763272285461,
        0.6078076958656311,
        -2.0233724117279053,
        -5.103461265563965,
        -0.461418479681015,
        0.607843279838562,
        -1.104565143585205,
        -0.32938364148139954,
        -1.2508671283721924,
        0.4863230884075165,
        -0.4292159378528595,
        0.45108532905578613,
        -0.42069047689437866,
        1.2338169813156128,
        -1.8975412845611572,
        0.2232370376586914,
        -1.3023860454559326,
        -4.701259613037109,
        -0.5401778221130371,
        4.8548150062561035,
        -0.5452224612236023,
        -1.865237832069397,
        1.0655264854431152,
        -5.204500198364258,
        -8.496521949768066,
        0.35574233531951904,
        -0.06419170647859573,
        -0.347831130027771,
        1.356446385383606,
        -4.4251813888549805,
        0.32684221863746643,
        -0.40896332263946533,
        0.46430569887161255
      ],
      "weights": [
        0.01547376997768879,
        0.876488447189331,
        -1.1247379779815674,
        0.28622689843177795,
        -0.03182370960712433,
        0.17902663350105286,
        6.163468360900879,
        -0.18701225519180298,
        -3.1497654914855957,
        -2.337540626525879,
        1.3469277620315552,
        1.8568947315216064,
        -1.1414463520050049,
        0.2122768759727478,
        0.02215740829706192,
        -0.14283990859985352,
        0.10061873495578766,
        0.3944084942340851,
        -0.8471611738204956,
        -0.2916603088378906,
        -0.23046067357063293,
        -0.011223730631172657,
        -0.002557797357439995,
        -0.17030344903469086,
        0.524188220500946,
        0.028928523883223534,
        0.0052208062261343,
        -0.08652224391698837,
        -1.5373519659042358,
        -0.007906602695584297,
        -8.00620174407959,
        -6.686957359313965,
        -0.9374867677688599,
        0.4855615496635437,
        -0.18820416927337646,
        -0.46069833636283875,
        0.5104612112045288,
        -0.12406324595212936,
        1.3819423913955688,
        -0.17444545030593872,
        -1.6638840436935425,
        -0.006177372299134731,
        0.6037424802780151,
        0.12426500767469406,
        -0.5007705092430115,
        -0.6572489738464355,
        1.5016018152236938,
        0.10944616049528122,
        -0.45383936166763306,
        -0.12888766825199127,
        0.6841263175010681,
        -0.0018529100343585014,
        3.9977922439575195,
        2.9540293216705322,
        -4.556764125823975,
        0.540389895439148,
        0.07793321460485458,
        -1.5255115032196045,
        -4.716940402984619,
        0.09571323543787003,
        0.5034553408622742,
        -0.4391268789768219,
        -0.2916090488433838,
        1.0214046239852905,
        -2.2580251693725586,
        -0.008137843571603298,
        0.12518268823623657,
        0.34284868836402893,
        -0.6500709652900696,
        -0.02113194577395916,
        -0.0006176764727570117,
        -0.16048868000507355,
        0.13936546444892883,
        -0.3534395098686218,
        -11.932050704956055,
        -16.242494583129883,
        -1.4424861669540405,
        0.7494645714759827,
        0.24311859905719757,
        0.47023993730545044,
        -0.23717014491558075,
        -0.010860612615942955,
        0.14777737855911255,
        -0.038338493555784225,
        -0.5200917720794678,
        0.4590972363948822,
        -0.8353576064109802,
        0.0006807908066548407,
        0.09264353662729263,
        -0.22598576545715332,
        0.13235364854335785,
        1.0563900470733643,
        -0.05922207608819008,
        0.3209189772605896,
        -7.192671298980713,
        0.05106454715132713,
        13.58409595489502,
        11.510380744934082,
        -15.43821907043457,
        -3.637442111968994,
        0.026858007535338402,
        -0.41041988134384155,
        -0.4031717777252197,
        -0.16271226108074188,
        0.16131030023097992,
        -0.12642963230609894,
        0.18876752257347107,
        0.10542482137680054,
        0.3270660638809204,
        0.014236764051020145,
        -3.5318048000335693,
        0.053160253912210464,
        0.06703293323516846,
        -0.32529589533805847,
        0.007638975512236357,
        0.20447614789009094,
        0.1068238690495491,
        0.07458721846342087,
        8.362982749938965,
        9.267836570739746,
        -0.7593318819999695,
        0.5118951201438904,
        -0.2569247782230377,
        -0.17147599160671234,
        0.4306231141090393,
        -1.2134522199630737,
        0.3377373218536377,
        -0.46711355447769165,
        0.17546653747558594,
        -0.5242486596107483,
        0.24159809947013855,
        0.43656647205352783,
        0.12388119101524353,
        0.8177922964096069,
        -1.156887173652649,
        -0.08330108225345612,
        0.0005477226222865283,
        0.45255351066589355,
        -4.836160182952881,
        0.06381881237030029,
        -19.072254180908203,
        -14.20788860321045,
        3.2914469242095947,
        1.1879591941833496,
        -0.027336066588759422,
        -0.05160215124487877,
        -0.03867163136601448,
        0.768074095249176,
        0.14134377241134644,
        0.2655419111251831,
        0.31281349062919617,
        -0.12126640230417252,
        -0.54034423828125,
        0.011951533146202564,
        -0.3776453733444214,
        0.23391540348529816,
        -0.255431592464447,
        -0.27164196968078613,
        0.029662009328603745,
        0.2636868953704834,
        -0.4202328324317932,
        0.22911450266838074,
        -4.714182376861572,
        -6.685782432556152,
        0.6058917045593262,
        1.3543190956115723,
        -1.134203553199768,
        -0.5893543362617493,
        -0.6888057589530945,
        0.718866765499115,
        -0.7563970685005188,
        0.3534194231033325,
        1.0852609872817993,
        0.5531886219978333,
        -1.9265531301498413,
        -0.012210062704980373,
        0.03467941656708717,
        0.11157982796430588,
        -0.15522882342338562,
        -0.2700996994972229,
        0.004633654840290546,
        -0.6647549271583557,
        0.38214194774627686,
        -0.05173228681087494,
        -0.38985729217529297,
        -1.2704278230667114,
        0.8135839104652405,
        -0.026563173159956932,
        0.015056994743645191,
        -0.4714505076408386,
        1.2671301364898682,
        0.954451858997345,
        0.28818804025650024,
        0.6917749047279358,
        0.653255820274353,
        0.6739933490753174,
        0.03726154565811157,
        -1.731420874595642,
        0.08996155112981796,
        3.154097080230713,
        0.7338519096374512,
        -0.13673584163188934,
        -0.0032887975685298443,
        0.07351535558700562,
        0.32753098011016846,
        -0.01723046973347664,
        -8.672798156738281,
        -11.232085227966309,
        1.1684280633926392,
        0.33180105686187744,
        0.10965169966220856,
        0.0963047593832016,
        0.15848225355148315,
        -0.2939777374267578,
        0.20053641498088837,
        -0.10541053116321564,
        0.74105304479599,
        -0.2382674664258957,
        0.6480022072792053,
        -1.26262366771698,
        0.24241316318511963,
        -1.4232689142227173,
        -1.0076839923858643,
        -0.26238590478897095,
        -0.11938737332820892,
        -0.20568935573101044,
        0.10915481299161911,
        -2.0294137001037598,
        -12.16068172454834,
        -14.80692195892334,
        0.10316136479377747,
        -7.963170528411865,
        0.05358907952904701,
        -0.34171706438064575,
        -0.06979715079069138,
        -0.18177033960819244,
        0.6802793145179749,
        -0.26766374707221985,
        -0.5606804490089417,
        0.17991335690021515,
        -0.1624935269355774,
        0.013071044348180294,
        -1.5057076215744019,
        -0.40395233035087585,
        0.17491525411605835,
        0.16141241788864136,
        -0.09171001613140106,
        0.4454288184642792,
        -0.14679722487926483,
        0.08893691003322601,
        7.42030668258667,
        6.032672882080078,
        2.504533290863037,
        1.2143702507019043,
        0.008712339214980602,
        -0.8718104958534241,
        1.4078187942504883,
        1.6879708766937256,
        0.9182472825050354,
        0.24468278884887695,
        -0.5071513056755066,
        -1.0768524408340454,
        -0.18805792927742004,
        -0.6244227886199951,
        -1.5491206645965576,
        0.5762427449226379,
        -0.8265464901924133,
        -0.007050247862935066,
        0.45287108421325684,
        0.3801477551460266,
        -9.293535232543945,
        -1.4396377801895142,
        3.9283220767974854,
        4.118350028991699,
        -1.8142924308776855,
        -1.1735800504684448,
        0.038473211228847504,
        -0.1744263470172882,
        -0.29963669180870056,
        -0.38355132937431335,
        0.6884499788284302,
        -0.08216225355863571,
        -1.0913629531860352,
        -0.37632259726524353,
        -1.6576241254806519,
        -0.01098047848790884,
        -0.6314259171485901,
        -0.4697099030017853,
        0.7017990350723267,
        0.656283974647522,
        -0.005740336608141661,
        0.15291662514209747,
        0.45142385363578796,
        0.003266675863415003,
        1.1741328239440918,
        -1.056142807006836,
        -0.31952276825904846,
        1.31861412525177,
        -0.3851350247859955,
        0.10141824185848236,
        0.8340298533439636,
        -0.18398618698120117,
        -1.0004202127456665,
        -0.34538283944129944,
        -0.27747926115989685,
        1.5833356380462646,
        0.38205206394195557,
        0.007197919301688671,
        0.06572575122117996,
        -0.2833283543586731,
        0.07484549283981323,
        0.10478448867797852,
        -0.012645705603063107,
        -0.7603000402450562,
        3.0266003608703613,
        0.12012284994125366,
        -0.012351338751614094,
        -0.31988728046417236,
        -0.7256945967674255,
        0.03261864185333252,
        -24.112688064575195,
        0.2663925886154175,
        -2.2954797744750977,
        1.453335165977478,
        0.26518744230270386,
        1.1866912841796875,
        0.12176579236984253,
        0.2557631731033325,
        0.900072455406189,
        -2.669872522354126,
        -11.960155487060547,
        0.017478717491030693,
        0.06070801615715027,
        -0.18706262111663818,
        -0.009387491270899773,
        -0.1146535724401474,
        0.07148677855730057,
        -14.862565040588379,
        8.998637199401855,
        10.33315372467041,
        0.07172003388404846,
        0.6165480017662048,
        0.005740539636462927,
        -0.1437758058309555,
        0.8247231841087341,
        0.4188244938850403,
        0.6173181533813477,
        -0.11367427557706833,
        -0.003690720070153475,
        -0.009815237484872341,
        0.0860648974776268,
        0.005174427758902311,
        0.0048504541628062725,
        -2.474841356277466,
        0.4283619523048401,
        -0.24336475133895874,
        0.1512015014886856,
        -0.5032845139503479,
        0.19323693215847015,
        -0.06433258950710297,
        -4.567273139953613,
        -10.279472351074219,
        -1.0145480632781982,
        0.4180029034614563,
        0.06319774687290192,
        0.48660874366760254,
        -0.3099609911441803,
        -0.8276385068893433,
        -0.9272823333740234,
        -0.008823767304420471,
        -0.154466450214386,
        0.06083308532834053,
        -1.0296099185943604,
        -0.0012741555692628026,
        0.1374402642250061,
        0.17984580993652344,
        -0.18896643817424774,
        -0.22116516530513763,
        0.10440750420093536,
        -0.40989676117897034,
        -0.9436275959014893,
        0.09632204473018646,
        -1.111602783203125,
        -2.8603901863098145,
        0.6167667508125305,
        -0.9928183555603027,
        -0.015686506405472755,
        0.7714663147926331,
        -1.9852311611175537,
        0.7469615340232849,
        -2.140820026397705,
        0.4551653265953064,
        -3.0956413745880127,
        0.06778336316347122,
        -3.4478907585144043,
        -1.552727222442627,
        -0.9134090542793274,
        0.130992129445076,
        0.2356080710887909,
        -1.2415481805801392,
        -0.34133875370025635,
        -0.8086222410202026,
        2.7111573219299316,
        -0.3110358715057373,
        2.6314947605133057,
        2.937232732772827,
        0.4346531927585602,
        -0.41947609186172485,
        0.0264810249209404,
        -1.5458134412765503,
        0.428589791059494,
        0.44761884212493896,
        -1.3448593616485596,
        0.19405975937843323,
        -1.3170483112335205,
        0.3350907266139984,
        2.5065560340881348,
        -0.7169220447540283,
        -0.4976693391799927,
        -0.2052716314792633,
        -0.31421831250190735,
        0.09424440562725067,
        0.21935643255710602,
        -0.00264615286141634,
        0.37143436074256897,
        -0.2730672359466553,
        0.16145406663417816,
        -0.5560349822044373,
        0.9196563363075256,
        1.1314221620559692,
        -0.11992637068033218,
        0.3806009888648987,
        3.172241449356079,
        0.6734229922294617,
        -0.7084782719612122,
        0.051260486245155334,
        0.22769004106521606,
        -2.1942460536956787,
        1.3806343078613281,
        0.13952988386154175,
        -0.5752671957015991,
        0.7211853265762329,
        1.9719632863998413,
        0.07623074948787689,
        0.2613268792629242,
        -0.05929813161492348,
        0.5164802074432373,
        -10.747986793518066,
        -8.141124725341797,
        -0.9575314521789551,
        0.7422309517860413,
        -1.016770839691162,
        0.048101406544446945,
        0.20922799408435822,
        0.21249181032180786,
        -0.14703677594661713,
        -0.8538513779640198,
        0.16296716034412384,
        0.09347616136074066,
        0.0015937419375404716,
        0.33595511317253113,
        0.005758692976087332,
        0.10411220043897629,
        -0.4129228889942169,
        0.2871541976928711,
        -0.017867356538772583,
        0.002310535404831171,
        0.03681731969118118,
        -1.2644007205963135,
        -0.01278399396687746,
        -18.452754974365234,
        -15.5206298828125,
        0.5659723281860352,
        0.10392853617668152,
        -3.6949596405029297,
        -0.03812544047832489,
        -0.9735190272331238,
        0.5567787885665894,
        0.579773485660553,
        -0.5738235116004944,
        0.6791213154792786,
        -0.5021020770072937,
        0.6587020754814148,
        0.14301161468029022,
        -0.0889669731259346,
        1.3090475797653198,
        0.10674011707305908,
        0.1507347673177719,
        -0.317848265171051,
        0.529097318649292,
        0.6372377276420593,
        -0.0194427277892828,
        -8.038667678833008,
        -5.930105686187744,
        -0.3139943778514862,
        -0.2168848216533661,
        -0.2651398777961731,
        0.5395545959472656,
        -1.9399439096450806,
        -0.34925055503845215,
        -0.04699145257472992,
        -1.156675100326538,
        0.16063538193702698,
        -0.7453786730766296,
        -0.5459784269332886,
        -0.3080861568450928,
        -0.916016697883606,
        -0.43582436442375183,
        0.6108585596084595,
        -0.01590576581656933,
        0.014193210750818253,
        0.35164815187454224,
        -0.164829283952713,
        0.08405547589063644,
        -7.697093486785889,
        -3.9489097595214844,
        3.0140514373779297,
        0.8345896005630493,
        0.027023866772651672,
        -0.38147321343421936,
        0.18646787106990814,
        -0.24892568588256836,
        -1.1204006671905518,
        -0.1493326723575592,
        0.46990934014320374,
        0.1836387813091278,
        0.8788912892341614,
        0.34585803747177124,
        -0.014078832231462002,
        -4.237654209136963,
        -1.5929280519485474,
        0.13656094670295715,
        -0.01999906823039055,
        -0.14781326055526733,
        -0.2983878254890442,
        0.00832435954362154,
        -13.498984336853027,
        -20.61536407470703,
        -0.031282689422369,
        -0.5872724652290344,
        -0.04397926479578018,
        0.21849387884140015,
        0.14457806944847107,
        -0.174784317612648,
        0.35917118191719055,
        0.04674069583415985,
        -0.5240824818611145,
        -0.48224231600761414,
        -0.02335478365421295,
        -0.026730777695775032,
        -2.8541111946105957,
        -0.10696453601121902,
        0.6210598349571228,
        -0.22624260187149048,
        0.49335384368896484,
        0.5814186930656433,
        8.447318077087402,
        0.15491534769535065,
        1.897619605064392,
        1.134857177734375,
        2.8258824348449707,
        0.4680941104888916,
        0.049312081187963486,
        0.27022647857666016,
        -0.2759030759334564,
        -0.5592038035392761,
        -0.33650603890419006,
        -0.8552781343460083,
        -0.1011384055018425,
        -0.034995343536138535,
        -0.13392488658428192,
        0.038840435445308685,
        0.0033959103748202324,
        0.022943589836359024,
        0.06813996285200119,
        0.051224179565906525,
        -0.00878633838146925,
        0.1589290052652359,
        0.5707763433456421,
        0.04967935383319855,
        4.898046970367432,
        3.9761576652526855,
        -3.911943197250366,
        0.7614710330963135,
        -0.018674209713935852,
        -0.04110100492835045,
        -0.20386281609535217,
        -1.2178927659988403,
        -0.9749591946601868,
        -0.46942225098609924,
        0.01587546616792679,
        0.25650909543037415,
        -3.2606759071350098,
        0.42727378010749817,
        -0.264996737241745,
        0.8729371428489685,
        -0.9694309830665588,
        -0.9936208128929138,
        0.034278638660907745,
        -1.0600712299346924,
        -2.0392017364501953,
        0.07791343331336975,
        -13.426926612854004,
        -8.49573040008545,
        5.095195293426514,
        0.5718733072280884,
        0.35037606954574585,
        -0.28365960717201233,
        0.30432650446891785,
        0.6451517343521118,
        0.19765949249267578,
        0.17526796460151672,
        0.22345642745494843,
        -0.02565186284482479,
        -0.5432938933372498,
        0.08710035681724548,
        -1.1355383396148682,
        0.68988037109375,
        -1.3726938962936401,
        0.08910992741584778,
        -0.1144179180264473,
        -0.08157572895288467,
        0.8075498938560486,
        0.12426958233118057,
        12.16930103302002,
        7.47496223449707,
        -3.1898934841156006,
        -0.31964924931526184,
        -0.048181042075157166,
        0.3697904646396637,
        0.3992493748664856,
        -0.37273070216178894,
        0.17890599370002747,
        -0.13422206044197083,
        -0.10511250048875809,
        -1.1661505699157715,
        1.0023313760757446,
        0.0041337404400110245,
        0.02911408245563507,
        0.8752419948577881,
        -0.8596000671386719,
        1.7872234582901,
        0.0215371735394001,
        1.7834584712982178,
        1.4309526681900024,
        0.13831520080566406,
        3.357389450073242,
        0.9826523661613464,
        0.6852701902389526,
        0.5188782811164856,
        -0.0716039389371872,
        0.6874086260795593,
        0.04689143970608711,
        -0.29317668080329895,
        -3.417351245880127,
        0.38123318552970886,
        -2.612980842590332,
        -0.000777806737460196,
        -0.9516807794570923,
        0.006184903439134359,
        -0.017019351944327354,
        -0.10612811148166656,
        0.8033058047294617,
        0.03163301944732666,
        0.04209733009338379,
        -0.04569848254323006,
        -0.04584214836359024,
        0.03411801904439926,
        10.41259479522705,
        10.080965995788574,
        0.12038403004407883,
        1.6848810911178589,
        -0.02799852192401886,
        0.6001850366592407,
        -0.3420466184616089,
        -1.5495903491973877,
        -0.8136345744132996,
        -0.6783357262611389,
        0.32492536306381226,
        0.8833301067352295,
        0.39259669184684753,
        -0.004861753899604082,
        0.12097341567277908,
        0.06131208315491676,
        -0.17227986454963684,
        -0.001955702668055892,
        0.01648811437189579,
        0.007908415980637074,
        -24.31580352783203,
        0.011703982017934322,
        2.197213649749756,
        3.126831531524658,
        0.5650759339332581,
        -0.3556238114833832,
        0.038570113480091095,
        -0.11466782540082932,
        0.23656930029392242,
        -0.13564440608024597,
        0.021611075848340988,
        0.10110172629356384,
        -0.05578899011015892,
        0.30549517273902893,
        0.042031388729810715,
        0.012605324387550354,
        -2.8059346675872803,
        -0.17007456719875336,
        0.5229167938232422,
        0.11315283179283142,
        0.1777278035879135,
        0.28722241520881653,
        -0.30273014307022095,
        -3.6477673053741455,
        -4.49061393737793,
        -2.7490835189819336,
        0.346516489982605,
        0.9471270442008972,
        -0.19655178487300873,
        0.7905154228210449,
        -3.182391881942749,
        0.29001256823539734,
        -1.452671766281128,
        -0.19762860238552094,
        -3.6170082092285156,
        0.17679548263549805,
        1.8564804792404175,
        0.051708221435546875,
        0.0028334094677120447,
        0.008279691450297832,
        -0.08193783462047577,
        -0.19698140025138855,
        0.011459759436547756,
        0.36950695514678955,
        -0.05999564751982689,
        -0.02005726285278797,
        -6.316756248474121,
        -5.286388874053955,
        0.2531111538410187,
        -0.06026676669716835,
        -0.00048559452989138663,
        -0.9466337561607361,
        -0.7828561663627625,
        -1.6517752408981323,
        -2.688873767852783,
        -1.4967143535614014,
        -3.4467251300811768,
        -1.6475203037261963,
        -1.571208119392395,
        0.7367917895317078,
        0.011890653520822525,
        -2.1103689670562744,
        -2.5279645919799805,
        -0.023249568417668343,
        -0.04698087275028229,
        0.011085717007517815,
        0.7433133125305176,
        0.040904268622398376,
        4.338650226593018,
        0.024529995396733284,
        -0.02762405015528202,
        0.0601600743830204,
        -0.02027652971446514,
        -0.5805700421333313,
        -0.25668272376060486,
        -0.1263907551765442,
        -0.3637121021747589,
        -0.3866298794746399,
        0.4755189120769501,
        0.4427703619003296,
        -0.22784097492694855,
        -0.033922258764505386,
        -0.47024664282798767,
        0.23663216829299927,
        -0.46814611554145813,
        -0.005594668909907341,
        0.004254712723195553,
        0.28740161657333374,
        0.37696051597595215,
        -9.004395484924316,
        -14.758016586303711,
        -16.730628967285156,
        -0.16888028383255005,
        -1.7862722873687744,
        -0.06831790506839752,
        -0.024703102186322212,
        -2.306797504425049,
        0.16359016299247742,
        0.6164854764938354,
        0.9959125518798828,
        0.1549271196126938,
        -0.3975082039833069,
        0.479759156703949,
        -0.005063062068074942,
        -2.3744120597839355,
        -0.6071207523345947,
        -0.263041228055954,
        -0.190409854054451,
        0.36739715933799744,
        -0.20323307812213898,
        -0.49265822768211365,
        -0.27953583002090454,
        3.7366604804992676,
        1.95145845413208,
        1.6211775541305542,
        1.4184601306915283,
        -0.043223634362220764,
        -1.5247149467468262,
        -8.619834899902344,
        0.2858659029006958,
        -1.4875935316085815,
        -0.21283423900604248,
        -0.6942639350891113,
        0.12485943734645844,
        -0.5775927901268005,
        -0.35216420888900757,
        -0.023677343502640724,
        0.09994065016508102,
        0.2824442982673645,
        0.10468784719705582,
        0.008669121190905571,
        0.6894069910049438,
        2.94164776802063,
        -0.7189546823501587,
        -3.6839356422424316,
        -3.3034398555755615,
        -1.2295211553573608,
        0.3045164942741394,
        -12.210348129272461,
        0.8437885046005249,
        3.0475738048553467,
        -12.307255744934082,
        1.5250462293624878,
        -12.84649658203125,
        -1.7135323286056519,
        -3.537205934524536,
        -4.653769016265869,
        -4.249871730804443,
        0.005116736050695181,
        -0.3211897909641266,
        0.40819790959358215,
        -0.15627332031726837,
        -0.3293488323688507,
        -0.39143750071525574,
        -11.289068222045898,
        0.009921521879732609,
        10.7045316696167,
        10.873245239257812,
        -2.4385628700256348,
        -0.6625198125839233,
        -0.014678101055324078,
        0.10236601531505585,
        -0.2452995479106903,
        -1.1160353422164917,
        -0.3654803931713104,
        0.16336596012115479,
        0.20131045579910278,
        0.03449366241693497,
        0.033852774649858475,
        -0.005336834117770195,
        0.27692362666130066,
        -0.24768418073654175,
        0.5012450814247131,
        0.30971017479896545,
        -0.023131540045142174,
        -0.26664912700653076,
        0.09135831892490387,
        -7.665665149688721,
        10.613006591796875,
        6.893992900848389,
        -18.512346267700195,
        -4.785417079925537,
        0.006803134456276894,
        0.21968726813793182,
        0.13912516832351685,
        0.2572101950645447,
        -0.03291359543800354,
        -0.6749213337898254,
        -0.4178123474121094,
        0.5181261301040649,
        0.041447389870882034,
        -0.004028616938740015,
        -0.00041513144969940186,
        -0.014301789924502373,
        0.03205191716551781,
        -18.984830856323242,
        0.0014759982004761696,
        -7.603891372680664,
        0.03634461760520935,
        -0.006321358028799295,
        6.831166744232178,
        0.7010696530342102,
        -6.363209247589111,
        -0.1469728946685791,
        -0.0005440964596346021,
        0.0032062549144029617,
        0.0666702389717102,
        -0.012718510814011097,
        -0.02474384754896164,
        -0.022325897589325905,
        0.023889457806944847,
        0.021641850471496582,
        -0.04503943398594856,
        -0.0005239648744463921,
        0.04468584433197975,
        -0.2546500563621521,
        0.5252407789230347,
        0.14941930770874023,
        0.04591360688209534,
        -0.18410366773605347,
        -0.15795165300369263,
        0.05317031219601631,
        11.844847679138184,
        10.455775260925293,
        0.5660027265548706,
        1.2311017513275146,
        0.05532161518931389,
        0.7486330270767212,
        1.7699720859527588,
        -1.6984213590621948,
        -0.25547078251838684,
        -1.1491873264312744,
        0.5158700346946716,
        0.6595220565795898,
        0.2495684176683426,
        -0.0032874071039259434,
        -0.8605462312698364,
        -1.107182264328003,
        -0.05879851058125496,
        0.3700481951236725,
        -0.004195200279355049,
        -0.3873486816883087,
        0.574892520904541,
        0.07892528921365738,
        17.31604766845703,
        13.827438354492188,
        -12.953530311584473,
        -1.2504041194915771,
        0.05557430163025856,
        -0.04445527866482735,
        -0.06874484568834305,
        -1.1394059658050537,
        -0.1870867908000946,
        -0.2690756320953369,
        0.17028740048408508,
        0.5490877032279968,
        -0.3693656325340271,
        0.08520697057247162,
        0.11903026700019836,
        -3.034829616546631,
        -4.423939228057861,
        0.14734967052936554,
        -0.3704310655593872,
        -0.04701162502169609,
        2.3690576553344727,
        -0.3142457902431488,
        -6.047545433044434,
        -7.5210442543029785,
        -2.1262035369873047,
        -0.015223038382828236,
        -9.096631050109863,
        1.993345856666565,
        1.3803038597106934,
        -7.5072550773620605,
        -0.0904642716050148,
        -7.905618190765381,
        -1.1534698009490967,
        -3.801345109939575,
        0.7309174537658691,
        -3.3542985916137695,
        0.01298919040709734,
        0.5996126532554626,
        -0.8179054260253906,
        -0.06975822150707245,
        -0.004439441487193108,
        0.08500228077173233,
        1.407484531402588,
        0.10324361175298691,
        -4.715658187866211,
        -1.7979800701141357,
        -4.338253021240234,
        0.7609195709228516,
        0.0038099815137684345,
        0.6543490886688232,
        -1.0195837020874023,
        0.08395989239215851,
        -1.8285452127456665,
        0.4823262095451355,
        1.9250102043151855,
        -0.7682087421417236,
        1.6440900564193726,
        -0.014366412535309792,
        -4.9859514236450195,
        -0.5028716325759888,
        0.12785719335079193,
        0.19580861926078796,
        0.011232278309762478,
        -0.03994612768292427,
        1.0653823614120483,
        0.010322341695427895,
        11.197203636169434,
        10.166861534118652,
        1.571214199066162,
        0.08107312768697739,
        0.009904623031616211,
        -0.08926267921924591,
        -0.2061695158481598,
        -0.46790754795074463,
        0.05717930570244789,
        -0.06302862614393234,
        0.8152890205383301,
        0.33874234557151794,
        -0.20593824982643127,
        -0.505805253982544,
        -8.283445358276367,
        0.10775485634803772,
        -0.2450626641511917,
        0.007653935346752405,
        -0.0015989311505109072,
        -0.10392887145280838,
        -0.021553201600909233,
        0.14823849499225616,
        9.767351150512695,
        9.056111335754395,
        -1.8968746662139893,
        -0.5987918972969055,
        -0.01810268498957157,
        0.25676509737968445,
        -0.6866697669029236,
        -0.2276124358177185,
        -0.15237559378147125,
        0.3000342845916748,
        -0.2581300139427185,
        0.35984116792678833,
        -1.2265952825546265,
        -0.016381070017814636,
        -0.4055511951446533,
        0.5221570730209351,
        -0.8629834651947021,
        -0.5101150274276733,
        0.2460990697145462,
        0.4097874164581299,
        3.6905391216278076,
        0.001889987732283771,
        1.9639697074890137,
        2.655303478240967,
        0.1050926223397255,
        0.6302205920219421,
        0.025879031047225,
        -2.3044915199279785,
        1.1262353658676147,
        -0.986052393913269,
        0.9373214244842529,
        -0.8613898158073425,
        -0.7436920404434204,
        0.9203734993934631,
        -0.09029750525951385,
        0.08154971152544022,
        0.12757942080497742,
        -2.068484306335449,
        -2.1586878299713135,
        -0.04389325901865959,
        -0.19515925645828247,
        0.35870954394340515,
        -6.3390398025512695,
        -0.02224845066666603,
        1.3219021558761597,
        -1.3367009162902832,
        0.43301767110824585,
        -1.053503155708313,
        0.07258673757314682,
        -3.075054883956909,
        3.374553680419922,
        0.1265472173690796,
        -3.3427493572235107,
        -0.46306636929512024,
        -0.7971612215042114,
        -1.5457714796066284,
        2.926339864730835,
        -0.2711542248725891,
        0.11643955111503601,
        -0.6135047078132629,
        -1.11664617061615,
        -1.0092742443084717,
        -0.0743396207690239,
        -0.9547085165977478,
        1.1521406173706055,
        -0.026827234774827957,
        -0.17255525290966034,
        -1.336269497871399,
        0.18151803314685822,
        -5.603371620178223,
        0.008191780187189579,
        -6.835014343261719,
        6.239229202270508,
        -5.94450569152832,
        -4.090975761413574,
        -5.10184907913208,
        -3.6954145431518555,
        -5.605760097503662,
        6.016496658325195,
        1.6038875579833984,
        -0.06166087090969086,
        1.9586323499679565,
        -0.44112375378608704,
        -0.4986472427845001,
        -0.03761601448059082,
        -0.6312299966812134,
        0.7142805457115173,
        -0.023410014808177948,
        -1.1974505186080933,
        -6.238500595092773,
        -0.6601188778877258,
        0.8583023548126221,
        0.15365277230739594,
        0.7280394434928894,
        -0.06567417085170746,
        -0.3553605079650879,
        -1.4341615438461304,
        -0.5066091418266296,
        -0.07241660356521606,
        -0.09244285523891449,
        0.3637382686138153,
        0.009860141202807426,
        -0.023714208975434303,
        -0.38625362515449524,
        1.4366700649261475,
        -0.30959805846214294,
        0.5996076464653015,
        -0.39693552255630493,
        -0.7969793081283569,
        -0.019994564354419708,
        8.833407402038574,
        7.993520736694336,
        0.330929696559906,
        -0.7375571131706238,
        -0.05788160860538483,
        0.11961320042610168,
        -0.9229270219802856,
        -0.5205862522125244,
        -0.3294403851032257,
        -0.26119375228881836,
        0.14551013708114624,
        -0.17842452228069305,
        0.015170234255492687,
        -0.02161293476819992,
        0.05951596051454544,
        -0.4289915859699249,
        0.6270868182182312,
        1.093740463256836,
        0.006738913245499134,
        1.0049611330032349,
        4.290787220001221,
        0.06377524882555008,
        7.565610885620117,
        3.852844476699829,
        -13.910112380981445,
        -1.3696926832199097,
        -0.09674300253391266,
        0.15500913560390472,
        -0.8476633429527283,
        -0.3266659379005432,
        0.3335209786891937,
        -0.3934341371059418,
        -1.091856837272644,
        0.7834600806236267,
        -0.22320391237735748,
        0.003335756016895175,
        -3.5057406425476074,
        0.5014525055885315,
        -0.37083837389945984,
        0.22831635177135468,
        0.07163379341363907,
        -0.14406652748584747,
        1.5596212148666382,
        0.0714733749628067,
        0.07686586678028107,
        1.1771597862243652,
        -6.028830528259277,
        -4.808683395385742,
        0.03415711224079132,
        0.19335836172103882,
        -0.19594894349575043,
        -0.4304095506668091,
        -0.4302888810634613,
        -0.03194834291934967,
        1.0664315223693848,
        0.6340906023979187,
        1.6488875150680542,
        -0.12063378840684891,
        0.18938983976840973,
        -0.4869843125343323,
        0.1931891292333603,
        -0.2841581404209137,
        -0.020802464336156845,
        -0.05855635926127434,
        0.0414852574467659,
        -15.945059776306152,
        -9.801082611083984,
        -8.89237117767334,
        0.39020219445228577,
        0.10328228771686554,
        -0.1177336648106575,
        0.03306646645069122,
        -0.5111565589904785,
        -0.3319578766822815,
        -0.013461045920848846,
        0.9925325512886047,
        0.22745177149772644,
        -0.2926274240016937,
        0.4791133999824524,
        -0.011774382553994656,
        -1.7282288074493408,
        -0.4258173406124115,
        -0.05048580467700958,
        0.08725956827402115,
        -0.10566495358943939,
        -0.29139548540115356,
        -0.17452743649482727,
        -2.528411626815796,
        -7.169595718383789,
        -7.680239200592041,
        0.21321417391300201,
        -0.733467161655426,
        -0.02627643384039402,
        -2.1778924465179443,
        1.3944320678710938,
        0.1089404746890068,
        -1.1131411790847778,
        -0.06433581560850143,
        -0.3938383460044861,
        -0.3084135949611664,
        1.7935994863510132,
        0.12307819724082947,
        0.009292389266192913,
        0.585824191570282,
        -1.0954033136367798,
        0.03153543546795845,
        0.02282233163714409,
        -0.007744815666228533,
        0.24599391222000122,
        0.005519283469766378,
        8.398634910583496,
        8.27354907989502,
        -18.208227157592773,
        -8.298256874084473,
        0.028431562706828117,
        0.48479172587394714,
        0.6677587628364563,
        -0.6842086911201477,
        -0.6784971952438354,
        0.6155557036399841,
        -0.11240408569574356,
        -0.15695787966251373,
        -2.392723560333252,
        0.013077170588076115,
        0.12172804772853851,
        0.24251219630241394,
        -0.6405110359191895,
        -0.12267817556858063,
        0.0008557065739296377,
        -0.24743634462356567,
        -8.531451225280762,
        -8.90052318572998,
        -6.503735065460205,
        -4.366186141967773,
        2.061202049255371,
        -1.7260074615478516,
        0.028575576841831207,
        -0.1855192482471466,
        0.31971508264541626,
        0.14845876395702362,
        -0.19116146862506866,
        -0.19003699719905853,
        0.1787928193807602,
        -0.1380625069141388,
        0.42363712191581726,
        0.019651135429739952,
        -0.02488524466753006,
        0.6335091590881348,
        -0.806397557258606,
        1.0253617763519287,
        0.001403496484272182,
        0.5908480286598206,
        1.1627217531204224,
        0.1031990572810173,
        6.25016450881958,
        9.671448707580566,
        1.7503154277801514,
        -0.48247331380844116,
        0.4532477855682373,
        0.29494336247444153,
        1.6387858390808105,
        -0.6236457824707031,
        -0.34939196705818176,
        -0.2455468624830246,
        -0.18202905356884003,
        0.4405641555786133,
        0.8492894172668457,
        -0.011318182572722435,
        -1.1414434909820557,
        -0.7319927215576172,
        1.398849606513977,
        -0.2367708384990692,
        0.014036169275641441,
        -0.028376761823892593,
        -0.7087731957435608,
        0.07538875937461853,
        -5.198855400085449,
        -6.617244243621826,
        -4.865468502044678,
        -1.6999292373657227,
        -0.0461982898414135,
        0.4217686057090759,
        -1.6365689039230347,
        -1.7079505920410156,
        -0.5630962252616882,
        -1.0648438930511475,
        -0.02336735650897026,
        0.8772227764129639,
        -2.7832350730895996,
        0.35554933547973633,
        0.03973644599318504,
        -3.417156934738159,
        -0.9558221101760864,
        -0.03275885805487633,
        -0.09645398706197739,
        -0.09260978549718857,
        0.10382199287414551,
        0.09881376475095749,
        -3.4243102073669434,
        -6.651825428009033,
        0.5960344672203064,
        0.48619839549064636,
        -0.013596919365227222,
        -0.06945588439702988,
        0.17032058537006378,
        -0.2565917670726776,
        0.33822107315063477,
        -0.574997067451477,
        0.8426647782325745,
        0.28879648447036743,
        0.9312497973442078,
        -1.49460768699646,
        0.06889703124761581,
        1.0049123764038086,
        -1.162642240524292,
        0.18155287206172943,
        -0.022108003497123718,
        -0.09814363718032837,
        0.03829827532172203,
        0.04408695176243782,
        16.455223083496094,
        9.983185768127441,
        -27.11136245727539,
        0.5994953513145447,
        -0.010443676263093948,
        -0.1337883174419403,
        0.9190840125083923,
        -0.16248050332069397,
        0.4135531187057495,
        -0.14048869907855988,
        -0.35202017426490784,
        0.42993494868278503,
        -0.5054409503936768,
        0.03883218392729759,
        0.23532141745090485,
        -0.544674277305603,
        0.31783559918403625,
        0.34984710812568665,
        -0.0014922176487743855,
        -0.2716463804244995,
        -0.6171592473983765,
        -5.057574272155762,
        -12.442523956298828,
        -16.474807739257812,
        1.6662153005599976,
        0.21508866548538208,
        -3.1931982040405273,
        0.16306111216545105,
        0.2362520545721054,
        0.07770972698926926,
        0.13236328959465027,
        -0.13119424879550934,
        -0.15253634750843048,
        0.3635072708129883,
        1.197162389755249,
        0.017480099573731422,
        -0.02367362566292286,
        0.11386686563491821,
        -0.22166630625724792,
        -0.39241746068000793,
        -0.019321054220199585,
        -0.5432266592979431,
        0.21581625938415527,
        0.07461585849523544,
        -3.203340768814087,
        -2.4444727897644043,
        0.9809110164642334,
        0.10608534514904022,
        0.09028558433055878,
        0.08728240430355072,
        -0.10415758937597275,
        1.2715485095977783,
        -3.8662638664245605,
        0.7983037829399109,
        -1.3214083909988403,
        0.18734540045261383,
        -0.48487403988838196,
        -0.4247516095638275,
        -0.2226683795452118,
        0.04648015275597572,
        -0.39727726578712463,
        0.34840691089630127,
        -0.2910940945148468,
        -0.34487226605415344,
        -0.49700987339019775,
        -4.586319923400879,
        -5.709452152252197,
        -2.2231287956237793,
        0.40414077043533325,
        0.8317526578903198,
        0.015007196925580502,
        0.11515577137470245,
        -1.047018051147461,
        -0.5722224712371826,
        -0.8879685401916504,
        0.017395520582795143,
        1.0648409128189087,
        -1.3512353897094727,
        -0.5631333589553833,
        0.33564674854278564,
        -0.14214716851711273,
        2.790949583053589,
        2.096431016921997,
        0.09544307738542557,
        0.05288729816675186,
        -0.1990460306406021,
        -0.10266337543725967,
        0.09958910197019577,
        1.1444767713546753,
        0.7913500070571899,
        -1.8114408254623413,
        0.011136528104543686,
        -0.032378386706113815,
        -0.17271608114242554,
        0.04555511847138405,
        -0.5471921563148499,
        0.2533740997314453,
        -0.15104177594184875,
        0.27930378913879395,
        0.3143078684806824,
        -0.6339268684387207,
        -0.6818844676017761,
        0.01807522587478161,
        -0.5419148206710815,
        0.6384225487709045,
        0.1371379792690277,
        0.004054372198879719,
        -0.1641952246427536,
        0.683149516582489,
        0.09308323264122009,
        -5.417446613311768,
        -3.697814464569092,
        2.53603458404541,
        1.036365270614624,
        0.004796118009835482,
        -0.5033298134803772,
        0.03602401539683342,
        1.3204596042633057,
        1.0746138095855713,
        1.0257396697998047,
        0.3363093137741089,
        0.02917669527232647,
        0.2419549971818924,
        -1.0080971717834473,
        -1.2406607866287231,
        -2.1106791496276855,
        0.07310054451227188,
        -0.2688853144645691,
        -0.1588812917470932,
        -0.2821098864078522,
        -0.6639876365661621,
        -1.5976715087890625,
        -1.6907289028167725,
        -6.289096355438232,
        -1.1643285751342773,
        0.16524182260036469,
        -1.0644489526748657,
        0.6982312202453613,
        2.854807138442993,
        -0.24821271002292633,
        -1.107276201248169,
        -0.24474075436592102,
        -0.19016510248184204,
        -0.7653142809867859,
        -0.14379845559597015,
        0.08013033121824265,
        0.2703590393066406,
        0.2728010416030884,
        -0.479643851518631,
        -0.09605982899665833,
        0.0040965392254292965,
        -0.029859881848096848,
        -0.09000571817159653,
        -6.809792995452881,
        -14.9484224319458,
        -9.915872573852539,
        1.5599604845046997,
        1.0832593441009521,
        -0.014217279851436615,
        0.16856935620307922,
        0.19646763801574707,
        0.5404233932495117,
        -0.6368933916091919,
        0.18229663372039795,
        -0.009699647314846516,
        0.33241331577301025,
        -2.150224447250366,
        -0.20728403329849243,
        0.024066098034381866,
        0.13670498132705688,
        -0.1621997058391571,
        -0.08304934203624725,
        -0.0025569037534296513,
        0.07285003364086151,
        -0.5744842886924744,
        -16.82082176208496,
        -25.777931213378906,
        -22.621891021728516,
        0.21254052221775055,
        -0.7450219988822937,
        0.04882877692580223,
        0.03217628225684166,
        -0.475931853055954,
        0.47368746995925903,
        0.8617812991142273,
        -0.27023524045944214,
        0.21951578557491302,
        -0.07645899802446365,
        0.5077664256095886,
        -0.22425924241542816,
        0.12483841180801392,
        0.15344595909118652,
        -0.1763201653957367,
        -0.2874377965927124,
        0.002938430290669203,
        0.2406194508075714,
        0.558264434337616,
        -1.4624615907669067,
        -1.1843843460083008,
        1.4614920616149902,
        -1.6754664182662964,
        0.8952203989028931,
        -0.9728873372077942,
        -0.44688495993614197,
        -6.5019073486328125,
        -0.6119292378425598,
        0.8187106847763062,
        -0.5485614538192749,
        0.1987614631652832,
        -2.345606565475464,
        0.3454976975917816,
        0.5656008124351501,
        0.0640762448310852,
        3.965071439743042,
        1.347625732421875,
        0.39738112688064575,
        0.01699558086693287,
        -0.4560374915599823,
        0.31170764565467834,
        -2.455038070678711,
        -10.782393455505371,
        -17.965435028076172,
        -0.22321216762065887,
        -0.5848556756973267,
        -0.09781854599714279,
        0.047801580280065536,
        0.04004276171326637,
        0.09199883788824081,
        0.4286290407180786,
        0.18627937138080597,
        -0.5513537526130676,
        -0.3744240701198578,
        0.07733412086963654,
        -0.01925426907837391,
        0.05689379200339317,
        -0.20104095339775085,
        -0.20357415080070496,
        0.16855889558792114,
        0.010223297402262688,
        -0.4599338471889496,
        -4.032886505126953,
        0.03741908818483353,
        14.655434608459473,
        13.239516258239746,
        -13.94502067565918,
        0.7830320596694946,
        -0.026045719161629677,
        -0.4107955992221832,
        0.9412873983383179,
        -0.47884654998779297,
        0.31733065843582153,
        0.34127703309059143,
        -0.0122501440346241,
        -0.14478325843811035,
        1.7747458219528198,
        0.05334727466106415,
        0.014942508190870285,
        0.2970103621482849,
        0.020198438316583633,
        -0.6085543632507324,
        0.46788516640663147,
        -0.3334489166736603,
        0.15357685089111328,
        -0.14016932249069214,
        -3.0092296600341797,
        -1.772650957107544,
        -0.3327999711036682,
        -0.8164191842079163,
        0.024350600317120552,
        0.4560454189777374,
        -1.1596993207931519,
        -1.2751444578170776,
        -0.34436285495758057,
        0.1077062338590622,
        0.07846841961145401,
        -0.8705986142158508,
        -0.6811071634292603,
        0.1244087740778923,
        0.006508295889943838,
        -0.38783401250839233,
        0.5486209392547607,
        -0.41109833121299744,
        -0.026755116879940033,
        0.4002112150192261,
        -0.052267879247665405,
        0.014967180788516998,
        19.75026512145996,
        18.755144119262695,
        -3.9998371601104736,
        0.8041588664054871,
        -0.12145569920539856,
        -0.194004088640213,
        -0.4527754485607147,
        -0.6804707050323486,
        -0.3095104694366455,
        -0.4234866499900818,
        1.0280381441116333,
        0.5438239574432373,
        0.3884851932525635,
        -0.0032916213385760784,
        -2.8223259449005127,
        -0.15653285384178162,
        -0.11104536801576614,
        -0.22368194162845612,
        -0.022853925824165344,
        -0.273033082485199,
        2.056995153427124,
        0.050315629690885544,
        1.2423923015594482,
        1.1780381202697754,
        -3.5410943031311035,
        0.6706005334854126,
        -0.011520246043801308,
        0.7332544922828674,
        1.7210825681686401,
        -0.6746816635131836,
        0.35837939381599426,
        0.03636603057384491,
        -1.3943135738372803,
        -1.0916295051574707,
        -0.3320487141609192,
        -0.024544954299926758,
        -0.0002513065410312265,
        2.080739736557007,
        1.27260160446167,
        -0.2003159075975418,
        -0.148752361536026,
        0.2550148069858551,
        -0.8004442453384399,
        0.09266795963048935,
        -2.129497766494751,
        -1.3826665878295898,
        0.08547133207321167,
        1.2186999320983887,
        0.03941252827644348,
        -1.0479615926742554,
        1.5743025541305542,
        -0.04642471298575401,
        -0.6906319260597229,
        -0.17052820324897766,
        0.8479228615760803,
        -1.0045973062515259,
        0.1117977425456047,
        0.16733424365520477,
        0.3840760588645935,
        -0.5251569747924805,
        0.5896086096763611,
        0.003622158896178007,
        0.010300415568053722,
        -0.012645350769162178,
        0.09360504895448685,
        -15.855596542358398,
        -18.74544906616211,
        -16.609792709350586,
        2.140793561935425,
        0.13986477255821228,
        0.03133852407336235,
        -0.17366154491901398,
        -0.5487494468688965,
        0.1263548582792282,
        0.785068154335022,
        0.6363995671272278,
        -0.7719534039497375,
        0.14374125003814697,
        -0.002089799614623189,
        0.019475487992167473,
        -0.042138516902923584,
        0.14319762587547302,
        0.3085532486438751,
        -1.5669269561767578,
        0.017592329531908035,
        -0.7759925127029419,
        -1.1974005699157715,
        0.08802038431167603,
        -7.6415019035339355,
        -11.705702781677246,
        0.26494622230529785,
        -5.42616605758667,
        -0.40065616369247437,
        -0.07393428683280945,
        -0.017435109242796898,
        -0.31389105319976807,
        -0.08144855499267578,
        -0.22558307647705078,
        0.29130634665489197,
        -0.015534675680100918,
        0.7170060276985168,
        0.14887744188308716,
        -0.39037206768989563,
        0.7802706360816956,
        2.064009428024292,
        -0.01837337389588356,
        -0.2823311388492584,
        -0.029035871848464012,
        -5.0711164474487305,
        0.12093895673751831,
        6.674692153930664,
        6.494727611541748,
        0.1377992331981659,
        -0.16097164154052734,
        0.013412786647677422,
        0.05627290531992912,
        2.5854859352111816,
        -0.5842787623405457,
        -0.22837959229946136,
        -0.6278796792030334,
        0.2943412959575653,
        -0.22708359360694885,
        0.4691568613052368,
        -0.07406242191791534,
        -2.0477101802825928,
        -1.1223645210266113,
        -0.36846864223480225,
        -1.0242767333984375,
        -0.352919340133667,
        -1.023916244506836,
        2.197779417037964,
        -0.12163367867469788,
        -0.0047983149997889996,
        -0.5996313095092773,
        0.8865427374839783,
        0.27191582322120667,
        0.1190214529633522,
        0.10690398514270782,
        1.3899869918823242,
        0.2867286205291748,
        -0.36314332485198975,
        -0.8792228698730469,
        -0.7761067152023315,
        0.10139111429452896,
        0.3212369382381439,
        -0.2700783610343933,
        -0.04772523045539856,
        -0.9574025869369507,
        1.399168848991394,
        -0.3468281626701355,
        -0.011861846782267094,
        -0.03778492286801338,
        -0.3420681357383728,
        -0.002684840699657798,
        18.091238021850586,
        10.642927169799805,
        -27.3292236328125,
        -0.14719556272029877,
        0.1530599743127823,
        0.04396836459636688,
        -0.412613183259964,
        0.2195264846086502,
        -0.29805606603622437,
        0.009049962274730206,
        0.5607429146766663,
        -0.16316808760166168,
        -0.19125275313854218,
        0.02147272601723671,
        0.08590105175971985,
        -0.3139256536960602,
        0.3206806182861328,
        -0.3424719572067261,
        0.0018713047029450536,
        0.11026180535554886,
        19.056324005126953,
        0.0305776484310627,
        6.758423328399658,
        7.275383472442627,
        -11.381235122680664,
        -3.0710597038269043,
        -0.004233439452946186,
        0.011682920157909393,
        0.0007304721511900425,
        -0.79817134141922,
        -0.281152606010437,
        0.6454700231552124,
        0.09622903168201447,
        0.2874276340007782,
        0.4512239992618561,
        0.005308630410581827,
        0.3081096410751343,
        -0.13648231327533722,
        0.117934949696064,
        -0.08992341160774231,
        0.011497247964143753,
        0.161995068192482,
        -0.1038091778755188,
        -32.6380500793457,
        1.4225407838821411,
        1.2911427021026611,
        -5.07328462600708,
        0.42575106024742126,
        0.013171171769499779,
        -0.027775924652814865,
        0.09063652902841568,
        0.49063777923583984,
        -0.05713335797190666,
        -0.24102962017059326,
        0.2008078247308731,
        -0.055109262466430664,
        -0.20751360058784485,
        0.008357372134923935,
        0.1827566921710968,
        1.3355562686920166,
        0.19160711765289307,
        -0.2860310673713684,
        -0.0900343582034111,
        0.2789748013019562,
        0.11702309548854828,
        -4.60653018951416,
        -9.356966018676758,
        -3.5084228515625,
        0.4626350402832031,
        0.2263268381357193,
        0.07093530148267746,
        -0.5825061202049255,
        -0.8043999075889587,
        0.3008694648742676,
        0.5371928215026855,
        -0.0801955908536911,
        0.906837522983551,
        -0.39963090419769287,
        1.764707326889038,
        0.067582868039608,
        -1.8785101175308228,
        1.9317327737808228,
        0.6764391660690308,
        -0.013337786309421062,
        -0.23312132060527802,
        0.21616007387638092,
        -0.9790735244750977,
        0.046921949833631516,
        4.8777875900268555,
        2.223905324935913,
        1.1412348747253418,
        1.293722152709961,
        0.007173269055783749,
        -1.5121902227401733,
        -5.055643081665039,
        -0.2004440575838089,
        -3.8996238708496094,
        -0.3253089189529419,
        -2.912632942199707,
        0.2218775749206543,
        0.7981057167053223,
        -0.6943243145942688,
        -0.19661079347133636,
        0.1830945611000061,
        -0.5107041597366333,
        0.0802377313375473,
        -0.022188981994986534,
        -0.33245018124580383,
        -0.6929699778556824,
        -4.437391757965088,
        -20.68990135192871,
        -23.50029182434082,
        2.02344012260437,
        -11.823941230773926,
        -0.6698836088180542,
        -0.7174027562141418,
        -1.306512713432312,
        0.5438846349716187,
        0.7534717321395874,
        -0.18623211979866028,
        0.6280326843261719,
        0.5398176908493042,
        0.35420358180999756,
        -0.22155186533927917,
        -0.005141847301274538,
        0.3944239020347595,
        -1.4905918836593628,
        0.13339395821094513,
        0.6310715675354004,
        -0.1653849482536316,
        -0.11929808557033539,
        0.0735146626830101,
        14.058856010437012,
        11.343121528625488,
        -5.405267715454102,
        -0.7980361580848694,
        0.022895634174346924,
        0.069842629134655,
        -0.5631884932518005,
        -0.843591034412384,
        -0.2942383587360382,
        -0.15142720937728882,
        0.16738656163215637,
        0.08050008118152618,
        -0.38878002762794495,
        0.010281345807015896,
        -0.07908974587917328,
        2.155437469482422,
        0.5701285600662231,
        -0.11008945107460022,
        -0.3466780483722687,
        0.2128414511680603,
        -0.9446489214897156,
        0.06136126443743706,
        3.205627679824829,
        1.461658239364624,
        0.821213960647583,
        -0.21761205792427063,
        0.10431164503097534,
        -0.4304696023464203,
        -2.5502376556396484,
        -11.73171615600586,
        0.25173789262771606,
        -11.37429141998291,
        -0.023747345432639122,
        -4.008807182312012,
        -1.5676711797714233,
        -0.7293983697891235,
        0.04474685341119766,
        -0.04197701811790466,
        0.5503453016281128,
        0.4390203058719635,
        0.012312370352447033,
        0.49256229400634766,
        1.9066442251205444,
        -0.056079648435115814,
        1.6506234407424927,
        -2.961398124694824,
        -2.5850515365600586,
        0.7703783512115479,
        0.06642165035009384,
        1.0678040981292725,
        1.3383293151855469,
        -0.07757014781236649,
        -1.081108570098877,
        -0.5893719792366028,
        -0.5336142182350159,
        0.2666715681552887,
        0.49738797545433044,
        -1.3988821506500244,
        0.05409644916653633,
        0.4408028721809387,
        1.0087807178497314,
        -0.09449222683906555,
        -0.0420311763882637,
        -0.17086586356163025,
        -4.423815727233887,
        -0.008401070721447468,
        7.303660869598389,
        7.395772933959961,
        -13.22362995147705,
        -1.5118709802627563,
        0.01740879938006401,
        -1.147863745689392,
        -0.66548752784729,
        0.3508736789226532,
        0.4982592463493347,
        0.5198249220848083,
        0.6948238015174866,
        -0.3757680058479309,
        -0.10239587724208832,
        0.0305775236338377,
        -1.1093604564666748,
        -0.09394900500774384,
        0.9386707544326782,
        -0.09127277135848999,
        0.3953830301761627,
        0.2733060121536255,
        4.557398319244385,
        0.03301186114549637,
        -0.07908827811479568,
        2.110426425933838,
        0.12773725390434265,
        0.006302665453404188,
        0.12832897901535034,
        -2.8292269706726074,
        0.8713509440422058,
        -1.9646999835968018,
        -0.5500383377075195,
        -0.9128461480140686,
        0.7885730266571045,
        -0.43991461396217346,
        1.6887598037719727,
        0.24949932098388672,
        0.09133437275886536,
        -0.00029005977557972074,
        0.16384325921535492,
        -0.13612765073776245,
        -0.005270381458103657,
        0.2958826720714569,
        -1.4924463033676147,
        0.04207603633403778,
        -9.844428062438965,
        -7.555327415466309,
        2.9136407375335693,
        0.9186144471168518,
        0.10481134802103043,
        0.3495825231075287,
        0.5055973529815674,
        -0.08126097172498703,
        -1.1664093732833862,
        -0.348369300365448,
        0.14382247626781464,
        1.1653443574905396,
        0.6578078269958496,
        0.00862287450581789,
        -0.3531351685523987,
        0.16112293303012848,
        -0.3142796754837036,
        0.4184021055698395,
        0.015852391719818115,
        -0.2995108366012573,
        0.02501744031906128,
        0.07636041194200516,
        9.654351234436035,
        9.188931465148926,
        -7.699777126312256,
        2.391416549682617,
        0.04804317280650139,
        -0.30886590480804443,
        0.9130585193634033,
        -0.24988630414009094,
        0.5136750340461731,
        -0.47970813512802124,
        -0.121283620595932,
        0.5711441040039062,
        1.0368609428405762,
        -0.16341890394687653,
        0.33127713203430176,
        0.09725174307823181,
        -0.07850233465433121,
        0.47190529108047485,
        0.005369800608605146,
        -0.5290942192077637,
        0.6326267123222351,
        -18.728273391723633,
        1.6387557983398438,
        0.9744119048118591,
        -12.421394348144531,
        -4.922940254211426,
        -0.008915423415601254,
        -0.33372896909713745,
        0.4957376718521118,
        0.38629743456840515,
        0.4476827383041382,
        0.26613372564315796,
        -0.15837377309799194,
        -0.2787195146083832,
        -0.6876106262207031,
        0.0005227538058534265,
        0.039285335689783096,
        -0.6179309487342834,
        -0.03047647885978222,
        -0.0878586694598198,
        -0.0037987586110830307,
        -0.4907931387424469,
        -11.792966842651367,
        0.04244277626276016,
        -6.687348365783691,
        -3.03281569480896,
        3.130075693130493,
        0.9343421459197998,
        0.020633801817893982,
        -0.2654474973678589,
        0.36926504969596863,
        0.3792889714241028,
        -1.2517515420913696,
        0.18620917201042175,
        0.07738088071346283,
        -0.3367263972759247,
        0.4640170633792877,
        -0.0009819463593885303,
        -0.19936442375183105,
        -1.87369704246521,
        -1.3818501234054565,
        -0.06074458733201027,
        0.1843547523021698,
        0.3926998972892761,
        0.44479820132255554,
        0.15002833306789398,
        1.2334237098693848,
        0.7262579798698425,
        1.3401037454605103,
        -0.8122848272323608,
        0.058508262038230896,
        -1.3348201513290405,
        -0.7944303750991821,
        -0.03527701273560524,
        -4.541604995727539,
        -0.1325967162847519,
        -4.333604335784912,
        0.07506294548511505,
        -0.43073055148124695,
        0.03388891741633415,
        -0.45119497179985046,
        0.04579551890492439,
        -0.15303806960582733,
        0.259542852640152,
        -0.08550383150577545,
        -0.004194057546555996,
        0.1897338628768921,
        -21.644393920898438,
        3.279254913330078,
        2.871335983276367,
        -2.466601848602295,
        -0.6645410060882568,
        -0.281738817691803,
        -0.1532534956932068,
        0.45476895570755005,
        0.11014164984226227,
        -0.40827736258506775,
        0.6710938215255737,
        0.5892256498336792,
        0.2900368571281433,
        0.802281379699707,
        -0.4564919173717499,
        -1.227331280708313,
        0.7337218523025513,
        0.8855748176574707,
        -0.3847150206565857,
        0.3105916678905487,
        0.39329099655151367,
        2.086934804916382,
        -0.010652357712388039,
        -1.383301019668579,
        0.9375181794166565,
        -0.02954200655221939,
        0.1281643956899643,
        0.1733393520116806,
        -4.762512683868408,
        2.1684789657592773,
        -3.342825412750244,
        -2.5223119258880615,
        -2.638913631439209,
        0.2705024182796478,
        -2.2130277156829834,
        0.17078723013401031,
        0.9119436740875244,
        0.07215958088636398,
        -0.17362627387046814,
        0.2979353070259094,
        -0.17598959803581238,
        -0.0006463066674768925,
        0.018948275595903397,
        -0.27449455857276917,
        -0.43528541922569275,
        -12.029581069946289,
        -10.491252899169922,
        1.1385433673858643,
        -1.5608603954315186,
        -0.806924045085907,
        -0.7671247720718384,
        -0.599876344203949,
        1.1914756298065186,
        0.3639473617076874,
        0.40632039308547974,
        0.37893474102020264,
        0.21014299988746643,
        -0.11127407103776932,
        0.0263991616666317,
        -0.25856542587280273,
        -0.5159862041473389,
        0.6503296494483948,
        -0.15362775325775146,
        0.3651847541332245,
        0.04365425929427147,
        -1.860243320465088,
        0.09563329815864563,
        6.7910051345825195,
        2.7293033599853516,
        0.6624939441680908,
        1.0537643432617188,
        0.2200234830379486,
        1.5214877128601074,
        1.039026141166687,
        -13.593005180358887,
        0.41535264253616333,
        -13.861329078674316,
        -1.1227991580963135,
        -4.654883861541748,
        -1.2412570714950562,
        -3.2667880058288574,
        0.07276193052530289,
        0.3896750509738922,
        -0.5540831089019775,
        0.03184257075190544,
        0.1433345228433609,
        -0.23503512144088745,
        -7.335304260253906,
        -0.06284819543361664,
        1.7753937244415283,
        1.1056163311004639,
        -17.06715202331543,
        -6.253892421722412,
        -0.0011291129048913717,
        -0.024460557848215103,
        0.011123772710561752,
        0.3832513689994812,
        0.2677396237850189,
        -0.36183658242225647,
        -0.7549358606338501,
        -0.11827927827835083,
        -0.6901758313179016,
        0.022104032337665558,
        -0.0790092796087265,
        -0.4057644307613373,
        -0.8728895783424377,
        0.6879076957702637,
        0.05764957517385483,
        1.0809125900268555,
        -0.3070376217365265,
        -0.014191421680152416,
        2.812884569168091,
        0.0877358540892601,
        1.1460407972335815,
        -0.8530392050743103,
        -0.5391363501548767,
        -2.0474374294281006,
        -7.036654949188232,
        -7.822201251983643,
        -0.1640065312385559,
        -8.690596580505371,
        0.3836091160774231,
        -1.7312614917755127,
        -1.5048322677612305,
        -0.9433330297470093,
        -0.0008148850756697357,
        0.18706117570400238,
        -0.2954682409763336,
        0.47019803524017334,
        0.018194442614912987,
        0.005883160047233105,
        0.19116100668907166,
        0.01010020449757576,
        11.12991714477539,
        8.29595947265625,
        -10.60213851928711,
        0.15845642983913422,
        0.01757742464542389,
        -0.2719670534133911,
        -0.5771609544754028,
        0.4600284695625305,
        -0.12262287735939026,
        0.9052011966705322,
        0.1946296989917755,
        0.9991751909255981,
        -0.3173433244228363,
        -1.1503055095672607,
        -0.1523771584033966,
        0.25793343782424927,
        -0.4384946823120117,
        0.24499553442001343,
        -0.007536977995187044,
        -0.2120235413312912,
        0.06667619943618774,
        -0.0657748356461525,
        14.795939445495605,
        14.511275291442871,
        -2.860121250152588,
        -1.4976203441619873,
        -0.0850331038236618,
        0.16246291995048523,
        -0.7163839936256409,
        -0.2490440160036087,
        0.37351906299591064,
        -0.7060555815696716,
        -0.3125123679637909,
        0.578504741191864,
        -1.1516679525375366,
        -0.3837243914604187,
        -2.5070292949676514,
        0.1126725897192955,
        0.19530776143074036,
        -0.5684109926223755,
        -0.007191133219748735,
        0.4704441428184509,
        -0.9869745373725891,
        0.09842902421951294,
        4.4351582527160645,
        2.9852800369262695,
        0.6935188174247742,
        -1.955826759338379,
        -0.06506877392530441,
        0.12196958065032959,
        0.0787276029586792,
        0.23421324789524078,
        -0.4784776270389557,
        -0.26274457573890686,
        -0.263918399810791,
        1.2652134895324707,
        -0.1211099699139595,
        -0.04176795855164528,
        -0.5786920785903931,
        -0.626518726348877,
        0.999138355255127,
        -0.27858737111091614,
        -0.02200527861714363,
        0.0898403450846672,
        -0.8627609014511108,
        -0.005676209460943937,
        13.020936965942383,
        8.257908821105957,
        0.32955971360206604,
        -0.6020288467407227,
        0.09161815047264099,
        0.2597027122974396,
        0.4394362270832062,
        -0.39991816878318787,
        -0.5860027074813843,
        -1.25094735622406,
        0.781766951084137,
        0.016855137422680855,
        0.6620653867721558,
        0.036471545696258545,
        0.3985770344734192,
        0.0491950623691082,
        -0.1225586012005806,
        -0.8165406584739685,
        0.012798184528946877,
        -0.5809849500656128,
        0.6514555215835571,
        -0.9252352714538574,
        -5.000555992126465,
        -7.994084358215332,
        -5.078829288482666,
        0.8100910186767578,
        0.14495693147182465,
        -0.04413970932364464,
        0.2439427524805069,
        -0.1856715977191925,
        -0.7535372972488403,
        -0.44924062490463257,
        -1.648378610610962,
        0.5127587914466858,
        -0.35901910066604614,
        -0.03697958216071129,
        -0.885017454624176,
        2.305299758911133,
        0.773364245891571,
        -0.4503500759601593,
        0.2950385808944702,
        -0.1622539609670639,
        -1.3915926218032837,
        0.07514785975217819,
        3.6177661418914795,
        2.109065294265747,
        0.6664521098136902,
        0.952678918838501,
        0.014509075321257114,
        -0.13267701864242554,
        1.3708131313323975,
        -0.39041492342948914,
        0.1804571896791458,
        -0.46432045102119446,
        -0.5142791867256165,
        0.21676331758499146,
        -0.8016950488090515,
        -0.6333417892456055,
        0.18747003376483917,
        -0.465096116065979,
        -0.013037177734076977,
        -0.1374833732843399,
        -0.018940621986985207,
        -0.38519349694252014,
        0.6510338187217712,
        -0.02684973180294037,
        5.701223373413086,
        5.114939212799072,
        -0.5084524154663086,
        1.03099524974823,
        -0.5299031138420105,
        -0.41270574927330017,
        -7.681187629699707,
        -1.871099829673767,
        1.2645854949951172,
        -3.342499017715454,
        0.8617761731147766,
        -3.0252387523651123,
        -6.829889297485352,
        -0.8238601088523865,
        0.10283621400594711,
        2.806317090988159,
        -0.7213823795318604,
        -0.3263694941997528,
        0.05158894136548042,
        0.25750213861465454,
        -0.19218279421329498,
        -0.308026522397995,
        -3.626934051513672,
        -10.348944664001465,
        -0.5446757078170776,
        0.6917529702186584,
        -2.063105344772339,
        0.26445913314819336,
        0.329773485660553,
        -0.5367151498794556,
        -0.5468538403511047,
        -0.412007600069046,
        -0.04858967289328575,
        0.4999985992908478,
        0.2659611999988556,
        -0.013602199964225292,
        -0.39567646384239197,
        2.8802120685577393,
        -0.7493847608566284,
        0.13004198670387268,
        0.005389671307057142,
        -0.15142755210399628,
        -0.3737163841724396,
        -3.5647270679473877,
        -9.357233047485352,
        -18.9215030670166,
        -0.40825390815734863,
        -0.07825765013694763,
        -0.6059144735336304,
        0.4360513687133789,
        -1.5404653549194336,
        -0.9589866995811462,
        -0.529920220375061,
        0.05826094374060631,
        0.0863315612077713,
        0.12311624735593796,
        -0.47094282507896423,
        0.012669716030359268,
        0.17348752915859222,
        -0.033912092447280884,
        -0.04032260179519653,
        -0.2978944182395935,
        -0.00691236462444067,
        -0.9707205295562744,
        2.0191192626953125,
        0.08129832148551941,
        -7.683773517608643,
        -4.55717134475708,
        3.0973780155181885,
        0.16422492265701294,
        0.12788330018520355,
        -1.0013631582260132,
        -0.18936119973659515,
        0.14759324491024017,
        -0.0840601697564125,
        -0.061474286019802094,
        -0.04336896911263466,
        0.09218316525220871,
        -0.4028152823448181,
        0.1753777265548706,
        -1.6424401998519897,
        0.2251155972480774,
        -0.07084889709949493,
        -0.8580570220947266,
        -0.0746326744556427,
        -0.06553224474191666,
        -0.5427097082138062,
        0.022290267050266266,
        -2.594968318939209,
        -1.0152767896652222,
        1.0156983137130737,
        1.8063024282455444,
        -0.19793373346328735,
        0.049362216144800186,
        0.18049174547195435,
        0.10091160237789154,
        -3.676736831665039,
        0.42278769612312317,
        -0.5477749109268188,
        -0.12715816497802734,
        0.9011791348457336,
        0.23164339363574982,
        -0.3683028221130371,
        0.3846110999584198,
        -0.005477597005665302,
        0.07079070061445236,
        -0.03484376147389412,
        0.04083198681473732,
        -0.18819807469844818,
        -0.25925543904304504,
        -0.19438035786151886,
        -0.6637007594108582,
        -0.628637433052063,
        -0.8988598585128784,
        -0.00512144947424531,
        -0.5968541502952576,
        -0.5236352682113647,
        -0.10449841618537903,
        -0.9856577515602112,
        -0.44579195976257324,
        -1.1231207847595215,
        -0.4237312078475952,
        0.3031204342842102,
        -0.6635734438896179,
        0.019791513681411743,
        0.5232943296432495,
        -0.6843898892402649,
        0.3860580325126648,
        0.03034469299018383,
        -0.10485263913869858,
        0.44830983877182007,
        0.03972051665186882,
        7.426652431488037,
        4.761473178863525,
        -13.677200317382812,
        0.12320410460233688,
        -0.4387800991535187,
        -2.5738911628723145,
        -0.9084566235542297,
        0.6799859404563904,
        0.17893008887767792,
        0.14383292198181152,
        0.9128007292747498,
        0.5375544428825378,
        -0.3838634788990021,
        0.0646442323923111,
        0.06333370506763458,
        0.7351197600364685,
        -0.7991586923599243,
        -0.20400479435920715,
        0.007369684055447578,
        0.21028703451156616,
        9.051737785339355,
        0.0447460301220417,
        -19.541494369506836,
        -15.551107406616211,
        1.9660379886627197,
        0.6070192456245422,
        -0.0035065736155956984,
        -0.056674376130104065,
        0.2927188277244568,
        0.6372067928314209,
        0.052982501685619354,
        0.3867524564266205,
        0.22097167372703552,
        0.03563539311289787,
        -0.38876307010650635,
        0.012040491215884686,
        -1.735236406326294,
        0.5410017371177673,
        -0.7749637961387634,
        -0.049914803355932236,
        0.3066615164279938,
        -0.112998366355896,
        4.690923690795898,
        -1.4393296241760254,
        3.0998826026916504,
        -0.2583063244819641,
        -2.3986716270446777,
        0.5486539006233215,
        0.16181103885173798,
        -0.9362525343894958,
        0.8213284611701965,
        -0.7083712220191956,
        0.4123561680316925,
        -0.8130051493644714,
        -0.38494208455085754,
        1.136749505996704,
        0.8568891286849976,
        -0.055489152669906616,
        0.1788603812456131,
        0.21523535251617432,
        -0.12766747176647186,
        0.06481803953647614,
        -0.002665259875357151,
        0.05025338754057884,
        0.36950576305389404,
        -1.3150334358215332,
        -16.212888717651367,
        -10.143392562866211,
        0.080511175096035,
        0.144105926156044,
        0.03416929766535759,
        0.38574185967445374,
        -0.46268031001091003,
        -0.7002817988395691,
        0.11700218170881271,
        -0.10872955620288849,
        0.17974436283111572,
        -1.3452311754226685,
        1.5662662982940674,
        0.45616623759269714,
        0.02719508297741413,
        0.1281038522720337,
        -0.16450007259845734,
        0.18824096024036407,
        -0.0031612233724445105,
        0.027527358382940292,
        0.5661588907241821,
        -0.10450121760368347,
        0.45580822229385376,
        -0.9439054131507874,
        -2.0561487674713135,
        -0.06003788113594055,
        0.0043343231081962585,
        0.6590543985366821,
        0.0965987965464592,
        0.15014247596263885,
        -0.018696846440434456,
        -0.040894072502851486,
        -3.0163707733154297,
        0.340972900390625,
        0.07189013808965683,
        -0.23895448446273804,
        -0.00989182572811842,
        2.3543195724487305,
        -0.21428827941417694,
        -0.0373956635594368,
        -0.13841162621974945,
        -0.5638612508773804,
        -1.4889321327209473,
        -0.06984177231788635,
        -12.294172286987305,
        -12.490832328796387,
        0.332163542509079,
        0.1717352271080017,
        0.04012143611907959,
        0.14276516437530518,
        -0.39173999428749084,
        -0.3136218190193176,
        0.2679463028907776,
        -1.0834113359451294,
        -0.1943182796239853,
        -0.5481643676757812,
        -0.19142894446849823,
        0.18362781405448914,
        0.0007537025958299637,
        -0.16460995376110077,
        0.2974366843700409,
        -0.2501736283302307,
        0.012312661856412888,
        0.2730170488357544,
        -2.021038293838501,
        -0.012684349901974201,
        11.767690658569336,
        7.828795909881592,
        -2.523013114929199,
        -0.3546734154224396,
        0.047587811946868896,
        0.023387186229228973,
        0.24632719159126282,
        -0.664563000202179,
        -0.7256808280944824,
        0.1035015806555748,
        1.3411685228347778,
        0.4184642434120178,
        2.1864609718322754,
        -0.1567860096693039,
        -1.2608476877212524,
        0.915050208568573,
        -0.7397945523262024,
        -0.06123184412717819,
        -0.09845093637704849,
        -0.046576399356126785,
        0.31414827704429626,
        0.0727941244840622,
        1.9020226001739502,
        1.7334446907043457,
        -2.3915300369262695,
        -0.8087892532348633,
        -0.16877159476280212,
        0.4556052088737488,
        0.4182749092578888,
        -0.2946418225765228,
        -0.12722042202949524,
        0.21898888051509857,
        0.019370688125491142,
        0.4471997618675232,
        0.3539547622203827,
        -1.5381182432174683,
        -0.6690272688865662,
        -0.07436040788888931,
        -0.03702883794903755,
        0.45382264256477356,
        0.05755012109875679,
        -0.49652764201164246,
        2.149916410446167,
        -0.026641396805644035,
        -0.6689673066139221,
        -0.6046508550643921,
        0.0004443664220161736,
        -1.1463168859481812,
        -0.5124911665916443,
        -1.3225797414779663,
        -1.191832423210144,
        -0.5449362397193909,
        -0.996469259262085,
        -0.23670217394828796,
        -1.727533221244812,
        -0.4778572618961334,
        -0.8039677143096924,
        -0.91886305809021,
        -0.06363189220428467,
        -0.019785353913903236,
        0.15027078986167908,
        1.5528665781021118,
        0.01875855028629303,
        1.032802700996399,
        0.675973117351532,
        0.13075046241283417,
        12.09887409210205,
        11.71784782409668,
        -1.4602965116500854,
        0.8597492575645447,
        -0.017904043197631836,
        -0.7110033631324768,
        0.025512617081403732,
        -0.22660651803016663,
        -0.16571366786956787,
        -0.22896529734134674,
        0.45951908826828003,
        0.4666796326637268,
        1.6243962049484253,
        0.07206171751022339,
        0.08590471744537354,
        -0.5601599812507629,
        -0.30570533871650696,
        0.4748553931713104,
        -0.017124781385064125,
        1.0589879751205444,
        -2.3927319049835205,
        0.02453932911157608,
        -2.7216312885284424,
        -2.4246764183044434,
        -2.770272731781006,
        -2.5689332485198975,
        0.2111620306968689,
        0.5839565396308899,
        0.5377556085586548,
        -0.7390050292015076,
        0.6173263192176819,
        -0.30465832352638245,
        -0.13394589722156525,
        0.21173670887947083,
        -1.755845546722412,
        -3.9906044006347656,
        -0.6851625442504883,
        -1.689348578453064,
        0.22025331854820251,
        0.16720648109912872,
        -0.05554051697254181,
        -0.14496268332004547,
        0.2089744657278061,
        -0.10314943641424179,
        -8.198835372924805,
        -5.168759822845459,
        0.926148533821106,
        -1.6475493907928467,
        -0.020578011870384216,
        -0.26817619800567627,
        0.10861371457576752,
        0.22370313107967377,
        -0.030277203768491745,
        0.43519818782806396,
        -0.16975075006484985,
        0.5006385445594788,
        -0.0959392637014389,
        -0.005062199663370848,
        -0.03542006388306618,
        -0.632556676864624,
        1.1282695531845093,
        0.1482173353433609,
        -0.029925402253866196,
        -0.14540588855743408,
        0.4822884798049927,
        -0.004461866337805986,
        -3.880352020263672,
        -3.219956159591675,
        -3.5354135036468506,
        1.7928842306137085,
        0.17059291899204254,
        0.215888112783432,
        1.344498634338379,
        -0.5695916414260864,
        0.14843511581420898,
        0.04849180951714516,
        -0.170615091919899,
        0.8000356554985046,
        -1.433279037475586,
        -0.008311329409480095,
        -4.090498447418213,
        -3.8958723545074463,
        -4.175593852996826,
        -0.10928118228912354,
        -0.12384071946144104,
        0.02128472924232483,
        2.8104889392852783,
        -0.03247567638754845,
        0.19254697859287262,
        -1.0967552661895752,
        0.6641594767570496,
        0.6321682333946228,
        -5.287694454193115,
        1.1412055492401123,
        -2.405165195465088,
        -1.1808440685272217,
        -9.168931007385254,
        0.06708262115716934,
        -9.332304954528809,
        -8.593483924865723,
        -0.8410415649414062,
        -10.463298797607422,
        -0.24453210830688477,
        -2.6587297916412354,
        0.5178701877593994,
        -0.03090074472129345,
        -0.17620189487934113,
        0.07825084775686264,
        0.13687077164649963,
        -0.24990613758563995,
        -5.8353424072265625,
        -8.416238784790039,
        0.3246650993824005,
        0.7043569684028625,
        -0.03628737851977348,
        0.4715726971626282,
        0.994925856590271,
        -0.6893010139465332,
        -0.4820738434791565,
        0.18382896482944489,
        -0.43375417590141296,
        -0.2644483745098114,
        -2.0866713523864746,
        0.002006394322961569,
        -1.8341161012649536,
        0.9917165040969849,
        1.0009461641311646,
        0.15442295372486115,
        -0.13403010368347168,
        -0.1835833489894867,
        -0.46453768014907837,
        -0.005659309681504965,
        -2.687138795852661,
        -3.1293952465057373,
        -0.14744269847869873,
        0.02990078181028366,
        -0.15310445427894592,
        -1.566899061203003,
        1.503772497177124,
        -2.280977964401245,
        -1.7396055459976196,
        -1.5769450664520264,
        -1.7159525156021118,
        -2.3184213638305664,
        0.44981953501701355,
        -1.9763476848602295,
        0.01582947187125683,
        3.379748582839966,
        1.9444679021835327,
        0.3717494308948517,
        0.07258199155330658,
        -0.28077131509780884,
        0.10215653479099274,
        0.005756846629083157,
        4.713035583496094,
        2.6186492443084717,
        -0.4753708839416504,
        0.12150337547063828,
        0.035671405494213104,
        0.12409009039402008,
        -0.4120219647884369,
        -1.094874382019043,
        -0.300937294960022,
        -0.5459880232810974,
        -0.05829064920544624,
        -0.5113585591316223,
        0.4153100848197937,
        0.004199775867164135,
        -0.42730653285980225,
        -0.8516644239425659,
        1.0145437717437744,
        0.054996974766254425,
        -0.02315668947994709,
        0.011623270809650421,
        0.5243276953697205,
        -0.5315477252006531,
        6.4326677322387695,
        2.1755926609039307,
        -2.3200294971466064,
        0.7891255617141724,
        -1.3050298690795898,
        0.1744070053100586,
        -1.2894518375396729,
        0.25695890188217163,
        0.12772464752197266,
        -0.23770301043987274,
        0.2943093478679657,
        -0.13505865633487701,
        0.7764323353767395,
        -0.2498498558998108,
        0.10016971081495285,
        -0.32474344968795776,
        -0.14274322986602783,
        -0.4744429886341095,
        -0.0034698653034865856,
        -0.0880592092871666,
        -0.33849871158599854,
        0.0427597351372242,
        -0.8472432494163513,
        0.0074941236525774,
        -0.12572121620178223,
        0.3049457371234894,
        0.11510664969682693,
        -3.4827473163604736,
        0.14215780794620514,
        -5.37706184387207,
        0.3088250160217285,
        -5.2870378494262695,
        -0.18189451098442078,
        -0.057879310101270676,
        2.8709816932678223,
        0.9049810171127319,
        -0.7718639373779297,
        -0.26247990131378174,
        -1.2372207641601562,
        0.3022385537624359,
        -0.48091015219688416,
        -0.19670528173446655,
        -4.2157745361328125,
        -0.056482892483472824,
        1.826938509941101,
        2.2406551837921143,
        0.3342090845108032,
        -0.10619928687810898,
        0.10802774131298065,
        0.03127473592758179,
        1.9474050998687744,
        -1.1158690452575684,
        -0.6806220412254333,
        -0.879223108291626,
        -1.7082085609436035,
        -0.1443515419960022,
        3.4302501678466797,
        0.17545439302921295,
        -0.2780722975730896,
        -0.47650080919265747,
        0.6033661365509033,
        0.2598875164985657,
        -0.04560687765479088,
        -0.5471700429916382,
        0.5322749614715576,
        0.05645974725484848,
        7.886531829833984,
        2.4099204540252686,
        0.8909252285957336,
        1.6893421411514282,
        0.13281172513961792,
        0.04105724021792412,
        0.36251869797706604,
        1.2520904541015625,
        -2.529061794281006,
        0.5463677644729614,
        -2.501901149749756,
        0.03010835498571396,
        1.2483795881271362,
        -1.0154720544815063,
        -5.822556972503662,
        -0.39181703329086304,
        0.030937228351831436,
        -0.5199375152587891,
        0.009909262880682945,
        0.5052647590637207,
        -0.9295231699943542,
        0.14249713718891144,
        12.150254249572754,
        10.045160293579102,
        -0.3359729051589966,
        0.10816077888011932,
        0.07775481045246124,
        -0.21594245731830597,
        0.549909770488739,
        0.6645507216453552,
        0.6665823459625244,
        -0.2257365733385086,
        -0.25395262241363525,
        0.22902730107307434,
        -0.6402215957641602,
        -0.0021872844081372023,
        -0.08676756918430328,
        -0.0783139020204544,
        0.2312099039554596,
        -0.00859107542783022,
        0.04105124622583389,
        -0.003868016880005598,
        -1.190048098564148,
        0.07736682146787643,
        -2.913679838180542,
        -1.032873511314392,
        -0.24078217148780823,
        -0.8910044431686401,
        0.10560793429613113,
        -0.9414986371994019,
        -0.5780463814735413,
        1.0831890106201172,
        1.525114893913269,
        -0.1829918771982193,
        0.24396471679210663,
        0.36153900623321533,
        0.014680813066661358,
        -0.0442606657743454,
        -1.1305421590805054,
        -1.2743068933486938,
        1.80255126953125,
        -0.04749439284205437,
        -0.02644968032836914,
        0.361350953578949,
        0.4928620159626007,
        0.05173908546566963,
        0.4850170612335205,
        1.2617708444595337,
        -2.1318063735961914,
        -2.243079423904419,
        0.123866505920887,
        -0.09276876598596573,
        -0.006136226933449507,
        0.04437137767672539,
        -0.47686561942100525,
        1.1293710470199585,
        1.0117969512939453,
        -0.18422669172286987,
        -1.046364665031433,
        -0.5234546661376953,
        0.014245330356061459,
        0.25774458050727844,
        -0.4266936779022217,
        -0.055477075278759,
        0.0011648597428575158,
        0.22595232725143433,
        3.581282138824463,
        -0.19855190813541412,
        3.0514910221099854,
        3.385108232498169,
        -1.15009605884552,
        -0.20011797547340393,
        0.1915702223777771,
        0.03354067727923393,
        -0.17832009494304657,
        -0.08308496326208115,
        -0.5013167262077332,
        0.6190506219863892,
        0.9544728994369507,
        -1.0080792903900146,
        0.11750727146863937,
        -0.17092479765415192,
        -0.1770756095647812,
        0.25987735390663147,
        -0.36279916763305664,
        -0.8985005021095276,
        0.06379683315753937,
        -0.9366680979728699,
        0.20471987128257751,
        -0.031946975737810135,
        0.39848142862319946,
        -0.3558219373226166,
        0.545547366142273,
        -1.8492248058319092,
        -0.13944600522518158,
        -0.21760742366313934,
        -4.082179069519043,
        -5.077774524688721,
        -0.3841898739337921,
        -5.795331001281738,
        -0.9165563583374023,
        -0.8170626163482666,
        -0.5083804130554199,
        -1.1210134029388428,
        -0.967345118522644,
        -1.968656063079834,
        -0.06957683712244034,
        0.5432201623916626,
        -0.26607745885849,
        -0.1235477477312088,
        1.9685636758804321,
        0.003111498896032572,
        -5.695506572723389,
        -8.176027297973633,
        -1.370845913887024,
        0.261328786611557,
        -5.31553840637207,
        0.6883310675621033,
        -0.5423985719680786,
        0.2314324826002121,
        -0.010223831050097942,
        -1.505984902381897,
        0.10015251487493515,
        -0.9826039671897888,
        1.0400193929672241,
        -0.9359251856803894,
        0.02743266150355339,
        -0.9177280068397522,
        -0.43854212760925293,
        -0.07629112899303436,
        -0.04497272148728371,
        -0.24890312552452087,
        -0.8127084970474243,
        -0.006417902652174234,
        10.31312084197998,
        10.553437232971191,
        0.2719414234161377,
        1.875792145729065,
        -0.26501935720443726,
        -0.36470264196395874,
        -0.397092342376709,
        -1.375464916229248,
        -0.07579981535673141,
        -1.1413456201553345,
        0.8620027899742126,
        0.40083056688308716,
