{
  "inputs": [
    {
      "name": "trk_pt",
      "offset": 0,
      "scale": 1
    },
    {
      "name": "trk_eta",
      "offset": 0,
      "scale": 1
    },
    {
      "name": "trk_lambda",
      "offset": 0,
      "scale": 1
    },
    {
      "name": "trk_dxy",
      "offset": 0,
      "scale": 1
    },
    {
      "name": "trk_dz",
      "offset": 0,
      "scale": 1
    },
    {
      "name": "trk_dxyClosestPV",
      "offset": 0,
      "scale": 1
    },
    {
      "name": "trk_dzClosestPV",
      "offset": 0,
      "scale": 1
    },
    {
      "name": "trk_ptErr",
      "offset": 0,
      "scale": 1
    },
    {
      "name": "trk_etaErr",
      "offset": 0,
      "scale": 1
    },
    {
      "name": "trk_lambdaErr",
      "offset": 0,
      "scale": 1
    },
    {
      "name": "trk_dxyErr",
      "offset": 0,
      "scale": 1
    },
    {
      "name": "trk_dzErr",
      "offset": 0,
      "scale": 1
    },
    {
      "name": "trk_nChi2",
      "offset": 0,
      "scale": 1
    },
    {
      "name": "trk_ndof",
      "offset": 0,
      "scale": 1
    },
    {
      "name": "trk_nInvalid",
      "offset": 0,
      "scale": 1
    },
    {
      "name": "trk_nPixel",
      "offset": 0,
      "scale": 1
    },
    {
      "name": "trk_nStrip",
      "offset": 0,
      "scale": 1
    },
    {
      "name": "trk_nPixelLay",
      "offset": 0,
      "scale": 1
    },
    {
      "name": "trk_nStripLay",
      "offset": 0,
      "scale": 1
    },
    {
      "name": "trk_n3DLay",
      "offset": 0,
      "scale": 1
    },
    {
      "name": "trk_nLostLay",
      "offset": 0,
      "scale": 1
    },
    {
      "name": "trk_algo",
      "offset": 0,
      "scale": 1
    }
  ],
  "layers": [
    {
      "activation": "rectified",
      "architecture": "dense",
      "bias": [
        0.6381343603134155,
        -0.3349495828151703,
        -1.762064814567566,
        0.7733610272407532,
        -2.226609945297241,
        0.20496892929077148,
        -0.7006620168685913,
        -0.5298016667366028,
        1.2587919235229492,
        0.010996770113706589,
        1.3204624652862549,
        0.5100239515304565,
        -2.1343698501586914,
        0.9797243475914001,
        0.6795659065246582,
        1.7349278926849365,
        0.5173733234405518,
        -2.0791375637054443,
        0.00863795354962349,
        1.1844061613082886,
        1.6026962995529175,
        -1.3650377988815308,
        0.5690814256668091,
        0.08051664382219315,
        -0.1899341642856598,
        1.170198678970337,
        1.5526334047317505,
        1.9032858610153198,
        -1.3157339096069336,
        1.7779995203018188,
        0.49661993980407715,
        1.128259539604187,
        -0.35659483075141907,
        -1.354779839515686,
        -0.635029137134552,
        1.4069958925247192,
        -0.8534733653068542,
        -1.2239514589309692,
        -0.1768060028553009,
        0.647581934928894,
        2.702589750289917,
        -0.4204879403114319,
        1.3881826400756836,
        0.2577826678752899,
        1.2576464414596558,
        -0.15703874826431274,
        -0.41065075993537903,
        1.0090465545654297,
        -0.9033036231994629,
        -1.9629976749420166,
        -0.712397038936615,
        -0.522433340549469,
        -1.5568699836730957,
        1.4355065822601318,
        0.49294641613960266,
        -1.3416436910629272,
        2.587881565093994,
        1.8832699060440063,
        -0.8156569004058838,
        0.2947984039783478,
        -0.381480872631073,
        -0.5903299450874329,
        -1.1930707693099976,
        -0.8045504689216614,
        -1.8652400970458984,
        -0.11384235322475433,
        1.562428593635559,
        0.4083382785320282,
        -0.7743273973464966,
        -2.77786922454834,
        -0.3354513645172119,
        -0.619163453578949,
        -1.182860016822815,
        -2.1454005241394043,
        -1.7713512182235718,
        -1.3840309381484985,
        -1.378251075744629,
        2.455937147140503,
        -3.2118051052093506,
        1.4280040264129639,
        -0.9355860948562622,
        2.718146562576294,
        -0.7986742854118347,
        -1.4887120723724365,
        0.9429152011871338,
        -1.602207064628601,
        0.6538404822349548,
        -10.893680572509766,
        0.2291882187128067,
        0.7016454339027405,
        -0.39182671904563904,
        -7.601113319396973,
        0.4499414563179016,
        1.1763850450515747,
        -0.02859220653772354,
        0.4699625074863434,
        1.0464280843734741,
        1.8598408699035645,
        -1.9954028129577637,
        3.2369565963745117,
        0.042954668402671814,
        1.0657434463500977,
        1.2987278699874878,
        0.06368198245763779,
        -1.3610931634902954,
        0.2583148181438446,
        -0.5270060300827026,
        -2.732231378555298,
        -0.4640949070453644,
        0.2316281497478485,
        -0.5396846532821655,
        -3.2849507331848145,
        -1.4620178937911987,
        -0.3870105445384979,
        -0.8332576751708984,
        1.2875614166259766,
        0.8641623854637146,
        2.332200765609741,
        1.8734235763549805,
        1.028943419456482,
        0.19974608719348907,
        0.05341489240527153,
        1.060492992401123,
        -1.1849466562271118,
        0.0840102806687355,
        -1.918910026550293,
        4.0900092124938965,
        -0.44145166873931885,
        -0.6878558397293091,
        1.1881990432739258,
        -1.3960487842559814,
        -0.3462178111076355,
        -5.781249523162842,
        -0.9865451455116272,
        0.5338225364685059,
        0.06696435064077377,
        -1.5562783479690552,
        1.421860933303833,
        -2.359584093093872,
        -0.9610825181007385,
        -0.5295466184616089,
        -2.3524160385131836,
        -0.24467827379703522,
        2.7938809394836426,
        -0.5618609189987183,
        3.005213499069214,
        -1.174450159072876,
        -1.0264240503311157,
        0.6432982087135315,
        0.7859790921211243,
        0.028169862926006317,
        -0.03889165818691254,
        -0.4839829206466675,
        -0.9930103421211243,
        -2.477921724319458,
        -1.9982718229293823,
        0.4252853989601135,
        -1.8502392768859863,
        -0.3819584846496582,
        -0.09385056048631668,
        3.121171712875366,
        -1.0444258451461792,
        -0.34617123007774353,
        -0.8515945672988892,
        -0.7400500178337097,
        -0.1519302874803543,
        -1.042494297027588,
        0.9220408201217651,
        2.5187675952911377,
        -0.3820165991783142,
        -0.5132995843887329,
        0.5193029642105103,
        0.29068708419799805,
        2.3930490016937256,
        0.2664872407913208,
        0.9569664001464844,
        -2.8071787357330322,
        -0.5786257982254028,
        0.9021426439285278,
        0.5429907441139221,
        0.8307404518127441,
        1.171799659729004,
        3.9014790058135986,
        -2.348644495010376,
        0.3895089328289032,
        0.6325531601905823,
        1.6358791589736938,
        0.19739675521850586,
        0.5971531271934509,
        -2.827590227127075,
        -0.33931589126586914,
        -2.1748225688934326,
        0.2888275682926178,
        -0.42902693152427673,
        -0.06162603199481964,
        -0.2645214796066284,
        0.34475967288017273,
        2.6572723388671875,
        -0.513508141040802,
        -0.46014851331710815,
        -0.5667809844017029,
        0.575842022895813,
        0.760765552520752,
        -2.642329216003418,
        -1.1702525615692139,
        1.5352046489715576,
        2.4198036193847656,
        -2.382739543914795,
        1.1594654321670532,
        -0.7520028948783875,
        1.2234348058700562,
        1.2711693048477173,
        -0.2654150724411011,
        3.4811480045318604,
        1.4684704542160034,
        0.028749005869030952,
        -0.8038061261177063,
        0.054899729788303375,
        0.9006261229515076,
        -0.5453775525093079,
        -0.5013604164123535,
        -1.1782890558242798,
        -1.0270392894744873,
        0.6542941927909851,
        -0.4740576148033142,
        8.117983816191554e-05,
        1.5627305507659912,
        -4.598811626434326,
        -0.4145205318927765,
        -0.3173936903476715,
        0.2765350937843323,
        -2.156740427017212,
        0.7427542805671692,
        -1.3307503461837769,
        -0.6726115942001343,
        1.5861830711364746,
        -0.5245820879936218,
        1.1210005283355713,
        0.8874382376670837,
        -0.14396557211875916,
        0.5580480694770813,
        -5.224380970001221,
        0.8031942844390869,
        -0.9308187365531921,
        2.2618155479431152,
        0.28559836745262146,
        -2.2069101333618164,
        -0.5561138391494751,
        0.9312586188316345,
        2.2388081550598145,
        0.5555846095085144,
        -0.8589303493499756,
        -0.04290709272027016,
        1.366667628288269,
        2.4347617626190186,
        -1.9819687604904175,
        1.3623149394989014,
        0.35502931475639343,
        -6.81810188293457,
        -2.3373451232910156,
        -0.8570340275764465,
        -0.09752747416496277,
        0.6972538828849792,
        -2.392336845397949,
        1.1363790035247803,
        -0.3637024462223053,
        -1.7098160982131958,
        1.614903211593628,
        0.14592942595481873,
        -1.5540108680725098,
        -1.6276636123657227,
        -0.5896320343017578,
        0.5786476135253906,
        0.5716961026191711,
        1.6496689319610596,
        -0.9498623609542847,
        0.5118699669837952,
        -0.3836861848831177,
        0.9302111268043518,
        -1.4938933849334717,
        0.4645349979400635,
        0.759357213973999,
        -2.6559808254241943,
        -0.7183119654655457,
        0.8001625537872314,
        -2.5544698238372803,
        0.053216610103845596,
        -0.6371343731880188,
        0.1841181367635727,
        -0.28701484203338623,
        0.04785100370645523,
        -0.5422647595405579,
        1.9825690984725952,
        1.2698308229446411,
        -0.5467835068702698,
        0.6523526906967163,
        0.5193668007850647,
        -0.04275058954954147,
        0.011092247441411018,
        0.6187179088592529
      ],
      "weights": [
        -1.4378646612167358,
        0.15646202862262726,
        -0.3239707052707672,
        0.06701307743787766,
        -0.010037209838628769,
        0.3739774525165558,
        0.07163145393133163,
        -2.808278799057007,
        3.3537282943725586,
        5.617201805114746,
        1.0703215599060059,
        2.207676410675049,
        -0.011934876441955566,
        -0.23876798152923584,
        -3.5824942588806152,
        -0.21326930820941925,
        0.5016083717346191,
        0.07040835171937943,
        -0.12173954397439957,
        -0.4329570531845093,
        0.6343374252319336,
        0.037900421768426895,
        0.32497233152389526,
        1.265562653541565,
        0.3739616870880127,
        0.017635609954595566,
        0.38548797369003296,
        0.02837826870381832,
        -0.011672906577587128,
        0.05380207300186157,
        0.191686749458313,
        -0.7289174199104309,
        1.6925050020217896,
        0.7698675394058228,
        0.027020163834095,
        -0.5902228951454163,
        0.44755440950393677,
        -2.792959451675415,
        -0.25557321310043335,
        -2.1580734252929688,
        -0.5725882053375244,
        -2.060336112976074,
        0.05445932224392891,
        0.24689295887947083,
        0.397268682718277,
        -0.6624701023101807,
        -0.4803699851036072,
        -0.3263484239578247,
        0.08592019230127335,
        -0.2003341019153595,
        -0.1305069476366043,
        -2.8638803958892822,
        -5.417930603027344,
        -5.402500152587891,
        -2.482801914215088,
        -3.3892226219177246,
        0.06541703641414642,
        -0.3678188621997833,
        0.06888718903064728,
        -0.7800172567367554,
        0.48774850368499756,
        -1.0086643695831299,
        -0.19128167629241943,
        0.2749043107032776,
        -1.336455225944519,
        -0.2019987255334854,
        0.106427863240242,
        -0.2612890601158142,
        0.3724915087223053,
        0.002115547191351652,
        0.005344342440366745,
        0.15019579231739044,
        -0.021335218101739883,
        -0.0132360327988863,
        -12.329521179199219,
        -10.619887351989746,
        2.1894493103027344,
        -0.9094604849815369,
        0.04013007506728172,
        -1.5610361099243164,
        0.10855402797460556,
        0.20828066766262054,
        1.0032174587249756,
        0.22832946479320526,
        -0.00733008049428463,
        0.47678399085998535,
        0.19274678826332092,
        -0.0003762289707083255,
        -0.20272620022296906,
        0.4201792776584625,
        -0.6113219261169434,
        0.02440410666167736,
        -0.02269490621984005,
        -0.07770256698131561,
        0.07282857596874237,
        -1.0345673561096191,
        -14.322820663452148,
        -9.90554428100586,
        1.066325306892395,
        -0.8226423859596252,
        -0.02885325439274311,
        -0.0976734384894371,
        -0.15527285635471344,
        -0.07745480537414551,
        0.5175361037254333,
        -0.1767139434814453,
        0.0018672416917979717,
        -0.41077691316604614,
        -0.05571259930729866,
        0.24127623438835144,
        0.033540207892656326,
        -2.242196798324585,
        -1.4863594770431519,
        0.08987709134817123,
        -0.03505750000476837,
        -0.042478159070014954,
        0.0521431565284729,
        -0.012271498329937458,
        2.6648945808410645,
        -3.2932021617889404,
        -1.032334327697754,
        -2.2975234985351562,
        0.02320282906293869,
        0.004551426973193884,
        0.6358146667480469,
        -0.4112430214881897,
        0.14408883452415466,
        -0.9334239959716797,
        0.13075558841228485,
        0.17089338600635529,
        -0.3687465488910675,
        -0.5684234499931335,
        0.021725114434957504,
        -1.7445158958435059,
        -0.28379738330841064,
        0.0026945495046675205,
        -0.03015175461769104,
        -0.016679104417562485,
        -0.006070418749004602,
        -0.011762735433876514,
        -0.26767733693122864,
        -5.463912010192871,
        -0.3338313400745392,
        0.15089775621891022,
        -2.670107841491699,
        -0.028593959286808968,
        0.49263426661491394,
        -0.09504932910203934,
        0.24119848012924194,
        -0.031983911991119385,
        -0.1069740355014801,
        -0.028544088825583458,
        -0.18849718570709229,
        0.014107342809438705,
        -5.968959808349609,
        0.029802720993757248,
        0.09660111367702484,
        -0.08126828819513321,
        -0.020186733454465866,
        0.03899006545543671,
        -0.0017749947728589177,
        -0.9478952288627625,
        -3.1241841316223145,
        -1.6118929386138916,
        0.21769878268241882,
        0.3874145746231079,
        -0.22223952412605286,
        -0.6305877566337585,
        2.6679532527923584,
        0.2598609924316406,
        0.5329441428184509,
        -0.02408800832927227,
        0.3908918499946594,
        0.38168010115623474,
        -0.8972075581550598,
        0.08613647520542145,
        -0.4061415195465088,
        -0.012937166728079319,
        0.04327680915594101,
        0.32826435565948486,
        0.013588674366474152,
        -0.15587930381298065,
        -0.03217491880059242,
        -0.0021114188712090254,
        5.775734901428223,
        3.2658495903015137,
        -5.140349388122559,
        -0.4992189407348633,
        -0.026150893419981003,
        -0.6994417309761047,
        0.6663635969161987,
        0.741084635257721,
        -0.7432712316513062,
        0.4879228472709656,
        -1.8093079328536987,
        0.4143141210079193,
        0.3857543170452118,
        -0.537067711353302,
        -1.8183585405349731,
        -1.5262678861618042,
        -1.5252476930618286,
        0.1779516339302063,
        0.08074616640806198,
        0.1769464910030365,
        -0.07520171999931335,
        0.008334037847816944,
        4.739441871643066,
        2.9878780841827393,
        0.14589184522628784,
        -0.19889181852340698,
        -8.491557121276855,
        -0.49552810192108154,
        0.3367837369441986,
        -5.45591402053833,
        1.1472344398498535,
        -5.628024578094482,
        -1.406192660331726,
        -0.42402008175849915,
        -0.08396721631288528,
        -0.3884085714817047,
        -2.222351551055908,
        -0.14096854627132416,
        -1.2765276432037354,
        0.15143108367919922,
        -0.014481717720627785,
        -0.14422400295734406,
        0.02102978713810444,
        0.029982751235365868,
        8.125873565673828,
        7.141746997833252,
        -0.2385588139295578,
        -0.21235184371471405,
        -0.07943550497293472,
        0.23792120814323425,
        -1.3308570384979248,
        -0.4178798496723175,
        -0.19898049533367157,
        0.13887657225131989,
        0.08231130242347717,
        -0.12229913473129272,
        0.5395206809043884,
        -0.007096025627106428,
        -0.03414861857891083,
        -1.4481812715530396,
        -1.1953197717666626,
        -0.05125200003385544,
        0.031868547201156616,
        0.010849609971046448,
        0.008575205691158772,
        -0.1357680857181549,
        2.116767644882202,
        0.8874826431274414,
        -8.069530487060547,
        -0.21229450404644012,
        0.0550634004175663,
        -0.3424166440963745,
        -0.23890836536884308,
        -0.43994462490081787,
        0.2631663978099823,
        -0.7342466711997986,
        -0.17613402009010315,
        0.31750932335853577,
        -0.9921694397926331,
        -0.012601903639733791,
        -0.22619621455669403,
        -0.09989024698734283,
        0.1337275505065918,
        0.1344466656446457,
        -0.018299421295523643,
        0.2837021052837372,
        0.033139850944280624,
        -5.720219135284424,
        -13.690979957580566,
        -10.898694038391113,
        0.6526343822479248,
        0.3003075420856476,
        -0.008987427689135075,
        0.1287938952445984,
        -0.7005879282951355,
        0.3206537067890167,
        -0.12634247541427612,
        -0.07249743491411209,
        0.3189999759197235,
        0.25903910398483276,
        -0.3913140594959259,
        -0.00820154882967472,
        -0.30771929025650024,
        -0.6609079837799072,
        0.007347722537815571,
        -0.012301062233746052,
        -0.10339939594268799,
        0.039933446794748306,
        -0.01174267940223217,
        -1.1863473653793335,
        6.1388068199157715,
        3.63313889503479,
        -6.747733116149902,
        0.08195555955171585,
        0.04604332894086838,
        0.16953875124454498,
        0.897028386592865,
        -1.4140361547470093,
        -0.1451442986726761,
        -0.11979574710130692,
        -0.20574277639389038,
        0.3933696150779724,
        1.6068743467330933,
        -0.07900454103946686,
        -0.705568253993988,
        1.33295738697052,
        1.0030590295791626,
        0.02840052917599678,
        0.10277600586414337,
        -0.04264885187149048,
        0.016265561804175377,
        -0.034281447529792786,
        7.333104133605957,
        7.60494327545166,
        -6.285305976867676,
        -1.4542754888534546,
        0.07629723101854324,
        -0.4159896969795227,
        -0.3022945523262024,
        -0.6841264367103577,
        0.5448651909828186,
        -0.5031195282936096,
        -0.38764116168022156,
        0.5487332940101624,
        -2.306159734725952,
        -0.0004282050358597189,
        0.056698985397815704,
        0.04481781646609306,
        -0.07743373513221741,
        -0.0033645944204181433,
        0.010751207359135151,
        0.01303954143077135,
        0.006026147864758968,
        0.04972611367702484,
        10.802659034729004,
        8.466479301452637,
        -0.30878549814224243,
        2.2099854946136475,
        0.07958266884088516,
        -0.24552807211875916,
        -0.19121094048023224,
        -0.04286474734544754,
        -0.09295553714036942,
        -0.08961860835552216,
        0.3982528746128082,
        0.4361465275287628,
        1.588376522064209,
        -0.3996366262435913,
        -0.09365873783826828,
        -0.092727430164814,
        0.11979181319475174,
        0.0380847193300724,
        -0.0024084453471004963,
        -0.12415239959955215,
        0.024012506008148193,
        -0.3789951801300049,
        8.49838638305664,
        6.19607400894165,
        -19.827016830444336,
        -1.391064167022705,
        0.030713045969605446,
        -0.6116059422492981,
        0.5318436026573181,
        0.05084122344851494,
        0.7066402435302734,
        0.12021804600954056,
        -0.2906501889228821,
        0.3141302466392517,
        -0.9008081555366516,
        -0.004202900920063257,
        -0.3509533703327179,
        0.152115136384964,
        -0.1608700007200241,
        0.024303600192070007,
        0.021594291552901268,
        -0.0002729755360633135,
        0.0016434785211458802,
        0.0014343761140480638,
        -6.817094802856445,
        -7.952890396118164,
        0.2717656195163727,
        0.6008098125457764,
        0.0742592066526413,
        0.14155666530132294,
        1.116610050201416,
        -0.599777340888977,
        0.20019689202308655,
        -0.18904656171798706,
        -0.8829254508018494,
        1.0055389404296875,
        -1.0269931554794312,
        -0.003999708686023951,
        -2.9902752430643886e-05,
        0.01840423420071602,
        -0.011563231237232685,
        -1.3460513353347778,
        -0.000377998105250299,
        12.96308708190918,
        -0.005638197995722294,
        -0.0061205183155834675,
        2.097914457321167,
        -1.561193585395813,
        -6.704545497894287,
        -0.019190747290849686,
        -0.011230885051190853,
        0.003191293217241764,
        0.017429664731025696,
        0.001980752917006612,
        -0.042255908250808716,
        -0.047237202525138855,
        0.024404313415288925,
        0.04575217142701149,
        0.0070365737192332745,
        -0.0027349016163498163,
        0.09344302862882614,
        0.0015372760826721787,
        0.0313248336315155,
        -0.07653249800205231,
        0.0033961464650928974,
        0.113309845328331,
        -0.015180204063653946,
        -0.017343750223517418,
        5.157583713531494,
        6.0578718185424805,
        -5.0780110359191895,
        0.6129656434059143,
        -0.016336414963006973,
        -0.12163341045379639,
        0.36326396465301514,
        0.475188285112381,
        0.014769559726119041,
        0.4595490097999573,
        -0.12643581628799438,
        0.21096529066562653,
        -1.1023521423339844,
        -0.6371570229530334,
        0.26044678688049316,
        -0.19308435916900635,
        0.36129510402679443,
        -0.17296110093593597,
        0.17195850610733032,
        0.14484544098377228,
        -0.15617746114730835,
        -8.489965438842773,
        0.49724066257476807,
        -0.8453850746154785,
        -1.4287832975387573,
        -2.8218464851379395,
        -0.2908964157104492,
        0.011070854030549526,
        -0.8538423776626587,
        -0.40865764021873474,
        -0.23789559304714203,
        -0.19584204256534576,
        0.11771194636821747,
        0.36619818210601807,
        0.1422387957572937,
        -0.020555783063173294,
        0.3282308280467987,
        0.11051677167415619,
        -0.1774987280368805,
        -0.15226586163043976,
        0.014284725300967693,
        0.051571086049079895,
        0.004672571085393429,
        -0.7916420698165894,
        -11.17559814453125,
        -14.99416446685791,
        -0.5412108898162842,
        -0.36843737959861755,
        -0.44839712977409363,
        0.10822543501853943,
        -0.9969154000282288,
        -0.14003464579582214,
        0.3453387916088104,
        -0.09611482173204422,
        -0.06546442955732346,
        0.2554715871810913,
        0.2659747302532196,
        0.009879655204713345,
        -0.1725756973028183,
        -1.3288203477859497,
        -0.8980487585067749,
        0.29979363083839417,
        -0.14227984845638275,
        0.14023931324481964,
        0.16249820590019226,
        -0.6701213717460632,
        0.8036185503005981,
        -2.0932724475860596,
        -3.286330223083496,
        0.24110208451747894,
        0.04026235267519951,
        -0.3107464015483856,
        0.15344630181789398,
        0.2747807204723358,
        -1.051363229751587,
        0.41837623715400696,
        -1.0071169137954712,
        0.26541048288345337,
        -0.20569804310798645,
        -0.984668493270874,
        -0.014526634477078915,
        0.04044939577579498,
        0.04568526893854141,
        -0.02652614563703537,
        0.010070196352899075,
        0.007420614827424288,
        -0.01180972158908844,
        -0.03634456917643547,
        -0.40866202116012573,
        -0.06699509918689728,
        -0.22970286011695862,
        -0.06548646837472916,
        -0.0679231733083725,
        -0.08497071266174316,
        0.00048224610509350896,
        0.06417891383171082,
        -0.1411113291978836,
        0.04420699179172516,
        -0.05767606198787689,
        -0.2232222557067871,
        0.18173979222774506,
        -0.06949393451213837,
        0.10492198169231415,
        2.4235267639160156,
        1.1896851062774658,
        -0.07621892541646957,
        -0.04654271528124809,
        0.061730049550533295,
        -0.047159597277641296,
        -1.161110758781433,
        -5.036246299743652,
        -6.212072849273682,
        0.9590906500816345,
        0.15772628784179688,
        0.0015972249675542116,
        -0.06848866492509842,
        -0.7135263085365295,
        -0.6301939487457275,
        -0.37125974893569946,
        -0.6455115079879761,
        0.25853896141052246,
        -0.7184339165687561,
        -0.5725966691970825,
        0.0038153952918946743,
        -1.7387322187423706,
        -0.0023882382083684206,
        0.20396572351455688,
        0.058647602796554565,
        -0.48747414350509644,
        -0.02904004044830799,
        0.10806802660226822,
        0.03327760845422745,
        8.570877075195312,
        7.839268684387207,
        -0.7033633589744568,
        -2.8847787380218506,
        0.0263944324105978,
        0.30463624000549316,
        -0.9035481214523315,
        -0.564845085144043,
        -0.34677019715309143,
        -0.4142277240753174,
        0.06952589750289917,
        -0.21308806538581848,
        0.7207121253013611,
        0.037093158811330795,
        -4.46731424331665,
        -0.06211058050394058,
        0.062221966683864594,
        0.04820519685745239,
        -0.00974489375948906,
        -0.021103771403431892,
        0.017972590401768684,
        -19.682573318481445,
        6.068081378936768,
        8.338146209716797,
        0.5690170526504517,
        -0.20243723690509796,
        -0.014122696593403816,
        -0.09822183847427368,
        -0.3790872097015381,
        0.06925641745328903,
        0.1680409461259842,
        0.20924966037273407,
        0.2475825995206833,
        -0.19557128846645355,
        0.03631288558244705,
        -0.006206396035850048,
        -0.0002236507716588676,
        -0.097518689930439,
        0.12708228826522827,
        -0.0733383297920227,
        0.001447920803911984,
        0.04752383753657341,
        0.08103075623512268,
        -0.10023120045661926,
        7.472921371459961,
        8.238020896911621,
        -0.0461420901119709,
        0.44201338291168213,
        0.04235445335507393,
        -0.07418166846036911,
        0.24573728442192078,
        -0.7637792825698853,
        0.270439475774765,
        -0.7354777455329895,
        0.3182199001312256,
        0.3021613657474518,
        0.5979425311088562,
        -0.0011513284407556057,
        -0.34729573130607605,
        -0.19364704191684723,
        0.2961065471172333,
        0.07435659319162369,
        -0.025789130479097366,
        0.5245928764343262,
        0.08767707645893097,
        -0.18422631919384003,
        -6.5568718910217285,
        -7.949601173400879,
        2.9267592430114746,
        0.29477691650390625,
        0.034934788942337036,
        0.06798620522022247,
        1.3801989555358887,
        -0.2445324808359146,
        0.010616564191877842,
        -0.05215336009860039,
        -0.9876490831375122,
        0.9181943535804749,
        -0.6703912019729614,
        0.0022629443556070328,
        0.02378622069954872,
        0.16188649833202362,
        -0.20733137428760529,
        -0.09238804876804352,
        0.007678725756704807,
        0.2653619050979614,
        -0.1693418025970459,
        -0.13306035101413727,
        2.8226943016052246,
        3.161243438720703,
        1.0940029621124268,
        0.02521650120615959,
        -0.1469094455242157,
        -0.8803056478500366,
        -1.5159434080123901,
        -0.25726518034935,
        1.0373127460479736,
        -0.16929545998573303,
        0.01727273315191269,
        -0.17627502977848053,
        -0.0028350173961371183,
        0.00824915710836649,
        -3.3945388793945312,
        -0.3616686463356018,
        0.7313793301582336,
        0.28106993436813354,
        0.10839186608791351,
        0.32012495398521423,
        0.10182758420705795,
        -6.875389575958252,
        -0.9291808605194092,
        3.2080750465393066,
        -3.0414435863494873,
        -5.52777624130249,
        -0.5590270161628723,
        0.02436763606965542,
        -1.0275076627731323,
        0.33335649967193604,
        -0.30258798599243164,
        0.5815699696540833,
        0.672519862651825,
        -0.6009441614151001,
        0.40164345502853394,
        -0.012764747254550457,
        0.018787089735269547,
        -0.6426029801368713,
        -0.1365382820367813,
        0.006961995270103216,
        -0.5559321045875549,
        0.08418799936771393,
        0.18324272334575653,
        0.04721794277429581,
        2.4720523357391357,
        1.9165858030319214,
        -0.04268451780080795,
        0.09644455462694168,
        0.019097501412034035,
        -0.18350212275981903,
        -2.3025670051574707,
        -1.7544848918914795,
        -0.4833897352218628,
        -0.12920789420604706,
        0.5533089637756348,
        0.112134650349617,
        1.7621099948883057,
        -0.04315930977463722,
        0.14617036283016205,
        -0.33450156450271606,
        0.5394493341445923,
        -0.16921621561050415,
        0.009989895857870579,
        0.141386941075325,
        0.006581746507436037,
        -1.830480933189392,
        -13.886454582214355,
        -12.333483695983887,
        1.5832622051239014,
        -0.3094041645526886,
        -0.5161086916923523,
        -0.21905924379825592,
        -0.13271845877170563,
        0.4569038152694702,
        0.510046660900116,
        0.2971164286136627,
        -0.09266621619462967,
        0.04636870697140694,
        -0.3826199471950531,
        0.006722334772348404,
        0.23828615248203278,
        0.002451307838782668,
        0.1920670121908188,
        -0.04510285705327988,
        -0.040456999093294144,
        0.05675310268998146,
        0.0594383105635643,
        -5.792025089263916,
        -10.156989097595215,
        -1.8402159214019775,
        0.7216180562973022,
        -0.21943676471710205,
        0.18871070444583893,
        0.34798771142959595,
        -1.8650366067886353,
        -40.566890716552734,
        0.6216405034065247,
        -40.53555679321289,
        -0.6669206619262695,
        -2.3852062225341797,
        -0.5571210384368896,
        0.6572469472885132,
        -3.4882912635803223,
        -2.0412943363189697,
        -1.6395894289016724,
        0.3190021216869354,
        0.315184086561203,
        0.4247347116470337,
        -0.153825044631958,
        0.04752302169799805,
        -1.6885684728622437,
        -2.473606586456299,
        -0.5127245187759399,
        -0.42200323939323425,
        -0.03357430920004845,
        0.25412413477897644,
        0.39376309514045715,
        -0.8257107734680176,
        -0.06638708710670471,
        -0.9375722408294678,
        -0.26349973678588867,
        -0.21791256964206696,
        0.26227471232414246,
        -0.284168541431427,
        0.01034569926559925,
        -0.21329709887504578,
        0.4367862641811371,
        -0.04830121248960495,
        -0.026776909828186035,
        0.03186671808362007,
        0.04005490988492966,
        -0.13794927299022675,
        -4.284743309020996,
        -0.6006098389625549,
        0.5053296089172363,
        0.18939249217510223,
        -1.1327331066131592,
        0.05747899040579796,
        -0.6011540293693542,
        0.20215949416160583,
        0.2790449559688568,
        0.08621162921190262,
        0.5198919177055359,
        -0.9338449835777283,
        0.7819191813468933,
        0.001359886722639203,
        0.12460415810346603,
        -0.3084576725959778,
        -0.2291131168603897,
        -0.16813857853412628,
        0.050632864236831665,
        -0.09067331999540329,
        -0.0619671568274498,
        -0.2983280420303345,
        -4.615201950073242,
        -4.819589614868164,
        0.9029346704483032,
        -2.1199913024902344,
        -0.12792767584323883,
        -2.63153076171875,
        -0.664668619632721,
        -0.2246793955564499,
        -2.0880050659179688,
        -0.23384732007980347,
        -1.83247971534729,
        -0.8238345980644226,
        0.9807204604148865,
        0.06924508512020111,
        0.002343042753636837,
        -2.653195858001709,
        -1.5351691246032715,
        -0.08846136182546616,
        0.0025508240796625614,
        0.09362363070249557,
        0.011188872158527374,
        0.0015317107317969203,
        -5.365664482116699,
        -9.211029052734375,
        -0.48828548192977905,
        -0.10916578769683838,
        -0.01175654586404562,
        -0.06182250380516052,
        0.03597988188266754,
        -0.031642619520425797,
        0.15358389914035797,
        -0.0026826399844139814,
        -0.012707417830824852,
        -0.0864332914352417,
        0.06326238065958023,
        -0.006496497895568609,
        0.14655055105686188,
        -0.7831990122795105,
        -1.339558720588684,
        0.02340494468808174,
        -0.16684715449810028,
        -0.08233397454023361,
        0.011505781672894955,
        -5.536890506744385,
        -3.503363847732544,
        -3.811896800994873,
        -2.0670440196990967,
        -7.205514907836914,
        -0.01261757593601942,
        -0.19212894141674042,
        -0.2838574945926666,
        -0.21145151555538177,
        0.20818942785263062,
        -0.4676050841808319,
        -0.23405708372592926,
        0.3746025562286377,
        -0.2915416955947876,
        -0.07054802775382996,
        -6.095141410827637,
        0.0703132152557373,
        -0.34800589084625244,
        0.10214289277791977,
        0.0015756009379401803,
        0.09384933114051819,
        -0.11285842210054398,
        0.03641528636217117,
        0.4086776673793793,
        1.9112809896469116,
        2.826645612716675,
        0.49288779497146606,
        0.00938534177839756,
        -0.5946650505065918,
        0.8109161853790283,
        -0.02284497395157814,
        0.42541196942329407,
        0.16862724721431732,
        0.050821155309677124,
        0.37191900610923767,
        0.7505438327789307,
        -0.03336816281080246,
        -0.0036518641281872988,
        -0.07148769497871399,
        0.05040882155299187,
        -0.23891694843769073,
        -0.015747247263789177,
        -0.7004807591438293,
        0.0393560566008091,
        -0.01294585969299078,
        0.587492048740387,
        -1.0074243545532227,
        -0.26896169781684875,
        0.06039280816912651,
        -0.004177039954811335,
        -0.2173282653093338,
        0.7537736296653748,
        0.1688401848077774,
        -0.018664613366127014,
        0.6090770363807678,
        -0.17649789154529572,
        0.6761791706085205,
        -0.09938322007656097,
        -1.435575008392334,
        0.17699404060840607,
        0.22734802961349487,
        2.230368137359619,
        0.08782551437616348,
        -0.3252076804637909,
        -0.07925522327423096,
        -0.1311405748128891,
        -3.335474967956543,
        -2.688830852508545,
        -2.539943218231201,
        -0.6381718516349792,
        -0.2002817690372467,
        0.029258061200380325,
        0.002370791742578149,
        0.5895582437515259,
        -0.4634062647819519,
        -0.24583016335964203,
        -0.19145895540714264,
        0.7530779242515564,
        -0.9064784646034241,
        0.7016922235488892,
        -0.05890737101435661,
        -0.07566498219966888,
        -0.24205034971237183,
        -0.0358811691403389,
        0.1427815854549408,
        -0.23205827176570892,
        -0.001963861985132098,
        0.25547465682029724,
        -0.3737260699272156,
        6.345985412597656,
        8.159208297729492,
        -2.773191213607788,
        0.4249010682106018,
        -0.09246879816055298,
        0.10416868329048157,
        -0.35882461071014404,
        -0.13526344299316406,
        0.030400965362787247,
        -0.08654796332120895,
        -0.17112478613853455,
        -0.16785597801208496,
        0.8245898485183716,
        -0.15101604163646698,
        -4.66271448135376,
        0.035379424691200256,
        -0.11351031064987183,
        -0.3891139328479767,
        0.0011202781461179256,
        0.3967266082763672,
        -0.0296371728181839,
        0.02437186799943447,
        5.36656379699707,
        -0.4799651801586151,
        0.16731272637844086,
        0.8104960322380066,
        -0.03168708086013794,
        -0.054707128554582596,
        0.3295266032218933,
        -0.10085875540971756,
        0.05656613036990166,
        0.09589425474405289,
        -0.9042614698410034,
        0.7853885293006897,
        -0.237613245844841,
        -0.0017373147420585155,
        -0.04689383879303932,
        0.07418244332075119,
        -0.09407428652048111,
        0.12574078142642975,
        0.06033538654446602,
        -0.11952884495258331,
        0.023145480081439018,
        -3.2281038761138916,
        7.4448041915893555,
        10.671968460083008,
        -3.219181776046753,
        -4.282192707061768,
        0.006034770514816046,
        0.14959022402763367,
        0.8597284555435181,
        -0.21991410851478577,
        -0.4546181261539459,
        0.2526639997959137,
        0.38289543986320496,
        -0.11958825588226318,
        0.5604950189590454,
        -0.0014836767222732306,
        -0.04391726106405258,
        1.616875410079956,
        0.470502108335495,
        1.002103567123413,
        0.04837620258331299,
        1.0565448999404907,
        0.01007110346108675,
        -0.020914141088724136,
        2.8525805473327637,
        -0.6658239960670471,
        -0.8207860589027405,
        -0.005810076370835304,
        0.016950169578194618,
        -1.4661400318145752,
        -8.824666976928711,
        -0.009064468555152416,
        -1.5890964269638062,
        0.056772299110889435,
        -2.2460455894470215,
        -0.17763690650463104,
        -4.825058937072754,
        -0.3500939905643463,
        0.027849452570080757,
        -0.12331471592187881,
        0.15172065794467926,
        -0.08051939308643341,
        0.0033686624374240637,
        0.03171604126691818,
        -0.00856468640267849,
        0.010759856551885605,
        -8.768714904785156,
        -6.427605152130127,
        1.7084110975265503,
        0.7664441466331482,
        0.02914762683212757,
        -0.2296394407749176,
        -2.3792829513549805,
        -0.6195012927055359,
        -0.24841801822185516,
        -0.6387791633605957,
        -0.2413177192211151,
        1.7154197692871094,
        0.7128395438194275,
        -0.0029829200357198715,
        0.24136777222156525,
        -0.07494042068719864,
        0.22253987193107605,
        0.026925353333353996,
        0.0015200345078483224,
        -0.003199939848855138,
        0.013235031627118587,
        -8.615357398986816,
        3.1677050590515137,
        6.486230850219727,
        -2.349884271621704,
        1.6388564109802246,
        -0.0739721953868866,
        -0.42609789967536926,
        -1.7546964883804321,
        0.3824104070663452,
        -0.25112205743789673,
        0.5776750445365906,
        0.9867926239967346,
        -0.6961549520492554,
        0.11076240986585617,
        0.0010786346392706037,
        -0.9176493287086487,
        0.19884786009788513,
        -0.24067558348178864,
        0.030965110287070274,
        -0.013827665708959103,
        0.028443530201911926,
        -0.14919406175613403,
        -1.3348605632781982,
        -5.780867576599121,
        -2.7607719898223877,
        0.6265547275543213,
        0.9354434609413147,
        -0.7480825185775757,
        0.3733786344528198,
        -0.3056953549385071,
        0.07969225943088531,
        -0.8235278129577637,
        0.4561321437358856,
        0.08183977007865906,
        -0.050659261643886566,
        0.2617063820362091,
        0.01909451000392437,
        0.09341024607419968,
        -0.3241376578807831,
        0.2639646530151367,
        0.013353191316127777,
        -0.03907116502523422,
        -0.01656685769557953,
        0.08599469810724258,
        0.05636008828878403,
        2.858130693435669,
        0.9738636612892151,
        0.2039880007505417,
        0.018053341656923294,
        -11.902839660644531,
        0.6412788033485413,
        0.08259191364049911,
        -0.29251253604888916,
        0.12868575751781464,
        -1.0648361444473267,
        0.0748608410358429,
        -0.009748365730047226,
        -1.4183650016784668,
        -0.26065561175346375,
        0.07811731100082397,
        0.08719009160995483,
        -0.16421273350715637,
        0.3001958429813385,
        0.002260846784338355,
        -0.0933743342757225,
        0.018291722983121872,
        -0.17516857385635376,
        -5.013735294342041,
        -4.9469685554504395,
        -3.8683090209960938,
        1.0247865915298462,
        -0.3459545969963074,
        0.3132329285144806,
        -0.32182636857032776,
        0.01368482131510973,
        -2.325127601623535,
        0.07548919320106506,
        0.7656567692756653,
        -0.5535395741462708,
        1.2243577241897583,
        0.20667438209056854,
        -0.5470895171165466,
        0.11210235953330994,
        -0.12941813468933105,
        0.48566871881484985,
        -0.002493211068212986,
        0.997803807258606,
        -0.0017554915975779295,
        0.055516380816698074,
        1.0885987281799316,
        -3.459817409515381,
        -1.1754822731018066,
        -1.0812125205993652,
        -0.20204786956310272,
        -0.06344034522771835,
        0.9305953979492188,
        0.4050174355506897,
        0.2584784924983978,
        0.49563726782798767,
        -0.7612213492393494,
        -0.18082526326179504,
        -1.2925878763198853,
        0.008700002916157246,
        -0.4953385293483734,
        1.8118765354156494,
        -0.8010115623474121,
        -0.028446393087506294,
        0.04920211806893349,
        0.041035812348127365,
        0.02125568874180317,
        -1.6441855430603027,
        -9.389575958251953,
        -11.752645492553711,
        -0.39051324129104614,
        1.2147531509399414,
        -0.047721005976200104,
        0.2535648047924042,
        -3.6812119483947754,
        -0.3178698420524597,
        -0.7042761445045471,
        0.09952643513679504,
        0.2848033010959625,
        0.013697754591703415,
        2.200277090072632,
        0.002084901090711355,
        -0.020332960411906242,
        0.05831470340490341,
        -0.06676659733057022,
        -0.015595282427966595,
        -0.01187667902559042,
        0.06054045259952545,
        -0.005190154537558556,
        0.011094977147877216,
        20.303213119506836,
        16.294553756713867,
        -9.844301223754883,
        -0.2932630479335785,
        0.021226556971669197,
        0.10243270546197891,
        -0.8130486607551575,
        -0.403751403093338,
        -0.2260221242904663,
        0.002932155504822731,
        0.20664866268634796,
        0.04833253473043442,
        -0.04963768646121025,
        0.01722407527267933,
        0.25066858530044556,
        0.08317863941192627,
        -0.3972478210926056,
        0.15149472653865814,
        -0.005382348783314228,
        -0.13488994538784027,
        0.023501167073845863,
        -15.41270923614502,
        3.080615520477295,
        1.8234367370605469,
        -3.161175489425659,
        0.3542661666870117,
        0.02139982581138611,
        -0.7156622409820557,
        0.509425163269043,
        0.07186183333396912,
        0.06429082900285721,
        0.12008366733789444,
        0.1520303636789322,
        0.2295593023300171,
        -1.103114128112793,
        0.007509245537221432,
        -5.225015163421631,
        -0.2516103982925415,
        0.619111955165863,
        0.13589242100715637,
        0.022582270205020905,
        0.29016488790512085,
        0.2918442487716675,
        -0.0076751746237277985,
        4.015777587890625,
        2.5293805599212646,
        -0.5814118385314941,
        1.5013257265090942,
        0.03848756477236748,
        -0.12050678580999374,
        -1.916685700416565,
        0.6204730272293091,
        0.45462897419929504,
        -0.012664095498621464,
        -0.08336181938648224,
        -0.04839279130101204,
        -0.18434840440750122,
        0.010997935198247433,
        0.016759295016527176,
        1.1246041059494019,
        0.8718921542167664,
        -0.06248108297586441,
        0.058168310672044754,
        -0.004740155767649412,
        -0.011742686852812767,
        -0.018042614683508873,
        4.677646636962891,
        4.501843452453613,
        -1.6296250820159912,
        -3.9444172382354736,
        -0.01791066862642765,
        -0.06900694221258163,
        0.47824913263320923,
        -0.9524741768836975,
        0.1497741937637329,
        -0.443421870470047,
        0.3714764714241028,
        0.06031780689954758,
        0.8449006080627441,
        -0.4304525554180145,
        0.013162055052816868,
        0.36937016248703003,
        0.9015287160873413,
        -0.36735790967941284,
        0.00736897112801671,
        0.41340887546539307,
        -0.01929713785648346,
        -0.00991943571716547,
        4.038540840148926,
        3.908111810684204,
        -1.7082202434539795,
        -0.2604871690273285,
        0.008169004693627357,
        -0.975527286529541,
        -0.042661428451538086,
        0.22163395583629608,
        -1.1584792137145996,
        0.21441437304019928,
        1.0039610862731934,
        -0.1452646404504776,
        0.5001966953277588,
        -0.010696657933294773,
        -0.6781112551689148,
        1.5586309432983398,
        0.9277642965316772,
        0.01764817349612713,
        -0.05745598301291466,
        0.04339226707816124,
        0.0817994624376297,
        -4.069614410400391,
        -10.083269119262695,
        -10.414041519165039,
        -0.9877142310142517,
        -0.7308042049407959,
        -1.346409559249878,
        0.09103227406740189,
        -1.159214973449707,
        -0.5030983686447144,
        -0.1657518893480301,
        -0.09958916902542114,
        0.7592301964759827,
        -0.16345451772212982,
        0.8431605100631714,
        -0.023735495284199715,
        0.12295559048652649,
        1.0848884582519531,
        1.0471603870391846,
        -0.06159857288002968,
        0.02715139463543892,
        -0.09550918638706207,
        -0.28287944197654724,
        -7.760934352874756,
        3.549494504928589,
        0.2499627321958542,
        -1.1612358093261719,
        0.6090433597564697,
        -0.05058259889483452,
        0.11055739223957062,
        -0.20805230736732483,
        0.40294280648231506,
        -1.9354021549224854,
        0.11234423518180847,
        -1.514198660850525,
        -0.02847868762910366,
        -1.1932674646377563,
        -0.6933620572090149,
        0.07757429033517838,
        0.13659121096134186,
        -0.08232706040143967,
        -0.17734527587890625,
        -0.013622835278511047,
        0.10683191567659378,
        0.013807114213705063,
        -0.012120915576815605,
        -9.209027290344238,
        -6.226433277130127,
        1.9429367780685425,
        -0.4688921570777893,
        -0.34113577008247375,
        -0.11843059211969376,
        -0.7921193242073059,
        0.1593395173549652,
        -0.395015686750412,
        0.2982441782951355,
        0.16854633390903473,
        0.48385077714920044,
        0.5529652237892151,
        0.012595951557159424,
        -0.05907253548502922,
        -2.6580405235290527,
        -0.5711228251457214,
        -0.13006263971328735,
        -0.10377749800682068,
        0.08448880165815353,
        0.022846443578600883,
        0.0013732810039073229,
        -2.752089738845825,
        -5.673611640930176,
        0.2991088330745697,
        -0.0970323458313942,
        0.00039211128023453057,
        -0.182158425450325,
        -0.04722318425774574,
        -0.5682286024093628,
        0.08488303422927856,
        -0.7246123552322388,
        -0.4495670199394226,
        -0.4979027211666107,
        -0.4535296857357025,
        0.0008134178933687508,
        -0.6550008058547974,
        -0.877020001411438,
        -0.12901164591312408,
        0.09063311666250229,
        0.29774734377861023,
        -0.07970867305994034,
        0.12249068170785904,
        -0.38319239020347595,
        -3.5878303050994873,
        -8.034637451171875,
        -2.154428005218506,
        0.028655273839831352,
        0.05791349336504936,
        0.7964508533477783,
        1.9728204011917114,
        0.10349981486797333,
        -3.063655138015747,
        -0.1056421771645546,
        -3.625880241394043,
        -0.28171050548553467,
        1.9896810054779053,
        -0.3255898356437683,
        -0.017571598291397095,
        2.444821357727051,
        -0.3517096936702728,
        -0.15313734114170074,
        0.027345791459083557,
        0.1069038137793541,
        -0.016023429110646248,
        -0.03213125094771385,
        13.324625015258789,
        6.904296875,
        -8.40730094909668,
        0.1164596825838089,
        -0.0013118404895067215,
        0.18029096722602844,
        -0.2033180594444275,
        -0.4116074740886688,
        -0.20840246975421906,
        -0.5720928311347961,
        -0.01157974824309349,
        -0.1417279988527298,
        0.1777224987745285,
        -0.00229115248657763,
        -2.8520641326904297,
        0.22418735921382904,
        -0.28165435791015625,
        0.15613707900047302,
        0.01354534737765789,
        -0.05541649088263512,
        -0.05847883224487305,
        -17.50116539001465,
        -9.877542495727539,
        -11.76353645324707,
        0.06591368466615677,
        1.0323978662490845,
        0.08722279220819473,
        0.2155809849500656,
        0.1317043900489807,
        -0.5728277564048767,
        -0.17008110880851746,
        -0.5125331878662109,
        -0.01385861448943615,
        -0.09227490425109863,
        0.326433926820755,
        0.3021073043346405,
        0.35423997044563293,
        1.7784109115600586,
        1.346704125404358,
        -0.12861338257789612,
        0.07984276115894318,
        0.06389383971691132,
        -0.008154984563589096,
        -7.179624557495117,
        -1.737393856048584,
        -3.306048631668091,
        -3.1316728591918945,
        0.3496798574924469,
        -0.011685185134410858,
        -0.6095334887504578,
        -1.2498093843460083,
        -0.28575122356414795,
        -0.728226900100708,
        -0.3080143332481384,
        -0.47370341420173645,
        -0.2699148654937744,
        -1.6599010229110718,
        -0.0020123207941651344,
        -0.127271831035614,
        -0.4126168489456177,
        1.120061993598938,
        0.06103193759918213,
        0.03724907711148262,
        -0.12274054437875748,
        0.013011193834245205,
        -6.861426830291748,
        -1.458808183670044,
        5.804924011230469,
        1.3390048742294312,
        -1.8878445625305176,
        -0.00983390398323536,
        0.20782430469989777,
        0.47078800201416016,
        -0.39070412516593933,
        0.5435318946838379,
        0.47302141785621643,
        -0.927894651889801,
        -0.5923484563827515,
        -0.23153841495513916,
        0.0011735586449503899,
        -1.2749701738357544,
        -0.03785170242190361,
        -0.0516044907271862,
        -0.030580857768654823,
        -0.031208163127303123,
        -0.00948768388479948,
        0.03123054839670658,
        0.02289712242782116,
        4.337991714477539,
        1.0399986505508423,
        1.2636905908584595,
        1.0845125913619995,
        0.3159581124782562,
        0.25108054280281067,
        0.40818309783935547,
        -0.5778813362121582,
        -0.1571459174156189,
        0.16518422961235046,
        0.14199331402778625,
        0.011675629764795303,
        -0.8533468842506409,
        -0.03489621356129646,
        -2.662540912628174,
        -0.3074263334274292,
        1.1858854293823242,
        -0.14574995636940002,
        0.4263612627983093,
        0.045686498284339905,
        -0.17374087870121002,
        -4.470681190490723,
        1.6303441524505615,
        1.054836630821228,
        0.5805152058601379,
        0.35511964559555054,
        0.034740835428237915,
        0.2061026394367218,
        1.3854299783706665,
        0.010251405648887157,
        -0.3235093057155609,
        0.009077879600226879,
        -0.6336885094642639,
        -0.04378076270222664,
        0.2958495318889618,
        0.011365058831870556,
        -0.08305730670690536,
        1.6046724319458008,
        -0.7001009583473206,
        0.10703510791063309,
        0.03718544542789459,
        -0.21297620236873627,
        -0.10000776499509811,
        -0.9008657932281494,
        -5.754784107208252,
        -9.282781600952148,
        -0.9829071164131165,
        0.045378316193819046,
        0.021897662431001663,
        -0.03452605754137039,
        0.9532408118247986,
        -0.016155647113919258,
        0.07644827663898468,
        0.34069085121154785,
        0.2419140338897705,
        -0.12552925944328308,
        0.5362699031829834,
        -0.014399086125195026,
        -0.1502629965543747,
        -0.0921902135014534,
        0.18686538934707642,
        0.2495621293783188,
        -0.01600375957787037,
        0.17546960711479187,
        0.04924766719341278,
        -0.5870744585990906,
        -3.424867868423462,
        -4.672663688659668,
        -4.634471893310547,
        -3.2141644954681396,
        -0.14255188405513763,
        0.26958587765693665,
        0.22666262090206146,
        0.9547910094261169,
        -2.0459864139556885,
        0.3224183917045593,
        0.7959935665130615,
        -0.8744529485702515,
        -2.0264499187469482,
        -0.41004690527915955,
        0.13211795687675476,
        -0.10611677914857864,
        0.10444072633981705,
        0.009717656299471855,
        0.014150106348097324,
        0.022587532177567482,
        -0.04977620765566826,
        -0.02817637473344803,
        4.125265598297119,
        6.868325710296631,
        -1.3514223098754883,
        0.7661500573158264,
        0.044335685670375824,
        -1.7838515043258667,
        -0.1848234236240387,
        1.0433188676834106,
        1.454857587814331,
        1.0362483263015747,
        0.21531178057193756,
        -2.057343006134033,
        1.8025790452957153,
        0.0178923811763525,
        0.1220497265458107,
        -0.21415826678276062,
        0.38805004954338074,
        -0.33411815762519836,
        -0.035399556159973145,
        -0.47551068663597107,
        0.0608225055038929,
        -0.43063417077064514,
        -11.147931098937988,
        -9.755417823791504,
        0.14508724212646484,
        -1.160213828086853,
        -0.6671745181083679,
        -0.4337864816188812,
        -1.2447819709777832,
        0.24585595726966858,
        0.49234896898269653,
        0.0070925625041127205,
        -0.6144036650657654,
        0.6435936093330383,
        0.06975594162940979,
        0.0044827875681221485,
        -0.09082240611314774,
        -2.9837725162506104,
        -0.46231791377067566,
        -0.030852599069476128,
        -0.06422223895788193,
        0.03251679241657257,
        0.030441563576459885,
        0.014220520853996277,
        -4.9045186042785645,
        -10.49634838104248,
        -0.0709151104092598,
        -0.26013854146003723,
        -0.004006862174719572,
        0.20009444653987885,
        -0.5936731100082397,
        -0.44399839639663696,
        -0.08013132959604263,
        -0.10711544752120972,
        0.09455084800720215,
        -0.287645548582077,
        0.8301478624343872,
        -0.004185476806014776,
        -0.604231595993042,
        0.043571870774030685,
        -0.013296928256750107,
        -0.25073468685150146,
        0.014943432062864304,
        -0.018523050472140312,
        0.01686265878379345,
        -0.023890811949968338,
        -8.046802520751953,
        -9.250205039978027,
        1.2792699337005615,
        -0.1020612120628357,
        -0.02166151814162731,
        0.10291466861963272,
        -0.33696290850639343,
        0.16890594363212585,
        -0.0537695549428463,
        -0.23238623142242432,
        -0.007841271348297596,
        -0.2447727471590042,
        0.5259211659431458,
        0.20790432393550873,
        -3.313007116317749,
        -1.9492470026016235,
        -2.174429178237915,
        0.3679890036582947,
        -0.058240003883838654,
        0.49337348341941833,
        -0.06232025846838951,
        0.024248754605650902,
        3.4144091606140137,
        0.5225748419761658,
        0.1490551233291626,
        0.19646428525447845,
        -6.010138988494873,
        -2.569591760635376,
        -0.03775014728307724,
        -6.8917107582092285,
        1.0404102802276611,
        -7.304666996002197,
        -2.1143360137939453,
        -1.2881243228912354,
        -0.0642557442188263,
        -1.3972808122634888,
        -1.3930543661117554,
        1.0123211145401,
        -0.9839194416999817,
        -0.11596425622701645,
        0.08007393777370453,
        -0.018523486331105232,
        0.05283329263329506,
        -0.3894820213317871,
        2.3499984741210938,
        1.2233150005340576,
        -2.3013362884521484,
        1.4285624027252197,
        -1.0862239599227905,
        -0.040050193667411804,
        1.330007791519165,
        0.06344933062791824,
        0.2922375202178955,
        0.3598605990409851,
        -0.15533465147018433,
        0.11470161378383636,
        -1.5237611532211304,
        0.0028471876867115498,
        -0.14131048321723938,
        0.02121274545788765,
        -0.09654293954372406,
        -0.06187864765524864,
        0.01879863440990448,
        0.011587901040911674,
        0.00278444099240005,
        -0.0005487826419994235,
        8.234379768371582,
        7.55570650100708,
        0.6435762643814087,
        0.13399825990200043,
        0.026832588016986847,
        -0.08502783626317978,
        1.2515065670013428,
        1.6942262649536133,
        -0.11779877543449402,
        -0.9054253101348877,
        -0.2857097387313843,
        -1.8084361553192139,
        -0.542206346988678,
        0.004801814444363117,
        0.004458190873265266,
        0.025398071855306625,
        -0.03916515037417412,
        0.1967748999595642,
        -0.007818934507668018,
        -0.14257746934890747,
        -0.00861511379480362,
        -0.1474825143814087,
        -6.360630989074707,
        -4.595900058746338,
        1.491761326789856,
        -2.857142210006714,
        0.007518658880144358,
        -0.028620386496186256,
        0.1715915948152542,
        0.8676698207855225,
        0.7703669667243958,
        -0.6201056838035583,
        0.008670194074511528,
        -0.12931768596172333,
        0.9292734861373901,
        0.0018267780542373657,
        -4.924721717834473,
        0.126758873462677,
        -0.26131075620651245,
        0.04954174906015396,
        0.002747076330706477,
        0.005152896512299776,
        0.015967553481459618,
        0.07490165531635284,
        4.2844696044921875,
        1.9913980960845947,
        1.6199431419372559,
        1.1438226699829102,
        0.05095319077372551,
        -0.571536660194397,
        -0.47774672508239746,
        0.19589994847774506,
        -0.30893099308013916,
        0.36820799112319946,
        1.433556318283081,
        -0.3065909445285797,
        0.09795831143856049,
        0.007294402923434973,
        0.024278076365590096,
        -0.13407652080059052,
        0.25293171405792236,
        -0.0357617624104023,
        0.0025139395147562027,
        0.03647126629948616,
        -0.006130091845989227,
        -0.3231595754623413,
        6.546082019805908,
        3.5237538814544678,
        -9.038471221923828,
        1.5848828554153442,
        -0.02291797287762165,
        -0.03974608704447746,
        0.41557738184928894,
        -0.7691497802734375,
        -0.3219216465950012,
        -0.304273396730423,
        0.3509058356285095,
        1.11835777759552,
        -0.4778079092502594,
        -0.0036595063284039497,
        -1.7348397970199585,
        0.1979086697101593,
        -0.26660454273223877,
        -0.09153725951910019,
        0.03221356123685837,
        0.09178569912910461,
        -0.025932904332876205,
        0.010873774997889996,
        6.719128131866455,
        8.791479110717773,
        -1.1808247566223145,
        -0.0015855490928515792,
        -0.20220088958740234,
        0.13250423967838287,
        -0.25629737973213196,
        0.09188135713338852,
        -0.2737230956554413,
        -0.20276406407356262,
        0.4499666392803192,
        -0.3948056995868683,
        0.40987628698349,
        -0.002845480339601636,
        0.10265832394361496,
        -0.04229169338941574,
        0.05197577923536301,
        -0.0006379415281116962,
        0.00569400517269969,
        0.006922618951648474,
        -0.016541166231036186,
        -18.07889175415039,
        -15.370587348937988,
        -13.83655071258545,
        0.48312249779701233,
        0.18751740455627441,
        0.027024751529097557,
        -0.23592258989810944,
        -0.0075779748149216175,
        0.34767526388168335,
        0.47674575448036194,
        0.1968659907579422,
        -0.021145742386579514,
        -0.07931158691644669,
        0.005742579698562622,
        0.004438668489456177,
        -0.3823741674423218,
        -0.5742909908294678,
        0.5511775016784668,
        0.00694773904979229,
        0.646785318851471,
        0.026704253628849983,
        -0.20181873440742493,
        -0.46847081184387207,
        -14.758951187133789,
        -9.856938362121582,
        -0.37435221672058105,
        -1.1778478622436523,
        -0.16935820877552032,
        0.09869979321956635,
        -0.16879642009735107,
        -0.03136075288057327,
        -0.14982375502586365,
        -0.7540706992149353,
        -0.29268792271614075,
        -0.4217308759689331,
        -2.305466651916504,
        0.008353695273399353,
        0.12870115041732788,
        0.36962106823921204,
        0.1426764726638794,
        0.0563887394964695,
        0.026079682633280754,
        -0.019982846453785896,
        -0.02554319240152836,
        -0.12721088528633118,
        4.428159236907959,
        3.315542221069336,
        -18.5203914642334,
        -2.290069341659546,
        0.025380589067935944,
        -0.280294805765152,
        0.16996821761131287,
        -0.10227155685424805,
        0.10957498103380203,
        -0.11887108534574509,
        0.23861540853977203,
        0.08230382204055786,
        0.08375342190265656,
        -0.0013189465971663594,
        0.17800909280776978,
        -0.012827728874981403,
        -0.017825961112976074,
        0.12862904369831085,
        0.0068426597863435745,
        -0.18873754143714905,
        -0.009073526598513126,
        -0.8328478336334229,
        -8.152581214904785,
        -3.4441912174224854,
        1.3047142028808594,
        -0.06167815253138542,
        0.012393553741276264,
        -0.6736595034599304,
        0.11729183048009872,
        1.0125179290771484,
        0.8603343367576599,
        0.10564132034778595,
        -0.0026942016556859016,
        -0.04601582512259483,
        0.13383112847805023,
        0.008448159322142601,
        0.06269505620002747,
        -0.10291959345340729,
        0.21957093477249146,
        0.1277349442243576,
        -0.008036429062485695,
        0.04777632653713226,
        0.002825000789016485,
        -0.024677786976099014,
        0.7196623682975769,
        0.08013851940631866,
        -8.275063514709473,
        -4.642367839813232,
        -0.6487005352973938,
        -0.756542444229126,
        0.05724940076470375,
        -0.5887805223464966,
        0.5477009415626526,
        -0.5050743818283081,
        -0.024928169324994087,
        0.19893820583820343,
        0.018334928900003433,
        0.2242947220802307,
        -6.986961364746094,
        -3.1823225021362305,
        -2.434638738632202,
        0.6284515261650085,
        -0.09573205560445786,
        0.5251203775405884,
        0.08801858872175217,
        -0.259095698595047,
        0.2878880798816681,
        -0.11118622124195099,
        0.7613819241523743,
        0.3599094748497009,
        -2.390995740890503,
        -0.9433389902114868,
        -6.510256767272949,
        -3.755429744720459,
        -10.476107597351074,
        -3.776848554611206,
        -11.409273147583008,
        -8.780659675598145,
        -7.491355895996094,
        -11.103033065795898,
        -0.9123173356056213,
        -0.26348820328712463,
        0.4613499641418457,
        -0.0024308552965521812,
        -0.019212564453482628,
        -0.03138212114572525,
        0.031173385679721832,
        -6.146524906158447,
        6.419466495513916,
        8.304117202758789,
        -1.004025936126709,
        0.16078682243824005,
        0.01311605516821146,
        -0.3670181334018707,
        0.8771020174026489,
        -0.6284494400024414,
        1.1952404975891113,
        0.4272017180919647,
        -0.17659983038902283,
        -0.7603034973144531,
        -1.1609421968460083,
        -0.0013414057902991772,
        -0.011721746996045113,
        0.05232341215014458,
        -0.08775877952575684,
        -0.1622983068227768,
        -0.001239887671545148,
        0.1060892641544342,
        -0.056279364973306656,
        0.06747696548700333,
        16.03434944152832,
        14.909372329711914,
        -11.211403846740723,
        0.3770909905433655,
        0.03527616336941719,
        -0.37924468517303467,
        -0.6423751711845398,
        0.7493851184844971,
        0.4132576286792755,
        -0.180376797914505,
        0.25780752301216125,
        -0.2910184860229492,
        0.4827011823654175,
        0.0008735294686630368,
        0.15432792901992798,
        0.9193021655082703,
        -0.9426636695861816,
        -0.03187398612499237,
        -0.03516443446278572,
        -0.001128675532527268,
        0.14967700839042664,
        -10.60305404663086,
        -8.230474472045898,
        -7.401953220367432,
        0.46569374203681946,
        0.43406158685684204,
        -0.49924585223197937,
        -0.18665342032909393,
        1.3972969055175781,
        0.5432602167129517,
        0.3872884213924408,
        -0.20027253031730652,
        -0.288057416677475,
        0.021665433421730995,
        -0.8403663635253906,
        0.0054497187957167625,
        -0.0843021348118782,
        0.16022586822509766,
        0.05292532220482826,
        0.010182230733335018,
        0.4080512821674347,
        -0.013206764124333858,
        0.560039758682251,
        0.03743618354201317,
        4.414941787719727,
        2.022022247314453,
        0.8923873901367188,
        0.1315871626138687,
        0.158615842461586,
        1.5225681066513062,
        -9.431783676147461,
        -42.77545928955078,
        -0.16129539906978607,
        -42.719215393066406,
        -1.7364964485168457,
        -8.81208610534668,
        -8.868103981018066,
        -7.968054294586182,
        0.11279331147670746,
        0.10290991514921188,
        -0.16388657689094543,
        0.09663742035627365,
        -0.03733246028423309,
        -0.16508102416992188,
        0.06348620355129242,
        -0.6180998086929321,
        -7.787655830383301,
        -4.248204231262207,
        -0.23963496088981628,
        -1.9560471773147583,
        -3.303557872772217,
        0.03339981287717819,
        -0.2561291456222534,
        0.3983400762081146,
        0.3794149160385132,
        -0.4819214642047882,
        0.009776166640222073,
        0.11244244128465652,
        -0.17409780621528625,
        -0.07032409310340881,
        0.14002421498298645,
        0.3143623471260071,
        -1.2234058380126953,
        0.25816619396209717,
        -0.0676681324839592,
        -0.13871070742607117,
        0.037226028740406036,
        -0.1147160604596138,
        -3.646453380584717,
        -2.116142511367798,
        0.597444474697113,
        -1.4521650075912476,
        -0.022957319393754005,
        0.003950773738324642,
        1.2111653089523315,
        -0.0006120977341197431,
        -5.2521994803100824e-05,
        0.21373632550239563,
        -0.38784146308898926,
        -0.24903279542922974,
        -2.6460742950439453,
        -0.03981737419962883,
        -1.6664210557937622,
        -0.13497044146060944,
        0.17550945281982422,
        -0.6630293726921082,
        0.0011039659148082137,
        -0.7668177485466003,
        0.12927882373332977,
        -0.07447730004787445,
        -1.6402524709701538,
        -2.2501604557037354,
        1.299492597579956,
        -2.458249807357788,
        -0.017108267173171043,
        -0.16767440736293793,
        0.6837046146392822,
        0.17004390060901642,
        -0.13578833639621735,
        0.28376156091690063,
        0.20366425812244415,
        0.1494145393371582,
        -1.001524806022644,
        -0.09306205809116364,
        0.0526033453643322,
        -0.0370103120803833,
        0.1367236077785492,
        -0.20090797543525696,
        -0.025318164378404617,
        0.06451772153377533,
        0.03416401147842407,
        -0.02302800863981247,
        -3.272791862487793,
        -1.5928380489349365,
        0.9425974488258362,
        -1.0708863735198975,
        0.0579942911863327,
        -0.2755199670791626,
        -4.564731121063232,
        0.5516855716705322,
        -1.6600412130355835,
        0.735598623752594,
        0.10448979586362839,
        0.36258918046951294,
        -4.965555667877197,
        -0.7900874018669128,
        0.10650662332773209,
        0.09935295581817627,
        -0.11485282331705093,
        0.03659045323729515,
        -0.011586335487663746,
        -0.07458136975765228,
        0.039530083537101746,
        -3.98484206199646,
        -5.258538246154785,
        0.7977035641670227,
        1.2337886095046997,
        -0.5045779347419739,
        0.002022242872044444,
        -0.05175361409783363,
        0.6589738726615906,
        -0.7169303297996521,
        0.44892534613609314,
        -0.6329763531684875,
        -1.1286555528640747,
        0.9529815912246704,
        0.15174701809883118,
        -0.031587399542331696,
        0.11252333968877792,
        -0.16237042844295502,
        0.1409461349248886,
        0.026592351496219635,
        0.00826211180537939,
        -0.017886800691485405,
        -0.01699191704392433,
        -1.4769304990768433,
        -0.6778887510299683,
        -4.022164344787598,
        -1.6163355112075806,
        1.240726113319397,
        -1.6570241451263428,
        0.49785929918289185,
        -0.7247114181518555,
        -0.8305034041404724,
        -0.4313410818576813,
        -0.2101331502199173,
        -0.5834674835205078,
        0.41019269824028015,
        1.3764716386795044,
        -0.008554991334676743,
        0.0025436491705477238,
        -0.04447968304157257,
        -0.05739455297589302,
        0.04509104788303375,
        0.05829036608338356,
        -0.01527982298284769,
        -0.07497753202915192,
        -1.314932107925415,
        -3.962113618850708,
        -0.40925952792167664,
        -1.81559419631958,
        0.47169235348701477,
        0.03483721613883972,
        0.581637978553772,
        0.1957591474056244,
        -0.17563128471374512,
        -0.16508659720420837,
        0.9747655391693115,
        0.24170592427253723,
        -1.7628161907196045,
        1.2959274053573608,
        -0.015330012887716293,
        0.012646551243960857,
        -0.2058267593383789,
        0.19656814634799957,
        -0.012874412350356579,
        0.005626735743135214,
        -0.015396109782159328,
        -0.015313571318984032,
        0.04556223377585411,
        -0.572372555732727,
        -1.5435678958892822,
        1.3400095701217651,
        0.06478925794363022,
        0.0919959619641304,
        -0.6826394200325012,
        -0.7196003198623657,
        -4.874797821044922,
        -0.7355436682701111,
        -3.8202571868896484,
        0.3869210481643677,
        0.4823879301548004,
        -2.332780361175537,
        0.8431010842323303,
        -0.6224046349525452,
        -2.0487093925476074,
        -0.7999731302261353,
        -0.030688408762216568,
        0.011139042675495148,
        -0.05574557185173035,
        0.02331932820379734,
        -3.630861759185791,
        3.5826034545898438,
        -0.3954901099205017,
        -3.4647228717803955,
        -0.9224450588226318,
        -1.3425883054733276,
        0.010538700968027115,
        0.45306479930877686,
        -0.7478628158569336,
        0.0392768457531929,
        -0.4560317397117615,
        -0.23300176858901978,
        0.3319556415081024,
        -0.29951581358909607,
        -0.15158911049365997,
        -1.5616989135742188,
        0.3514295518398285,
        1.8939825296401978,
        0.026808420196175575,
        0.07760878652334213,
        0.0036532459780573845,
        -0.11815216392278671,
        0.0064253779128193855,
        9.968194961547852,
        7.89533805847168,
        -1.0113041400909424,
        -0.30752891302108765,
        -0.014813864603638649,
        0.10213755071163177,
        -0.6595311164855957,
        -0.36229485273361206,
        -0.3213633596897125,
        -0.1116938516497612,
        0.4029598832130432,
        -0.04690304026007652,
        0.5888115763664246,
        -0.008677287958562374,
        -0.6472581028938293,
        0.12591557204723358,
        -0.1329037994146347,
        0.005592526867985725,
        -0.005128277465701103,
        -0.17763261497020721,
        -0.03861590474843979,
        0.03783566132187843,
        7.044937610626221,
        4.48060417175293,
        0.5176165103912354,
        0.5823207497596741,
        0.17927998304367065,
        -0.6555513143539429,
        -1.4250719547271729,
        0.25811004638671875,
        -0.31708401441574097,
        0.1621922105550766,
        0.2257317155599594,
        -0.03862129896879196,
        -0.5753172636032104,
        0.020155908539891243,
        0.23864343762397766,
        -1.9707987308502197,
        -1.5008268356323242,
        -0.22977319359779358,
        -0.08435163646936417,
        0.15080943703651428,
        -0.029264777898788452,
        -3.6861467361450195,
        2.3486204147338867,
        -0.5723232626914978,
        -1.2199944257736206,
        0.12893304228782654,
        -0.011813678778707981,
        -0.5902657508850098,
        0.3401389718055725,
        -0.3979567587375641,
        -0.5414931774139404,
        -0.46956491470336914,
        0.12845741212368011,
        -0.38431069254875183,
        0.2742210626602173,
        0.0007910337299108505,
        -0.10639356076717377,
        1.6957459449768066,
        -0.3735288977622986,
        0.04665748029947281,
        0.16107586026191711,
        -0.02508263662457466,
        -0.2757839262485504,
        -0.39028772711753845,
        -6.238552093505859,
        -6.551281452178955,
        0.3784647583961487,
        0.4960229992866516,
        -0.007480449043214321,
        0.2746281325817108,
        0.8424190282821655,
        -0.3845100700855255,
        -0.09849009662866592,
        -0.31188303232192993,
        -0.29671844840049744,
        -0.5894478559494019,
        0.8089873194694519,
        0.12309310585260391,
        -0.5888298749923706,
        0.020953433588147163,
        -0.2290758639574051,
        0.0038617125246673822,
        -0.01916908286511898,
        -0.006400935351848602,
        0.007541939616203308,
        0.002848752774298191,
        3.2093563079833984,
        2.0722298622131348,
        4.369174957275391,
        0.5196189880371094,
        -0.31220942735671997,
        0.5548897981643677,
        1.1902776956558228,
        -0.5390331149101257,
        -0.7986044883728027,
        -0.10712973773479462,
        0.23942741751670837,
        -0.7653999924659729,
        0.15303705632686615,
        -0.07616261392831802,
        -0.027306539937853813,
        -0.13705812394618988,
        0.21977229416370392,
        -0.02287117950618267,
        -0.005170932970941067,
        -0.005477492231875658,
        -0.021570337936282158,
        0.06950925290584564,
        -12.705385208129883,
        -9.298710823059082,
        3.3746230602264404,
        0.3445143401622772,
        0.04352838918566704,
        0.2746284306049347,
        0.4299103021621704,
        0.3133784532546997,
        -0.7168391942977905,
        0.05855986475944519,
        0.05475069209933281,
        0.16156961023807526,
        0.16180220246315002,
        -0.06746912747621536,
        -0.015947651118040085,
        -1.9548215866088867,
        1.4775997400283813,
        -0.021043695509433746,
        0.0037856248673051596,
        0.04330124333500862,
        -0.011230984702706337,
        0.03989861160516739,
        0.7798370122909546,
        -5.2178168296813965,
        -5.191919803619385,
        0.05302879214286804,
        0.00026772162527777255,
        -0.020141147077083588,
        0.47882822155952454,
        0.08264636993408203,
        0.279327392578125,
        -0.16180893778800964,
        0.06202221289277077,
        0.0597127228975296,
        -0.49373123049736023,
        0.0008551081409677863,
        -0.8208281993865967,
        -0.1281079202890396,
        0.17751696705818176,
        0.03186003118753433,
        -0.09306403249502182,
        -0.008580973371863365,
        0.0806625485420227,
        -0.0006542031769640744,
        -2.170515537261963,
        -1.7605619430541992,
        -0.6792545318603516,
        -0.7495050430297852,
        -0.4050389230251312,
        -0.3415174186229706,
        0.3553076386451721,
        0.03746749833226204,
        -0.3132867217063904,
        0.16944706439971924,
        -0.2554272711277008,
        -0.42589071393013,
        -0.07873567938804626,
        -0.24957969784736633,
        0.021924328058958054,
        -0.011756998486816883,
        0.04122047871351242,
        0.09387084096670151,
        0.0091982027515769,
        -0.08788340538740158,
        -0.00821441039443016,
        0.0047913808375597,
        -9.28695011138916,
        -8.007851600646973,
        2.83613657951355,
        -1.7998652458190918,
        0.0314757376909256,
        -0.05308085307478905,
        -0.40666115283966064,
        0.4737434387207031,
        0.2120293825864792,
        0.24830861389636993,
        -0.12904612720012665,
        0.3075161576271057,
        -0.4200838506221771,
        -0.1870627999305725,
        -1.8100587129592896,
        0.11401882022619247,
        -0.3525320887565613,
        0.05614614486694336,
        -0.007653034292161465,
        0.006461914163082838,
        -0.23676155507564545,
        -0.6610084176063538,
        -7.071183681488037,
        -3.0673270225524902,
        0.6993589401245117,
        -4.719627380371094,
        0.003301832126453519,
        -0.43311914801597595,
        -0.6570204496383667,
        0.5579780340194702,
        0.9845948219299316,
        -0.33922383189201355,
        -0.3640081286430359,
        0.1789814531803131,
        -0.08766750246286392,
        0.004672028124332428,
        0.18408049643039703,
        0.09679427742958069,
        -0.1356264054775238,
        -0.017621364444494247,
        -0.0502140149474144,
        -0.028908899053931236,
        0.06352758407592773,
        -0.011803549714386463,
        -22.60108757019043,
        -25.835859298706055,
        0.018333852291107178,
        -0.05779246985912323,
        -0.05792994797229767,
        0.6690827012062073,
        0.5940806269645691,
        -1.1776973009109497,
        -0.3301568329334259,
        -0.7630853056907654,
        0.0274973027408123,
        -0.26870620250701904,
        1.1421945095062256,
        0.09635575860738754,
        -0.2370358258485794,
        -1.105297565460205,
        -0.4427187442779541,
        0.02334343083202839,
        -0.1164645403623581,
        -0.050082363188266754,
        -0.08018277585506439,
        0.08078587800264359,
        -10.727498054504395,
        -9.110281944274902,
        2.44809627532959,
        -0.9964482188224792,
        0.02576252445578575,
        -0.17327991127967834,
        -0.31695881485939026,
        0.5094012022018433,
        0.15663501620292664,
        0.005142026115208864,
        0.06451041251420975,
        -0.05958511307835579,
        0.3452421724796295,
        -0.0004587837029248476,
        0.0060199229046702385,
        0.03738369420170784,
        -0.048958536237478256,
        0.2993046045303345,
        -0.0010997650679200888,
        -0.19347265362739563,
        0.009958417154848576,
        0.03536750376224518,
        -3.567070722579956,
        -3.400054693222046,
        1.030026912689209,
        -0.7797935009002686,
        -0.08488471806049347,
        -0.3696015775203705,
        -1.0279079675674438,
        -0.0628817155957222,
        0.4586087763309479,
        -0.018521923571825027,
        -0.6621971130371094,
        0.011341789737343788,
        0.7966040968894958,
        0.17987653613090515,
        -0.24415099620819092,
        -0.24810101091861725,
        1.0249865055084229,
        0.32725435495376587,
        -0.10459344834089279,
        0.3684863746166229,
        0.11461009085178375,
        -0.07086402922868729,
        -7.019801139831543,
        -4.89456844329834,
        0.9743214845657349,
        -3.8310537338256836,
        -0.13858209550380707,
        -0.32371872663497925,
        1.7416940927505493,
        0.21209339797496796,
        0.43550905585289,
        -0.10965678095817566,
        -0.20727293193340302,
        0.1643194854259491,
        0.36208614706993103,
        -0.009387682192027569,
        -1.7342419624328613,
        -0.4173625409603119,
        -0.0005479251849465072,
        -0.04719240963459015,
        0.06631355732679367,
        0.08033072203397751,
        -0.09066271781921387,
        -0.27549025416374207,
        2.9355194568634033,
        -0.05958658084273338,
        -0.21757321059703827,
        0.16457512974739075,
        -0.04560290277004242,
        0.542797327041626,
        -3.388864040374756,
        -1.7065798044204712,
        -0.8167048096656799,
        -1.0917171239852905,
        0.5018818378448486,
        0.028925420716404915,
        -0.7210983633995056,
        0.18972066044807434,
        -1.7138813734054565,
        -0.17483872175216675,
        0.16066813468933105,
        -0.21136067807674408,
        -0.0026715414132922888,
        -0.5263080596923828,
        0.0439600795507431,
        0.008472833782434464,
        7.79170036315918,
        4.187000274658203,
        -10.80198860168457,
        -0.981404721736908,
        -0.10063548386096954,
        -1.3271960020065308,
        -9.61666488647461,
        0.34812963008880615,
        0.3044350743293762,
        0.35703736543655396,
        -0.5931277275085449,
        0.21758489310741425,
        -5.480305194854736,
        0.00992016214877367,
        -0.007754049729555845,
        -0.005145306698977947,
        -0.019655732437968254,
        -0.010238447226583958,
        -0.01905651018023491,
        0.02650246024131775,
        -0.046075742691755295,
        -0.07080978900194168,
        1.8024381399154663,
        -0.8044048547744751,
        1.1916288137435913,
        1.324112057685852,
        -0.014132408425211906,
        -1.0151654481887817,
        1.9641369581222534,
        -2.5994925498962402,
        -0.4517990052700043,
        -2.1350507736206055,
        0.004380183760076761,
        0.6224551796913147,
        0.9377188086509705,
        0.43599510192871094,
        -1.3185491561889648,
        0.08127898722887039,
        -0.2913890480995178,
        -0.13806073367595673,
        -0.1716708093881607,
        -0.07509102672338486,
        -0.23589183390140533,
        -0.0027051432989537716,
        4.299126625061035,
        3.3777825832366943,
        0.7291334271430969,
        0.015797587111592293,
        -0.027010740712285042,
        0.07712395489215851,
        -0.0016988100251182914,
        -2.3067877292633057,
        -0.24617613852024078,
        -0.11099286377429962,
        0.26330655813217163,
        0.4775274693965912,
        1.318585753440857,
        0.000625059416051954,
        0.0036609587259590626,
        0.01651424914598465,
        -0.1353216916322708,
        -0.09707177430391312,
        0.0022116221953183413,
        0.01634863018989563,
        0.029462076723575592,
        0.03346160799264908,
        -0.9917445778846741,
        -0.07056776434183121,
        2.306570529937744,
        -0.023456452414393425,
        -0.21889472007751465,
        -1.870086908340454,
        1.3866181373596191,
        0.014322401955723763,
        0.16386181116104126,
        0.01919887401163578,
        0.5752918720245361,
        0.6670113801956177,
        0.5166726112365723,
        0.004662984982132912,
        -0.8067871928215027,
        0.17235349118709564,
        -0.2523311674594879,
        -0.12336096167564392,
        -0.02000187523663044,
        0.35360968112945557,
        0.04103023558855057,
        0.013545108027756214,
        2.2717158794403076,
        -1.775599479675293,
        -13.775105476379395,
        -8.805611610412598,
        -0.032588303089141846,
        -0.6557117104530334,
        -1.1074203252792358,
        0.38229408860206604,
        0.3602927029132843,
        0.0408601313829422,
        0.4324226677417755,
        0.4213070571422577,
        0.10281235724687576,
        0.013285167515277863,
        -1.5966089963912964,
        1.7145622968673706,
        1.416919231414795,
        0.03815344721078873,
        0.057953350245952606,
        0.00946784671396017,
        -0.0416438952088356,
        -2.516106367111206,
        2.340073347091675,
        0.35895517468452454,
        -1.148634910583496,
        -2.091404914855957,
        -1.6878269910812378,
        -0.3513573408126831,
        -0.009870119392871857,
        -0.9436028003692627,
        -0.31574854254722595,
        -0.8081175088882446,
        -0.36902379989624023,
        -0.16734734177589417,
        0.5356274247169495,
        -0.1327877938747406,
        -3.7733547687530518,
        -0.00584771391004324,
        0.020827719941735268,
        -0.05633282661437988,
        0.0033709057606756687,
        0.08436945080757141,
        -0.03396998345851898,
        0.03784377500414848,
        9.088473320007324,
        6.134125232696533,
        -2.7417893409729004,
        -1.8880640268325806,
        0.012585069052875042,
        0.0075907339341938496,
        0.0322180911898613,
        0.10343057662248611,
        0.022154493257403374,
        0.2794383764266968,
        -0.29316702485084534,
        0.2667703926563263,
        -0.03181860223412514,
        -0.005466368980705738,
        -0.0019394919509068131,
        0.0148820411413908,
        -0.01513785868883133,
        0.14758533239364624,
        -0.0106038274243474,
        -0.16720573604106903,
        -0.01602385938167572,
        -0.015645509585738182,
        -8.826828956604004,
        -7.574244976043701,
        -0.13126185536384583,
        0.2892829179763794,
        0.0025975618045777082,
        -1.3137634992599487,
        -1.004539966583252,
        -0.9423266649246216,
        0.5117285847663879,
        -1.003085732460022,
        -0.30095362663269043,
        -1.094756841659546,
        -0.45684367418289185,
        0.5235006809234619,
        -0.06264705210924149,
        0.026824206113815308,
        -0.001425803522579372,
        0.04888208955526352,
        0.056188568472862244,
        -0.047540560364723206,
        -0.06155676767230034,
        -0.06467550247907639,
        0.13540902733802795,
        0.15034744143486023,
        -0.7888155579566956,
        -0.23306472599506378,
        -0.04742181673645973,
        -0.20665179193019867,
        0.102537140250206,
        -0.26979705691337585,
        -0.15238156914710999,
        -0.06630128622055054,
        -0.2555198669433594,
        0.01060007605701685,
        -0.07530475407838821,
        -0.18659162521362305,
        0.04527055099606514,
        -0.1256970763206482,
        0.23343035578727722,
        -0.12084832042455673,
        -0.015108362771570683,
        0.08924839645624161,
        0.01078629307448864,
        -0.08977340161800385,
        4.622690677642822,
        0.6204849481582642,
        0.3442680537700653,
        0.1388295590877533,
        -0.04519745707511902,
        0.647794783115387,
        0.4737752676010132,
        -1.1245818138122559,
        0.3406643271446228,
        0.9796857833862305,
        -0.9619864225387573,
        -0.7546024918556213,
        -0.14535915851593018,
        -0.007779002655297518,
        0.1315130740404129,
        0.014587667770683765,
        0.06013990566134453,
        0.03187475726008415,
        0.07356876134872437,
        0.07184652239084244,
        0.3202590048313141,
        -0.026983924210071564,
        -0.6926400661468506,
        0.3943452537059784,
        0.9818506240844727,
        -0.15427470207214355,
        0.008226959966123104,
        -5.764259338378906,
        0.1484275758266449,
        -2.9065182209014893,
        -2.065974235534668,
        -2.697913885116577,
        0.7386842370033264,
        -0.6953849196434021,
        2.3403782844543457,
        0.6599999070167542,
        -1.3150867223739624,
        -0.17099907994270325,
        0.15042604506015778,
        -0.6668261885643005,
        -0.023898432031273842,
        -0.6818504929542542,
        0.05006004124879837,
        -0.16544556617736816,
        -2.043185234069824,
        -3.945787191390991,
        -0.6968886256217957,
        0.47240185737609863,
        0.02478315681219101,
        0.7164815664291382,
        0.10420867800712585,
        0.2784777283668518,
        -0.30425825715065,
        -0.5854800939559937,
        -1.0450053215026855,
        -0.07606351375579834,
        -1.91802179813385,
        -0.770037055015564,
        -0.20277883112430573,
        -2.5323402881622314,
        -1.1694412231445312,
        0.04349026829004288,
        -0.03774099424481392,
        -0.029191233217716217,
        0.050942905247211456,
        -0.07128215581178665,
        0.4026598334312439,
        -7.652472019195557,
        -0.09434790164232254,
        -1.6872693300247192,
        -0.12179463356733322,
        0.18169733881950378,
        -0.05154205486178398,
        -0.5899083018302917,
        -0.06796132773160934,
        -1.0006136894226074,
        -0.028451351448893547,
        -0.1744711846113205,
        -0.3457004427909851,
        0.001003691228106618,
        0.016854820773005486,
        0.061964549124240875,
        -0.08132178336381912,
        0.08807289600372314,
        -0.014830389060080051,
        -0.03481901437044144,
        0.022970329970121384,
        -1.0872851610183716,
        -6.748968124389648,
        -4.952210426330566,
        1.2534340620040894,
        0.5275561809539795,
        0.032765377312898636,
        -0.6753684282302856,
        0.042905714362859726,
        0.9008258581161499,
        0.5258226990699768,
        0.1633434146642685,
        0.03811872750520706,
        0.2073378711938858,
        -0.1546901911497116,
        -0.37270835041999817,
        -1.8802012205123901,
        -1.9483722448349,
        -0.7910539507865906,
        -0.05630796030163765,
        0.07424286007881165,
        -0.0031702755950391293,
        0.014331810176372528,
        0.004211173392832279,
        -0.12545660138130188,
        -6.330944061279297,
        -0.7763065695762634,
        -1.3313417434692383,
        0.09700621664524078,
        0.0922686755657196,
        0.2582855224609375,
        -0.5436556339263916,
        0.1406325399875641,
        -0.27539387345314026,
        0.25926417112350464,
        -0.2876574993133545,
        0.8653353452682495,
        -0.005634640343487263,
        -1.7517460584640503,
        0.05142540857195854,
        -0.04985302686691284,
        0.055308304727077484,
        0.012939384207129478,
        0.05724382773041725,
        -0.05263672024011612,
        -0.05191662162542343,
        8.24235725402832,
        5.4838995933532715,
        2.0837793350219727,
        1.8673067092895508,
        0.10825971513986588,
        -0.4784005284309387,
        2.9370081424713135,
        -0.5063368082046509,
        0.17490336298942566,
        -0.5805196166038513,
        -2.1478874683380127,
        -0.49392950534820557,
        1.7404001951217651,
        0.3593050539493561,
        0.1383935660123825,
        0.10016191750764847,
        -0.4480644166469574,
        -0.015346244908869267,
        -0.05368172749876976,
        0.03899368271231651,
        -0.3631846606731415,
        -0.3290923237800598,
        2.06571364402771,
        0.8176903128623962,
        0.32754048705101013,
        0.3269317150115967,
        0.06001318618655205,
        1.8182896375656128,
        1.3538243770599365,
        -37.58076095581055,
        0.8557285666465759,
        -38.18976974487305,
        -1.242645502090454,
        -4.2309770584106445,
        -6.828171253204346,
        -5.826674461364746,
        0.18552903831005096,
        -0.07598650455474854,
        -0.025771362707018852,
        -0.2978307008743286,
        -0.054959818720817566,
        0.3007197380065918,
        0.06956227868795395,
        -0.08405359089374542,
        -1.941291332244873,
        -2.0744409561157227,
        -0.5082221031188965,
        0.4600078761577606,
        0.08947519958019257,
        0.7847144603729248,
        1.6449440717697144,
        -0.5415369272232056,
        -1.3918671607971191,
        0.37812161445617676,
        -1.4229662418365479,
        -0.17092399299144745,
        2.8353688716888428,
        -0.6570776104927063,
        -0.5040785670280457,
        -0.13211064040660858,
        -0.16810959577560425,
        -0.17932245135307312,
        -0.15887829661369324,
        -0.24111591279506683,
        0.10399242490530014,
        -0.005597062408924103,
        -0.9458918571472168,
        -1.6358762979507446,
        -2.1873559951782227,
        0.5383308529853821,
        -0.8135184645652771,
        -1.9815125465393066,
        1.2602852582931519,
        -0.24680057168006897,
        -0.3827979564666748,
        0.03763628751039505,
        -0.4366111755371094,
        -0.2333574891090393,
        -0.37769919633865356,
        0.012749169953167439,
        -0.4357525408267975,
        -0.7643400430679321,
        -0.9182490110397339,
        0.1318429410457611,
        -0.48256388306617737,
        -0.08705492317676544,
        0.25454652309417725,
        -1.9760658740997314,
        0.9558248519897461,
        2.42702317237854,
        -0.9995852112770081,
        0.31299924850463867,
        -0.3222833275794983,
        0.1356019675731659,
        0.807589590549469,
        -0.32167643308639526,
        -0.27805593609809875,
        -0.18965916335582733,
        -0.34122905135154724,
        -0.35549598932266235,
        -2.011229991912842,
        0.020777421072125435,
        -0.5804218649864197,
        -1.6794053316116333,
        -2.022557020187378,
        -0.3007012903690338,
        0.0005570935318246484,
        -0.3166451156139374,
        -0.026633713394403458,
        0.008303779177367687,
        2.0101592540740967,
        -0.54524827003479,
        -1.6094259023666382,
        -0.034246813505887985,
        -11.295405387878418,
        -0.11481761932373047,
        2.906743049621582,
        -4.329644680023193,
        1.0087220668792725,
        -4.048040866851807,
        -1.1945449113845825,
        -0.33077409863471985,
        -2.659547805786133,
        -1.5503160953521729,
        -4.61263370513916,
        -0.3452989161014557,
        0.4091458320617676,
        -0.025813987478613853,
        0.012568368576467037,
        0.11707942932844162,
        -0.015870777890086174,
        -0.06431511789560318,
        12.792447090148926,
        7.750914096832275,
        1.2745780944824219,
        0.9554350972175598,
        -0.5312318205833435,
        0.11504329741001129,
        0.6678891181945801,
        -0.5692906379699707,
        -0.15552423894405365,
        -0.28095120191574097,
        0.11416107416152954,
        0.5229398012161255,
        1.6249096393585205,
        0.0024035577662289143,
        0.00901074055582285,
        -0.1441752016544342,
        0.3042371869087219,
        0.2608887255191803,
        -0.01368658896535635,
        0.14688031375408173,
        0.030206313356757164,
        -0.018296653404831886,
        3.8074660301208496,
        2.4884579181671143,
        0.6383060812950134,
        0.2183825820684433,
        0.01973487064242363,
        0.9609876275062561,
        0.5528518557548523,
        0.30690479278564453,
        -2.774130344390869,
        -0.4401487112045288,
        -3.4126453399658203,
        0.06646683067083359,
        -0.18384529650211334,
        -0.04536314681172371,
        -1.645539402961731,
        0.20059828460216522,
        -0.2542288899421692,
        0.0517410971224308,
        0.18563348054885864,
        -0.09499390423297882,
        0.12748703360557556,
        0.011462400667369366,
        -5.557806968688965,
        -8.746697425842285,
        -1.5196807384490967,
        -1.4547429084777832,
        -0.07077188044786453,
        0.5511497259140015,
        2.9105443954467773,
        1.0931751728057861,
        -0.7868496179580688,
        -0.5109061598777771,
        -0.5343729257583618,
        -1.4602985382080078,
        -0.9506829977035522,
        0.11559652537107468,
        -2.8299803733825684,
