{
  "inputs": [
    {
      "name": "trk_pt",
      "offset": 0,
      "scale": 1
    },
    {
      "name": "trk_eta",
      "offset": 0,
      "scale": 1
    },
    {
      "name": "trk_lambda",
      "offset": 0,
      "scale": 1
    },
    {
      "name": "trk_dxy",
      "offset": 0,
      "scale": 1
    },
    {
      "name": "trk_dz",
      "offset": 0,
      "scale": 1
    },
    {
      "name": "trk_dxyClosestPV",
      "offset": 0,
      "scale": 1
    },
    {
      "name": "trk_dzClosestPVNorm",
      "offset": 0,
      "scale": 1
    },
    {
      "name": "trk_ptErr",
      "offset": 0,
      "scale": 1
    },
    {
      "name": "trk_etaErr",
      "offset": 0,
      "scale": 1
    },
    {
      "name": "trk_lambdaErr",
      "offset": 0,
      "scale": 1
    },
    {
      "name": "trk_dxyErr",
      "offset": 0,
      "scale": 1
    },
    {
      "name": "trk_dzErr",
      "offset": 0,
      "scale": 1
    },
    {
      "name": "trk_nChi2",
      "offset": 0,
      "scale": 1
    },
    {
      "name": "trk_ndof",
      "offset": 0,
      "scale": 1
    },
    {
      "name": "trk_nInvalid",
      "offset": 0,
      "scale": 1
    },
    {
      "name": "trk_nPixel",
      "offset": 0,
      "scale": 1
    },
    {
      "name": "trk_nStrip",
      "offset": 0,
      "scale": 1
    },
    {
      "name": "trk_nPixelLay",
      "offset": 0,
      "scale": 1
    },
    {
      "name": "trk_nStripLay",
      "offset": 0,
      "scale": 1
    },
    {
      "name": "trk_n3DLay",
      "offset": 0,
      "scale": 1
    },
    {
      "name": "trk_nLostLay",
      "offset": 0,
      "scale": 1
    },
    {
      "name": "trk_algo",
      "offset": 0,
      "scale": 1
    }
  ],
  "layers": [
    {
      "activation": "rectified",
      "architecture": "dense",
      "bias": [
        3.6185789108276367,
        -1.144458293914795,
        0.4429287612438202,
        2.9777536392211914,
        0.8673521876335144,
        2.1762828826904297,
        0.27188634872436523,
        -1.516351342201233,
        0.04711373895406723,
        -0.17248095571994781,
        0.7098950147628784,
        -5.453719615936279,
        -3.6957900524139404,
        -3.549044370651245,
        3.084773540496826,
        -0.29133179783821106,
        1.007444977760315,
        -1.1372654438018799,
        -0.6605465412139893,
        1.6325308084487915,
        0.6961888670921326,
        1.2962268590927124,
        -0.6276800632476807,
        -0.9423049688339233,
        1.423893928527832,
        1.0292582511901855,
        -0.8051487803459167,
        -4.545886039733887,
        -1.3754198551177979,
        -1.0523732900619507,
        -1.2848646640777588,
        -1.0744893550872803,
        -0.13204072415828705,
        1.240776777267456,
        3.2157270908355713,
        0.5755531191825867,
        -0.9093970060348511,
        -2.610474109649658,
        -1.9657044410705566,
        2.5915567874908447,
        -0.06027199700474739,
        0.9868482351303101,
        1.5967894792556763,
        0.5895590782165527,
        -1.7564884424209595,
        0.5888968110084534,
        1.1137363910675049,
        1.0667260885238647,
        -1.1591142416000366,
        -4.4968132972717285,
        -1.6686433553695679,
        0.5794053673744202,
        -1.98898446559906,
        -0.4745049774646759,
        0.2975876033306122,
        0.17948468029499054,
        1.3668181896209717,
        2.1026523113250732,
        0.9678115844726562,
        1.1607080698013306,
        -0.9334901571273804,
        -1.6550332307815552,
        -0.0019091306021437049,
        1.2467997074127197,
        -1.882002592086792,
        -0.028751255944371223,
        -0.7937746047973633,
        -3.738253355026245,
        -1.6242573261260986,
        0.024744000285863876,
        0.3125240206718445,
        3.852802038192749,
        -3.4784443378448486,
        0.7257857322692871,
        -0.949705958366394,
        3.5907065868377686,
        -1.1365587711334229,
        -2.7344565391540527,
        0.06689414381980896,
        1.3333938121795654,
        -0.008307978510856628,
        -0.15129093825817108,
        -0.5616764426231384,
        1.2652826309204102,
        0.574073851108551,
        -0.5012360215187073,
        2.1609816551208496,
        -2.2207319736480713,
        1.327460527420044,
        5.204403400421143,
        -0.8607257604598999,
        1.3178107738494873,
        -0.47008180618286133,
        -5.923069000244141,
        1.098681092262268,
        0.5939656496047974,
        1.736956238746643,
        -0.005801736377179623,
        0.37692829966545105,
        -1.8137491941452026,
        -0.03151796758174896,
        -0.02879650518298149,
        -0.8956462740898132,
        2.6486642360687256,
        -0.2831621766090393,
        2.6647844314575195,
        -2.1055352687835693,
        -0.900489866733551,
        -1.1641731262207031,
        -3.9190287590026855,
        0.6263805031776428,
        -1.1006860733032227,
        -1.4886571168899536,
        0.8422389626502991,
        -2.004070520401001,
        -1.035610556602478,
        0.3706950843334198,
        -2.1602389812469482,
        5.381779193878174,
        -3.535560369491577,
        -1.1399712562561035,
        3.8480491638183594,
        -0.846761167049408,
        -2.0778889656066895,
        0.9060774445533752,
        -0.09257196635007858,
        2.9645254611968994,
        2.5136325359344482,
        3.0077152252197266,
        -1.7200144529342651,
        3.6062421798706055,
        -1.889269471168518,
        -0.5825899243354797,
        -0.5087657570838928,
        -0.2854202091693878,
        2.0993518829345703,
        0.3314322531223297,
        -1.6780506372451782,
        -4.571443557739258,
        -4.383968353271484,
        -1.6586494445800781,
        -0.39339789748191833,
        2.7522947788238525,
        -4.738526821136475,
        0.6349320411682129,
        -1.1146466732025146,
        1.3722624778747559,
        -4.090346813201904,
        0.4317476451396942,
        -1.7889422178268433,
        -0.7698584794998169,
        -0.3040660321712494,
        -0.8098987936973572,
        -0.27376502752304077,
        -1.0471466779708862,
        -3.76092267036438,
        0.2545672059059143,
        0.5416361689567566,
        -0.4000008702278137,
        -0.7994234561920166,
        -2.472747564315796,
        -2.7696750164031982,
        -0.8169479966163635,
        0.006311274599283934,
        0.2103620022535324,
        1.5069876909255981,
        -3.310316324234009,
        1.5616700649261475,
        -1.621446132659912,
        0.472591370344162,
        0.018938250839710236,
        -1.1298588514328003,
        -2.176318645477295,
        -5.442491054534912,
        -2.1936731338500977,
        0.006378869991749525,
        -0.01429696287959814,
        0.7767722010612488,
        -1.6661746501922607,
        1.076518177986145,
        -2.1798903942108154,
        -1.946577548980713,
        1.5348128080368042,
        -1.1005805730819702,
        -1.5568530559539795,
        -3.9149270057678223,
        -0.600071132183075,
        1.8074893951416016,
        -2.879603624343872,
        -1.5957461595535278,
        4.093335151672363,
        0.03147400543093681,
        -2.8084046840667725,
        -1.4271982908248901,
        -1.621184229850769,
        -1.4475774765014648,
        -0.5042322874069214,
        0.06656235456466675,
        -1.3458741903305054,
        -0.9199036359786987,
        -3.1127772331237793,
        0.4233821928501129,
        0.37132424116134644,
        -1.0438957214355469,
        -1.529470682144165,
        -2.347745418548584,
        -0.739646315574646,
        0.014692984521389008,
        -0.24364107847213745,
        3.4866297245025635,
        -0.12788373231887817,
        -2.3626277446746826,
        0.8810928463935852,
        3.7572476863861084,
        -2.5461390018463135,
        -3.2492735385894775,
        -0.7216891050338745,
        -3.7145192623138428,
        1.2347861528396606,
        -0.9538536071777344,
        0.1733953356742859,
        -3.9842236042022705,
        1.1906094551086426,
        -2.7351884841918945,
        0.12893708050251007,
        -0.16371163725852966,
        3.916865825653076,
        0.9892181754112244,
        -1.0298380851745605,
        0.36270636320114136,
        -1.3232471942901611,
        -4.757226467132568,
        2.4688169956207275,
        0.45669126510620117,
        -1.3983891010284424,
        -1.256761908531189,
        -2.374154567718506,
        0.12666164338588715,
        -0.599159300327301,
        -2.6767542362213135,
        0.4498650133609772,
        1.3561513423919678,
        0.7584681510925293,
        -0.06028181314468384,
        -3.7136802673339844,
        -2.5117199420928955,
        1.4621390104293823,
        -1.4678261280059814,
        -2.06575345993042,
        -3.032848358154297,
        0.5507912039756775,
        -5.910599231719971,
        0.4621231257915497,
        2.068988561630249,
        -0.02450079284608364,
        1.3421441316604614
      ],
      "weights": [
        -0.026248183101415634,
        -0.2239452451467514,
        0.3299461007118225,
        0.6632867455482483,
        0.011093366891145706,
        -0.04359547421336174,
        -0.06106860935688019,
        -0.0058131651021540165,
        1.115496277809143,
        2.9175002574920654,
        1.5070388317108154,
        -0.3465861678123474,
        0.14653047919273376,
        -0.0744398683309555,
        0.6997813582420349,
        0.04761820659041405,
        -0.04692033305764198,
        1.3259692192077637,
        0.13493141531944275,
        0.6067394614219666,
        0.18023765087127686,
        -2.4501760005950928,
        -0.0874723419547081,
        -0.986268937587738,
        -0.5881263613700867,
        -0.1914740949869156,
        -0.32257047295570374,
        0.07789937406778336,
        -1.9089157581329346,
        -2.3670523166656494,
        -5.8814616203308105,
        -4.889186382293701,
        -0.746405839920044,
        0.8525320291519165,
        -0.07076368480920792,
        -0.5778928995132446,
        -1.4727553129196167,
        0.04258177429437637,
        0.2983604073524475,
        -0.048173967748880386,
        -1.4357126951217651,
        0.9206013083457947,
        0.2613712251186371,
        -0.004847004543989897,
        0.11405367404222488,
        -0.47563445568084717,
        1.2254502773284912,
        -1.187918782234192,
        0.11199142783880234,
        -0.8258804678916931,
        9.966970443725586,
        0.0006848929915577173,
        0.6105738878250122,
        3.425344228744507,
        0.34235748648643494,
        -1.9441686868667603,
        -0.6493034958839417,
        -0.8732910752296448,
        -6.503582000732422,
        0.3746218681335449,
        0.9838656783103943,
        -0.020570246502757072,
        -1.726207971572876,
        -0.37597164511680603,
        -3.7037620544433594,
        -0.030209451913833618,
        -2.3689653873443604,
        0.4920528531074524,
        1.1870672702789307,
        0.4641966223716736,
        -0.014794028364121914,
        -0.4493696391582489,
        -0.6341682076454163,
        0.10826695710420609,
        12.68539810180664,
        12.40219783782959,
        -3.3701529502868652,
        -5.430038928985596,
        0.12824752926826477,
        0.5574800372123718,
        0.22158753871917725,
        -0.9568422436714172,
        0.029446635395288467,
        0.11620065569877625,
        -0.19461800158023834,
        -0.5830340385437012,
        -0.07851232588291168,
        0.04562588408589363,
        -5.281559467315674,
        -0.24095748364925385,
        -1.3808729648590088,
        0.2078595906496048,
        -0.6895571351051331,
        -0.13483235239982605,
        -0.9719590544700623,
        -0.14162519574165344,
        8.975796699523926,
        6.168652534484863,
        2.5348939895629883,
        -0.6971229314804077,
        -0.06789994984865189,
        0.08354736864566803,
        0.6325415372848511,
        -1.4355921745300293,
        -0.2385561168193817,
        -0.3555760085582733,
        0.17668503522872925,
        0.2765880823135376,
        0.7945713400840759,
        -0.009476953186094761,
        -0.0037517650052905083,
        0.3083389103412628,
        1.0569360256195068,
        -0.02500567026436329,
        0.028241684660315514,
        0.2677566707134247,
        -0.5443724393844604,
        0.061663419008255005,
        8.317909240722656,
        2.5191540718078613,
        -22.175662994384766,
        -6.01582145690918,
        -0.13813365995883942,
        -0.548546552658081,
        -0.030139515176415443,
        1.022958517074585,
        0.48514437675476074,
        -0.4767797291278839,
        -0.16392460465431213,
        -0.04815007373690605,
        0.3403263986110687,
        -0.03708510100841522,
        0.2007153481245041,
        -1.0546584129333496,
        -2.2514290809631348,
        -0.08233767002820969,
        0.005872644484043121,
        -0.09803560376167297,
        2.0521597862243652,
        -2.7411882877349854,
        4.661182403564453,
        0.612561047077179,
        -6.809656620025635,
        -3.896544933319092,
        -0.01902739144861698,
        0.14749881625175476,
        0.4273259937763214,
        -0.7735480070114136,
        -0.05314135178923607,
        0.6440024375915527,
        -0.16068805754184723,
        0.11141353100538254,
        0.5472502708435059,
        -0.5411497950553894,
        0.14316079020500183,
        -2.056612014770508,
        2.684699058532715,
        -0.025869447737932205,
        0.011966744437813759,
        0.03682298585772514,
        -0.35957908630371094,
        -1.3392106294631958,
        -17.112096786499023,
        -22.75168800354004,
        2.1960813999176025,
        -0.7650644779205322,
        -0.5538878440856934,
        -0.2594785690307617,
        -0.7105040550231934,
        -0.0594511441886425,
        0.2266169786453247,
        -0.10731011629104614,
        0.27182286977767944,
        1.0855261087417603,
        0.5207804441452026,
        -0.16326956450939178,
        0.06281587481498718,
        -0.8214612007141113,
        1.3197674751281738,
        -0.5163288116455078,
        -0.007380259223282337,
        -0.22181472182273865,
        8.158979415893555,
        0.059087637811899185,
        -9.50833511352539,
        -5.426313877105713,
        6.468565940856934,
        0.3734152913093567,
        0.23507294058799744,
        -1.3835793733596802,
        -0.3882800042629242,
        0.44562506675720215,
        1.1509795188903809,
        0.31208696961402893,
        -0.38947609066963196,
        -0.08623082935810089,
        0.40588146448135376,
        0.017001109197735786,
        -0.24754203855991364,
        2.8210959434509277,
        1.1139148473739624,
        0.042139116674661636,
        0.5536641478538513,
        -0.1649344265460968,
        -1.2845691442489624,
        0.06194096803665161,
        5.94752311706543,
        5.1133131980896,
        0.8983359932899475,
        2.2317287921905518,
        0.017843658104538918,
        -0.6463013291358948,
        4.1283650398254395,
        0.8667895197868347,
        -0.6563355326652527,
        -0.49466586112976074,
        -1.1109771728515625,
        -0.6099292635917664,
        0.5043603777885437,
        -1.0532259941101074,
        0.05910727381706238,
        3.6095380783081055,
        1.928562045097351,
        0.13442794978618622,
        0.12666849792003632,
        -0.09415459632873535,
        -0.04987211525440216,
        -0.02051900140941143,
        -4.743885040283203,
        -8.432625770568848,
        3.3067197799682617,
        0.6535380482673645,
        0.04359741881489754,
        -1.416541337966919,
        -0.7844085097312927,
        -0.7692277431488037,
        -0.28266188502311707,
        -0.5670549869537354,
        0.8004664182662964,
        -0.7601826786994934,
        1.177844524383545,
        -0.01316334679722786,
        0.1776970475912094,
        1.2898200750350952,
        2.0068650245666504,
        0.7586360573768616,
        -0.05438865348696709,
        0.8057012557983398,
        1.472285509109497,
        -0.3335101902484894,
        -6.672946453094482,
        -5.0490498542785645,
        -3.025509834289551,
        0.16667906939983368,
        -11.750819206237793,
        1.7201573848724365,
        4.315690040588379,
        0.5816972255706787,
        -0.44748103618621826,
        -3.1116552352905273,
        -3.6107594966888428,
        -3.2666165828704834,
        -9.013201713562012,
        -4.744992256164551,
        0.08187233656644821,
        0.8810526132583618,
        -1.096841812133789,
        0.13167060911655426,
        0.00978116411715746,
        -0.09306309372186661,
        -1.1620205640792847,
        0.025815393775701523,
        -22.124900817871094,
        -26.971176147460938,
        0.6627850532531738,
        0.3197981119155884,
        0.037666480988264084,
        -0.12630072236061096,
        0.8973754644393921,
        -0.37124380469322205,
        0.36932137608528137,
        -0.1010316014289856,
        -0.3871194124221802,
        1.1064131259918213,
        -1.3433750867843628,
        0.05010586977005005,
        -0.0369342677295208,
        0.5754281282424927,
        -0.12970983982086182,
        0.20207563042640686,
        0.07784007489681244,
        -0.2199820727109909,
        0.07650623470544815,
        0.0317348875105381,
        -20.53230857849121,
        -20.09942626953125,
        2.637075424194336,
        0.9452092051506042,
        -0.017713500186800957,
        -0.18543407320976257,
        2.3119099140167236,
        0.6667367219924927,
        0.22437091171741486,
        0.05870859697461128,
        0.28541475534439087,
        0.12089372426271439,
        2.140042304992676,
        -0.005279626231640577,
        -3.4891295433044434,
        0.2519909143447876,
        -0.3579343557357788,
        -0.3082851469516754,
        0.009255574084818363,
        0.32885149121284485,
        -0.04501555114984512,
        -28.379854202270508,
        12.471113204956055,
        12.823423385620117,
        0.8420631885528564,
        -1.0420538187026978,
        -0.320426344871521,
        0.02643439918756485,
        -0.5036126971244812,
        -0.6856253743171692,
        0.02880091592669487,
        0.9747294187545776,
        0.07631885260343552,
        -0.2579314708709717,
        -0.021899783983826637,
        0.010848360136151314,
        0.10878830403089523,
        -3.2349767684936523,
        -1.4880917072296143,
        0.7510631680488586,
        -0.17945459485054016,
        0.36598560214042664,
        0.4767080843448639,
        -0.03092753328382969,
        3.186466693878174,
        1.189211368560791,
        0.4315947890281677,
        1.0289181470870972,
        0.03375415503978729,
        -0.6101037859916687,
        -2.0357587337493896,
        -0.010503975674510002,
        -3.55017352104187,
        0.3091506063938141,
        -2.0174238681793213,
        0.3172932267189026,
        -1.859352469444275,
        -1.7287077903747559,
        0.29691851139068604,
        -0.5866352915763855,
        0.8309964537620544,
        1.0251716375350952,
        -0.033618777990341187,
        -0.09350378066301346,
        5.9734721183776855,
        0.040217075496912,
        0.45476001501083374,
        1.75913667678833,
        -3.116422414779663,
        0.2682707607746124,
        -0.22255350649356842,
        -0.7303194403648376,
        1.2617844343185425,
        0.8797340393066406,
        -0.3906610310077667,
        0.447306752204895,
        0.9202145934104919,
        -0.06705337762832642,
        -0.9008628129959106,
        -0.04365091398358345,
        -0.03487759083509445,
        1.6565860509872437,
        -1.605432152748108,
        -0.7577093243598938,
        0.021204456686973572,
        0.1054190844297409,
        -6.60039758682251,
        0.03595460206270218,
        -10.800722122192383,
        -5.41300630569458,
        -1.8518297672271729,
        -1.3221566677093506,
        -0.5327313542366028,
        0.19956094026565552,
        -0.9662465453147888,
        0.006520248018205166,
        -0.4282492697238922,
        0.09768732637166977,
        -0.6769680380821228,
        0.5436713695526123,
        0.7445271015167236,
        0.026380032300949097,
        -1.47736394405365,
        0.11475413292646408,
        1.7887769937515259,
        0.44012489914894104,
        0.3231465220451355,
        -0.3331276476383209,
        -2.2941231727600098,
        -1.3802454471588135,
        -8.145353317260742,
        -9.898458480834961,
        2.7703607082366943,
        -5.8831048011779785,
        -0.03561926633119583,
        -0.8139602541923523,
        0.3561370074748993,
        -0.1260322481393814,
        0.4776360094547272,
        -0.10261773318052292,
        0.70604008436203,
        0.303546667098999,
        -2.2666029930114746,
        0.10247529298067093,
        0.13822166621685028,
        -0.11906116455793381,
        -0.18718601763248444,
        -0.93808913230896,
        -0.04682018980383873,
        -0.031153162941336632,
        -0.8456690907478333,
        0.007845069281756878,
        3.560133934020996,
        5.547904968261719,
        -1.5631811618804932,
        0.11301689594984055,
        0.06447745859622955,
        0.09863835573196411,
        -0.0955716073513031,
        -0.18013180792331696,
        -0.2534274160861969,
        0.6499423384666443,
        -0.3691812753677368,
        1.4208769798278809,
        1.4381109476089478,
        -2.5091848373413086,
        -0.5088660717010498,
        -0.3098118007183075,
        0.6058740615844727,
        -0.0902397632598877,
        0.03781070560216904,
        -0.19336190819740295,
        -1.084683895111084,
        0.06422310322523117,
        6.287489891052246,
        -3.2903449535369873,
        -11.96440601348877,
        -5.913136005401611,
        -0.020188400521874428,
        0.3769385814666748,
        -1.8633263111114502,
        -1.9116575717926025,
        -0.6272624135017395,
        -2.200924873352051,
        0.3926655352115631,
        -0.0020612683147192,
        -0.688541829586029,
        0.5909004211425781,
        0.3299558460712433,
        0.666264533996582,
        -0.785572350025177,
        -0.626419723033905,
        0.0006748128798790276,
        -0.4685017466545105,
        0.8025545477867126,
        -1.811020016670227,
        7.114762306213379,
        1.8597606420516968,
        -19.079252243041992,
        -0.8676672577857971,
        0.010438661091029644,
        -1.2946653366088867,
        0.5322526693344116,
        -0.28641772270202637,
        0.48158594965934753,
        0.17141468822956085,
        -0.13009481132030487,
        0.2879599332809448,
        -1.533510684967041,
        0.1119236946105957,
        -0.1915949434041977,
        0.2557847499847412,
        -0.2645191252231598,
        0.20485199987888336,
        0.019893107935786247,
        -0.1574876308441162,
        -1.8849782943725586,
        -0.06614793837070465,
        -13.68328857421875,
        -11.936235427856445,
        3.347369909286499,
        -4.363339424133301,
        -3.7971184253692627,
        -0.3359051048755646,
        1.7714228630065918,
        0.7436923384666443,
        0.482681542634964,
        -0.19147177040576935,
        0.7716776132583618,
        0.32382214069366455,
        0.886635959148407,
        -0.05009663477540016,
        0.03602166101336479,
        3.681140899658203,
        1.435781478881836,
        -0.23839975893497467,
        0.03348637744784355,
        0.3449693024158478,
        -0.17859627306461334,
        -0.00017141377611551434,
        -5.04872465133667,
        -7.1651153564453125,
        3.9695167541503906,
        0.08928386121988297,
        0.023570921272039413,
        0.5074341893196106,
        -0.1261284053325653,
        -0.40157485008239746,
        -0.7216446995735168,
        -0.18685504794120789,
        -1.6772823333740234,
        -0.998282790184021,
        0.34959524869918823,
        0.052718739956617355,
        0.02232675440609455,
        -3.1151671409606934,
        -1.8403511047363281,
        -0.08668040484189987,
        -0.10407155007123947,
        -0.15333084762096405,
        -0.319824755191803,
        0.04977438226342201,
        3.061605453491211,
        4.476377964019775,
        4.6887102127075195,
        -0.581292986869812,
        0.03499733656644821,
        -0.8150885701179504,
        -0.5494478344917297,
        -0.6893299221992493,
        0.3733178973197937,
        -1.444261074066162,
        0.2821168601512909,
        -0.46985796093940735,
        0.38326001167297363,
        0.1590724140405655,
        0.031202800571918488,
        -0.032562192529439926,
        0.04782884567975998,
        -21.82947540283203,
        0.0030777740757912397,
        -3.967182159423828,
        0.3182529807090759,
        0.021424246951937675,
        8.40859317779541,
        5.5407867431640625,
        1.9885711669921875,
        0.6750751733779907,
        -0.005662436597049236,
        -0.005350680090487003,
        0.024214517325162888,
        0.10635551810264587,
        -0.1771584451198578,
        0.12472186982631683,
        0.12443460524082184,
        0.04280151426792145,
        0.2569153904914856,
        0.021983161568641663,
        -0.07564578950405121,
        -2.8195505142211914,
        -0.6630558967590332,
        0.5474885702133179,
        0.07440235465765,
        0.11582334339618683,
        0.3868068754673004,
        0.06795485317707062,
        -3.570880889892578,
        -1.3595577478408813,
        2.357198715209961,
        0.5831859707832336,
        0.09890278428792953,
        0.19234031438827515,
        0.9226195812225342,
        0.031460098922252655,
        -1.188942313194275,
        -0.40516483783721924,
        -1.8652175664901733,
        -0.06750369071960449,
        -0.46290677785873413,
        0.023390082642436028,
        -0.5074045062065125,
        4.397702217102051,
        4.606906414031982,
        0.7771104574203491,
        0.17497533559799194,
        0.7717207074165344,
        -4.115411281585693,
        0.09192325174808502,
        5.778934001922607,
        4.5383734703063965,
        1.6090699434280396,
        1.4317721128463745,
        0.057122234255075455,
        -2.6488068103790283,
        -0.9944429397583008,
        -8.611574172973633,
        -0.8856843113899231,
        -8.343916893005371,
        -2.857990264892578,
        -6.944559574127197,
        -2.961705207824707,
        -3.717848300933838,
        0.11092685163021088,
        -1.8140153884887695,
        -1.0547791719436646,
        0.13200461864471436,
        -0.09004325419664383,
        0.13915641605854034,
        -0.2848132252693176,
        -0.10900415480136871,
        -7.261603355407715,
        -8.03158187866211,
        2.2123496532440186,
        -2.814497470855713,
        -7.446831703186035,
        -0.4574238359928131,
        2.946399450302124,
        -0.6926884651184082,
        0.967345118522644,
        -0.2718612849712372,
        0.3084263801574707,
        0.1713147759437561,
        1.8311597108840942,
        -0.3563714325428009,
        -0.7238789796829224,
        -1.2720286846160889,
        -0.03984907269477844,
        -0.470264196395874,
        -0.16182729601860046,
        0.08134796470403671,
        -0.5573757886886597,
        -1.1881986856460571,
        -8.895020484924316,
        -12.10114860534668,
        1.070111870765686,
        -1.0561715364456177,
        -4.359665870666504,
        1.0552181005477905,
        0.20664432644844055,
        1.218894600868225,
        -0.6567792296409607,
        -4.933442115783691,
        -0.4369102418422699,
        -0.8183684945106506,
        0.964363694190979,
        -0.11090704798698425,
        0.12303217500448227,
        0.5033000707626343,
        0.4507037401199341,
        0.5839630961418152,
        -0.04736030101776123,
        0.4154796302318573,
        -3.7490463256835938,
        -6.001473426818848,
        -2.0274252891540527,
        -0.4638162851333618,
        1.642789363861084,
        -0.23389935493469238,
        -3.843005895614624,
        0.32542556524276733,
        -1.1247049570083618,
        0.5976945757865906,
        0.9134910702705383,
        0.3593428432941437,
        -1.0583524703979492,
        -2.991537570953369,
        2.3795528411865234,
        0.12218964844942093,
        -0.002281587803736329,
        -0.8550617694854736,
        0.9609842896461487,
        -0.0938248410820961,
        -0.017322612926363945,
        -0.06824000924825668,
        -0.34081217646598816,
        -0.29486995935440063,
        -13.00632381439209,
        -5.475250720977783,
        1.5421826839447021,
        -1.313004970550537,
        -0.08948752284049988,
        -0.7247123718261719,
        -0.2874886095523834,
        0.9817487597465515,
        0.32343536615371704,
        -0.5500955581665039,
        -0.3516492247581482,
        -0.22184287011623383,
        0.8630473017692566,
        0.403298020362854,
        -0.0048042708076536655,
        0.6632639765739441,
        -1.6857913578860462e-05,
        0.07854539901018143,
        0.3582250773906708,
        -0.2395666241645813,
        1.5486836433410645,
        0.003779883263632655,
        5.626105785369873,
        9.763352394104004,
        -6.332573413848877,
        0.661912202835083,
        0.15956422686576843,
        -1.0633000135421753,
        -0.8241733908653259,
        -0.16098140180110931,
        0.6409071683883667,
        0.14379456639289856,
        0.4166952669620514,
        1.3696320056915283,
        1.0198551416397095,
        -0.7758917808532715,
        -0.09126464277505875,
        0.2647262215614319,
        -0.1437625288963318,
        -0.45215654373168945,
        -0.07739465683698654,
        0.3719097971916199,
        -1.4265531301498413,
        0.001812511938624084,
        16.814496994018555,
        9.58928108215332,
        -28.248762130737305,
        0.4930247366428375,
        0.06345270574092865,
        -0.564602792263031,
        -0.3119497001171112,
        0.17057758569717407,
        -0.05571369454264641,
        -0.23221845924854279,
        0.5504759550094604,
        0.3710533082485199,
        0.9259072542190552,
        0.02664291299879551,
        -0.17790305614471436,
        -0.19434534013271332,
        0.3779394030570984,
        0.2206544131040573,
        0.009254362434148788,
        -0.10594607889652252,
        0.20088112354278564,
        -0.5284221172332764,
        3.6058318614959717,
        1.4645875692367554,
        0.8586547374725342,
        0.30028560757637024,
        0.16307766735553741,
        0.5435191988945007,
        0.01985085941851139,
        -0.29172372817993164,
        -0.5877966284751892,
        -1.304203748703003,
        0.5906006097793579,
        -0.002722629578784108,
        1.468234896659851,
        -0.06107558310031891,
        -0.0402047261595726,
        0.004642977844923735,
        -0.1584884226322174,
        -0.49075353145599365,
        0.008508516475558281,
        0.4619313180446625,
        -0.33936235308647156,
        -0.00036470196209847927,
        11.078962326049805,
        6.309229850769043,
        -24.7914981842041,
        -4.294066905975342,
        -0.041920676827430725,
        -0.1938115954399109,
        -0.14585793018341064,
        0.32061290740966797,
        -0.5803038477897644,
        1.0027016401290894,
        0.09395614266395569,
        0.7049485445022583,
        0.04897260665893555,
        -0.807685136795044,
        -8.51869010925293,
        -0.24756208062171936,
        0.28075361251831055,
        0.01919224113225937,
        0.02263522893190384,
        -0.003038245253264904,
        0.4459649622440338,
        -19.301151275634766,
        3.083359956741333,
        1.062835693359375,
        -0.2810811996459961,
        2.225419282913208,
        -0.02120276167988777,
        0.22736942768096924,
        -1.08285391330719,
        -0.48143473267555237,
        -0.3029409945011139,
        -0.7370045781135559,
        -0.032271113246679306,
        1.3929064273834229,
        1.4367201328277588,
        0.007269036490470171,
        0.20369853079319,
        -3.9034323692321777,
        0.22056347131729126,
        0.17631986737251282,
        -0.05770338699221611,
        -0.3411743640899658,
        -0.313725084066391,
        -8.078946113586426,
        -16.484996795654297,
        -28.94612693786621,
        -0.26395654678344727,
        -0.6071985960006714,
        -0.559284508228302,
        0.03439653664827347,
        -0.09267503023147583,
        -0.6546179056167603,
        0.16656461358070374,
        0.3457380533218384,
        0.09282965213060379,
        -0.1651715338230133,
        0.012834303081035614,
        -0.029624097049236298,
        0.019813785329461098,
        -3.115875244140625,
        0.18726089596748352,
        0.46442288160324097,
        -0.020819351077079773,
        0.3090377748012543,
        0.269099622964859,
        -0.0035858089104294777,
        -1.6827597618103027,
        -8.051824569702148,
        0.4776165187358856,
        0.29607725143432617,
        -0.9812377095222473,
        0.37179797887802124,
        -1.627247929573059,
        -0.4330398142337799,
        -0.2879613935947418,
        -0.5759046673774719,
        0.26701003313064575,
        0.47143056988716125,
        -5.870739936828613,
        -1.1271679401397705,
        0.49731266498565674,
        -0.16536949574947357,
        0.4297918677330017,
        0.07611293345689774,
        -0.01964934729039669,
        -0.17775163054466248,
        0.8277440667152405,
        -16.24338722229004,
        10.80307388305664,
        6.606670379638672,
        -8.968626976013184,
        0.8873072862625122,
        0.11603900045156479,
        0.2890656590461731,
        -0.34923937916755676,
        -1.057210922241211,
        -0.9105125665664673,
        0.1673351377248764,
        0.7115806937217712,
        0.09545040130615234,
        0.36794161796569824,
        0.07798696309328079,
        0.3234502077102661,
        0.41548705101013184,
        -0.7110103368759155,
        0.02595268003642559,
        0.023349609225988388,
        -0.022501643747091293,
        0.2746277451515198,
        -3.9750022888183594,
        -27.448699951171875,
        -25.846607208251953,
        2.907552719116211,
        1.081100344657898,
        -1.9743831157684326,
        0.0625956580042839,
        -0.9377261400222778,
        0.5294815301895142,
        0.25346291065216064,
        0.7036493420600891,
        -0.05996761843562126,
        -0.3706340193748474,
        0.5525311827659607,
        0.04726092517375946,
        -0.02910074219107628,
        -0.307035356760025,
        0.6121386289596558,
        0.38411587476730347,
        0.015143808908760548,
        -0.35832837224006653,
        -0.3799189627170563,
        -0.4765397608280182,
        -2.6312148571014404,
        -1.136445164680481,
        0.7719952464103699,
        0.8198240995407104,
        -0.034367840737104416,
        0.21462464332580566,
        0.6900386214256287,
        -0.8040282726287842,
        1.2636399269104004,
        0.47400233149528503,
        -2.8050599098205566,
        0.14532187581062317,
        0.43458297848701477,
        -0.2895157039165497,
        0.12394031137228012,
        0.018633348867297173,
        -0.01752539537847042,
        -0.1828637570142746,
        0.003356195753440261,
        -0.07208970189094543,
        -0.20421911776065826,
        0.038522038608789444,
        12.198407173156738,
        5.568472385406494,
        -36.00603103637695,
        -10.404375076293945,
        -0.048426833003759384,
        0.20939727127552032,
        -0.23621219396591187,
        -0.10752508044242859,
        0.18189913034439087,
        -0.11121001094579697,
        -0.7573906183242798,
        0.22021177411079407,
        -0.4349336624145508,
        0.017747584730386734,
        -0.5443485975265503,
        0.9616448879241943,
        0.44462162256240845,
        -0.08912551403045654,
        0.31233564019203186,
        -0.08037041127681732,
        -2.433948040008545,
        0.012038356624543667,
        -2.356821298599243,
        -2.6668858528137207,
        1.2316758632659912,
        -1.6531978845596313,
        0.040883149951696396,
        -4.776557445526123,
        1.5282117128372192,
        -0.44417694211006165,
        -0.652742862701416,
        0.03968574106693268,
        1.7550150156021118,
        0.09228406101465225,
        1.7098727226257324,
        -0.06400005519390106,
        -0.5149828195571899,
        3.4163475036621094,
        1.3092029094696045,
        0.19820097088813782,
        0.3321470022201538,
        0.5337598323822021,
        -0.3375276029109955,
        -0.8076671361923218,
        -4.598658561706543,
        -6.973586559295654,
        -1.765420913696289,
        -0.6302618980407715,
        -0.20722998678684235,
        0.5084751844406128,
        -0.2536780536174774,
        1.347172737121582,
        -0.28321391344070435,
        -3.470816135406494,
        -0.3294457495212555,
        -0.9804103970527649,
        0.04624143987894058,
        -0.8495614528656006,
        -3.2316536903381348,
        0.684760570526123,
        1.9336211681365967,
        0.1817455142736435,
        -0.366588830947876,
        -0.18480123579502106,
        -1.747025728225708,
        -1.6482760906219482,
        0.5876426696777344,
        2.4602367877960205,
        -0.275463342666626,
        -0.05466495826840401,
        -0.2808092534542084,
        -0.046785615384578705,
        1.1670819520950317,
        -0.71200031042099,
        -0.8342379927635193,
        -0.3158467411994934,
        1.2877652645111084,
        -0.213352769613266,
        0.9730920791625977,
        0.15312102437019348,
        -1.0425716638565063,
        -0.03732505440711975,
        0.22563210129737854,
        0.01705658622086048,
        -0.007836200296878815,
        -0.028977567330002785,
        -0.020621832460165024,
        -0.39053139090538025,
        20.097267150878906,
        11.951739311218262,
        -7.591536998748779,
        0.43477746844291687,
        0.06004343181848526,
        -0.8127937316894531,
        0.8052989840507507,
        -0.48317989706993103,
        0.9540314078330994,
        -0.8931620121002197,
        0.3272084891796112,
        0.7609857320785522,
        -0.25041043758392334,
        0.15840595960617065,
        -5.28716516494751,
        0.10907790809869766,
        -0.6185576319694519,
        0.03735419735312462,
        0.013767348602414131,
        -0.048898883163928986,
        0.23107384145259857,
        0.2752278745174408,
        10.472902297973633,
        5.374318599700928,
        -4.769946575164795,
        0.12687940895557404,
        0.2366746962070465,
        -1.5677752494812012,
        0.9993099570274353,
        -0.22931775450706482,
        0.35724616050720215,
        0.4874342978000641,
        0.818463921546936,
        0.8109599947929382,
        0.7280209064483643,
        0.0944952592253685,
        -4.889925479888916,
        0.4075509011745453,
        -0.4092830419540405,
        -0.3104318678379059,
        -0.004303647205233574,
        0.3259885609149933,
        -1.6943596601486206,
        -9.106639862060547,
        5.746445655822754,
        9.798495292663574,
        -3.9578754901885986,
        -1.1649258136749268,
        0.1791086047887802,
        0.4081301987171173,
        0.522248387336731,
        -0.7183183431625366,
        1.4315086603164673,
        -0.15067371726036072,
        -0.30312538146972656,
        -1.5814158916473389,
        1.5375359058380127,
        -1.3872809410095215,
        0.031107045710086823,
        -3.233067750930786,
        1.2646750211715698,
        0.14564718306064606,
        -0.03796783462166786,
        -0.26474446058273315,
        0.04309907928109169,
        0.06822148710489273,
        -3.233736276626587,
        -16.63658905029297,
        -1.0858738422393799,
        0.4295637607574463,
        0.15821903944015503,
        0.14357057213783264,
        -0.17181366682052612,
        -0.3602227568626404,
        -0.0037269608583301306,
        -0.06063401326537132,
        0.8766880035400391,
        -0.16555361449718475,
        0.8011311292648315,
        -0.018138596788048744,
        -0.647593080997467,
        -0.7048904895782471,
        0.6090593934059143,
        0.6848918199539185,
        0.03501475602388382,
        -0.32256487011909485,
        -1.679215908050537,
        -0.16726364195346832,
        -4.468381881713867,
        3.0373198986053467,
        1.8619232177734375,
        2.1105661392211914,
        0.11918486654758453,
        -0.49701857566833496,
        1.9641426801681519,
        1.1655186414718628,
        1.119042992591858,
        0.4753423035144806,
        -0.4329662621021271,
        -0.8141385912895203,
        -0.433458536863327,
        -0.07733899354934692,
        0.05345061793923378,
        0.3386683464050293,
        -0.5039782524108887,
        -0.4352782070636749,
        -0.017833823338150978,
        0.14379633963108063,
        -0.07555215060710907,
        0.11758611351251602,
        0.48111969232559204,
        1.6108818054199219,
        2.774174928665161,
        -0.16448524594306946,
        0.08961760997772217,
        0.01075191330164671,
        -0.5457625389099121,
        -1.472798228263855,
        -1.505000114440918,
        0.0028176698833703995,
        -0.0049308729358017445,
        -0.1266566812992096,
        0.5961555242538452,
        0.5826356410980225,
        -0.3500460982322693,
        -0.3188738226890564,
        -0.11392468959093094,
        0.8121166825294495,
        0.05338791757822037,
        0.7279752492904663,
        3.174025058746338,
        0.04518310725688934,
        -4.066859722137451,
        -5.588206768035889,
        -4.618659973144531,
        -4.683708190917969,
        -2.0787158012390137,
        0.41877031326293945,
        -1.773474931716919,
        -1.1317439079284668,
        0.39630749821662903,
        0.07014865428209305,
        -0.23340727388858795,
        -0.5547033548355103,
        -1.30440092086792,
        -1.0509437322616577,
        -1.534301996231079,
        -0.09386946260929108,
        -0.023622749373316765,
        0.0730041116476059,
        -0.005545114167034626,
        0.5330948233604431,
        -1.7055431604385376,
        0.4012446701526642,
        -0.06695932894945145,
        0.5821570158004761,
        2.6072769165039062,
        -0.9516603350639343,
        0.037955719977617264,
        0.05106499046087265,
        -0.06117291748523712,
        0.27302590012550354,
        -4.296974182128906,
        1.034483790397644,
        -0.5736231803894043,
        0.21113909780979156,
        0.36207315325737,
        0.1371888667345047,
        0.13298586010932922,
        0.3184889853000641,
        -0.3522421419620514,
        0.3235137164592743,
        -0.030461253598332405,
        -0.35961267352104187,
        -0.7248731851577759,
        0.020281227305531502,
        -8.915899276733398,
        -14.089302062988281,
        1.372207522392273,
        0.254571795463562,
        -6.279484748840332,
        0.4642200767993927,
        -0.7521376609802246,
        -0.4652617871761322,
        0.6309977173805237,
        0.17213131487369537,
        -1.1370489597320557,
        0.02227313257753849,
        0.07947398722171783,
        -0.01209565345197916,
        -3.7906901836395264,
        0.19983556866645813,
        -0.46532878279685974,
        0.06373331695795059,
        -0.0055918460711836815,
        -0.1753300577402115,
        -1.0172529220581055,
        -25.593427658081055,
        6.041400909423828,
        6.2993693351745605,
        -2.6561927795410156,
        0.9797739386558533,
        -0.2992071509361267,
        -0.6776434183120728,
        -1.071521282196045,
        -0.9385719895362854,
        0.5243598222732544,
        -0.2005160003900528,
        1.1337242126464844,
        -1.0158357620239258,
        -1.649019718170166,
        0.44857853651046753,
        -0.3538260757923126,
        -0.34458044171333313,
        0.7601926922798157,
        -0.4370468854904175,
        -0.6651637554168701,
        0.5509222149848938,
        1.3662079572677612,
        0.0221717469394207,
        10.997652053833008,
        7.79450798034668,
        -1.1441094875335693,
        0.4603402614593506,
        0.013341386802494526,
        0.05473626032471657,
        -0.9555568695068359,
        -0.5365422964096069,
        0.11228325963020325,
        -0.3552584946155548,
        -0.5738157033920288,
        0.17880064249038696,
        -0.615349531173706,
        -0.01731620728969574,
        0.09466487169265747,
        0.3288162350654602,
        -0.48233169317245483,
        -0.3935273289680481,
        -0.14819516241550446,
        -0.002273180289193988,
        1.624692440032959,
        -0.8011519312858582,
        1.5846301317214966,
        5.040564060211182,
        0.9108116626739502,
        -0.2999957799911499,
        0.19457261264324188,
        -1.6113688945770264,
        -0.39588499069213867,
        0.6550408005714417,
        1.3078707456588745,
        0.4237910509109497,
        0.6219334006309509,
        0.2666769027709961,
        0.7518260478973389,
        -1.0431026220321655,
        0.00129471137188375,
        -0.21482349932193756,
        0.26208826899528503,
        0.14998409152030945,
        0.004410906694829464,
        -0.2555466592311859,
        -0.6720113754272461,
        0.11537425965070724,
        10.731419563293457,
        11.991456985473633,
        -7.400201797485352,
        1.630569577217102,
        -0.014541035518050194,
        -0.020932640880346298,
        1.5463958978652954,
        -0.41925808787345886,
        0.14673326909542084,
        1.9060207605361938,
        0.7481817603111267,
        -1.7242261171340942,
        -0.25557422637939453,
        -0.003481254680082202,
        0.26102152466773987,
        0.23878756165504456,
        -0.34820136427879333,
        -0.02226867340505123,
        -0.001031605526804924,
        -0.019725263118743896,
        -0.18746398389339447,
        -40.448394775390625,
        2.029730796813965,
        1.001339316368103,
        -9.136603355407715,
        -1.984647512435913,
        0.024987196549773216,
        -0.055668048560619354,
        -0.549976646900177,
        0.3270393908023834,
        0.05448289215564728,
        0.09588243067264557,
        0.30607613921165466,
        -0.35640764236450195,
        0.27943533658981323,
        0.011373499408364296,
        0.010481675155460835,
        -0.018799180164933205,
        -0.014092113822698593,
        -0.5423600077629089,
        0.001416557002812624,
        0.17086663842201233,
        -0.3690277338027954,
        -0.012036532163619995,
        -8.172030448913574,
        -8.63927173614502,
        1.0051931142807007,
        -0.7550415396690369,
        -0.0117043973878026,
        0.20404647290706635,
        0.3269989490509033,
        0.4041061997413635,
        0.9730372428894043,
        -1.2906702756881714,
        0.092021144926548,
        -0.334952712059021,
        -0.40691331028938293,
        0.16515663266181946,
        0.27883613109588623,
        0.4354427754878998,
        -0.12108475714921951,
        0.30647021532058716,
        -0.10019414126873016,
        -0.34868714213371277,
        1.0823546648025513,
        -9.94311237335205,
        -19.373294830322266,
        -8.296243667602539,
        1.4655547142028809,
        -0.08807065337896347,
        -0.04332033172249794,
        0.348542183637619,
        -0.43862494826316833,
        -3.0284531116485596,
        0.2590058147907257,
        -2.9052445888519287,
        0.7325354218482971,
        -3.355681896209717,
        1.8607144355773926,
        0.7002436518669128,
        0.08583801239728928,
        -0.6575990319252014,
        0.8320949077606201,
        0.13915561139583588,
        -0.00574683491140604,
        -0.12410282343626022,
        -0.45188015699386597,
        0.043906163424253464,
        6.882343292236328,
        10.389695167541504,
        1.2009905576705933,
        0.2622694969177246,
        -1.9356290102005005,
        -0.7085090279579163,
        -1.4042246341705322,
        1.3665820360183716,
        1.5367931127548218,
        0.6548601984977722,
        -0.0037335227243602276,
        -1.0570236444473267,
        -0.8393895030021667,
        -0.024505196139216423,
        -10.114173889160156,
        -1.1578209400177002,
        -0.04565884917974472,
        -0.14663095772266388,
        0.053793277591466904,
        0.11546009033918381,
        0.17199024558067322,
        0.33677348494529724,
        11.883391380310059,
        12.340595245361328,
        -0.7017135620117188,
        -1.0864627361297607,
        0.126959890127182,
        0.01742817647755146,
        -0.6560280919075012,
        0.3214651048183441,
        0.0802675187587738,
        0.030834706500172615,
        0.3099406957626343,
        -0.03608214855194092,
        -0.22593744099140167,
        -0.008227964863181114,
        0.25799503922462463,
        -0.03361134231090546,
        0.38478225469589233,
        0.5296083092689514,
        0.0001187456218758598,
        -0.5588629245758057,
        -0.7739750742912292,
        -9.589798927307129,
        -22.489246368408203,
        -20.360258102416992,
        -0.2549569010734558,
        -1.44795823097229,
        -0.5141107439994812,
        -1.1769696474075317,
        -1.949649453163147,
        0.047501400113105774,
        1.0280653238296509,
        0.3761480748653412,
        0.010825052857398987,
        0.34350740909576416,
        0.10365588963031769,
        0.23125317692756653,
        0.23503214120864868,
        0.18361519277095795,
        3.0829522609710693,
        0.31191369891166687,
        -0.2709403932094574,
        -0.2628296911716461,
        1.2389382123947144,
        -0.5110533237457275,
        -0.9098371863365173,
        -0.43775469064712524,
        0.33663278818130493,
        1.8666882514953613,
        0.19143886864185333,
        -1.807257890701294,
        -7.486154556274414,
        -1.4110946655273438,
        -0.12896358966827393,
        -2.337921380996704,
        1.4534474611282349,
        -1.2997649908065796,
        0.4953627586364746,
        0.12049929052591324,
        -0.22989554703235626,
        0.954816997051239,
        -0.3741496205329895,
        -0.8050142526626587,
        0.12196986377239227,
        -0.3600972890853882,
        -0.6643366813659668,
        -0.06653988361358643,
        2.7603399753570557,
        -0.7551605105400085,
        1.0753538608551025,
        2.2198071479797363,
        0.23350326716899872,
        0.9604963064193726,
        1.7275192737579346,
        -0.5481144189834595,
        -1.485643982887268,
        -0.7171031832695007,
        -1.4454305171966553,
        -0.09420029819011688,
        3.9453346729278564,
        0.11392799764871597,
        -0.0020939954556524754,
        3.541165590286255,
        -1.4785587787628174,
        0.16074031591415405,
        0.10339391231536865,
        0.09414267539978027,
        0.09094133228063583,
        0.030441824346780777,
        0.10468173772096634,
        -7.333007335662842,
        -3.3671724796295166,
        0.5460283756256104,
        -0.0015734888147562742,
        0.6050122976303101,
        -0.4594196379184723,
        -1.0254954099655151,
        -0.7447896003723145,
        -0.20883095264434814,
        0.35794761776924133,
        -0.08558636903762817,
        0.11946661025285721,
        0.002747446298599243,
        0.06551194936037064,
        3.4669106006622314,
        0.31733494997024536,
        -0.13399077951908112,
        0.12122056633234024,
        0.2539137899875641,
        0.07465949654579163,
        -0.028875600546598434,
        -4.636665344238281,
        -9.24785041809082,
        -1.5595297813415527,
        0.4169602394104004,
        0.029464468359947205,
        0.16493311524391174,
        -0.6925457119941711,
        -0.30531853437423706,
        0.609801709651947,
        -0.10201171040534973,
        -0.30345776677131653,
        -0.008090095594525337,
        -0.9953368902206421,
        -1.3443796634674072,
        0.03679000213742256,
        1.1479687690734863,
        -1.1945693492889404,
        0.4982083737850189,
        0.028816696256399155,
        -0.20270712673664093,
        6.681107521057129,
        0.021753115579485893,
        -9.249752044677734,
        -5.314833164215088,
        6.957197666168213,
        0.9094173312187195,
        0.2393469363451004,
        -0.4479498565196991,
        -0.28496164083480835,
        0.705352246761322,
        1.121507167816162,
        0.8874664306640625,
        0.38117843866348267,
        -0.12469850480556488,
        0.07723524421453476,
        0.050459399819374084,
        0.22255659103393555,
        -0.14534230530261993,
        0.059381335973739624,
        4.340599536895752,
        0.0111378850415349,
        2.0034587383270264,
        -5.284191608428955,
        0.10882262140512466,
        8.818017959594727,
        7.652131080627441,
        -8.254521369934082,
        -0.5790166258811951,
        -0.03380442038178444,
        0.009107489138841629,
        0.35525962710380554,
        -0.223348468542099,
        0.01662878692150116,
        0.17187368869781494,
        -0.021929511800408363,
        -0.06296870112419128,
        -0.6050682663917542,
        -0.003868917003273964,
        -0.14388194680213928,
        -0.6368827819824219,
        1.0587109327316284,
        -0.08412918448448181,
        -0.010763118974864483,
        -0.0837000235915184,
        -3.036719560623169,
        -0.013631751760840416,
        5.209854602813721,
        0.3620990812778473,
        -0.24393139779567719,
        -0.0663226842880249,
        0.006508333142846823,
        0.05310669541358948,
        -1.1535285711288452,
        -1.6049591302871704,
        -0.5844254493713379,
        -0.3001585602760315,
        0.6603398323059082,
        0.9369221925735474,
        0.3831530809402466,
        -0.09020127356052399,
        0.09066371619701385,
        0.24281597137451172,
        1.335965633392334,
        -0.35427990555763245,
        0.07905007153749466,
        -0.49260225892066956,
        -8.533616065979004,
        0.08049856871366501,
        2.6432411670684814,
        3.3772144317626953,
        -1.6588008403778076,
        0.8752722144126892,
        -12.073934555053711,
        0.30334144830703735,
        -0.028606966137886047,
        0.34925487637519836,
        0.3879181742668152,
        0.5834192037582397,
        0.7104753851890564,
        -1.2548632621765137,
        -0.27179184556007385,
        -0.3478078842163086,
        0.12060131132602692,
        0.8433223366737366,
        0.02958795800805092,
        -0.05516015365719795,
        -0.021886460483074188,
        0.02253037318587303,
        -16.857816696166992,
        -0.01382429338991642,
        -7.523353576660156,
        -1.4321763515472412,
        2.389970064163208,
        0.16545219719409943,
        -0.0929042398929596,
        -0.4463631510734558,
        -0.12423940747976303,
        0.39653855562210083,
        0.31395626068115234,
        -0.6029391884803772,
        -0.11378221213817596,
        0.5376386642456055,
        0.8476415276527405,
        -0.0217965766787529,
        -0.028093229979276657,
        -0.031433794647455215,
        0.0547746978700161,
        0.267777681350708,
        -0.0033772082533687353,
        -0.42567339539527893,
        0.16140085458755493,
        -1.0884814262390137,
        -34.03456115722656,
        -29.16439437866211,
        9.150979995727539,
        -1.5900321006774902,
        -0.011659803800284863,
        0.0009845790918916464,
        -1.4221090078353882,
        0.040326107293367386,
        0.2866608202457428,
        0.1515696495771408,
        -0.4196026027202606,
        0.34782058000564575,
        0.35555970668792725,
        0.006604658905416727,
        -0.3816801607608795,
        0.8265233039855957,
        -0.7415745854377747,
        0.24850840866565704,
        0.033256035298109055,
        -0.22247706353664398,
        0.11549893766641617,
        0.03507386893033981,
        5.89260196685791,
        5.056996822357178,
        2.928508758544922,
        -2.4644031524658203,
        -0.04435224458575249,
        0.19951483607292175,
        -0.6363340020179749,
        0.6155740022659302,
        -0.1394665688276291,
        -1.8976280689239502,
        -0.17017965018749237,
        -0.00949504692107439,
        0.7358430027961731,
        0.038597699254751205,
        0.09245862811803818,
        0.16071881353855133,
        0.939906120300293,
        0.09125601500272751,
        -0.158495232462883,
        0.36030077934265137,
        5.073601245880127,
        -0.021241333335638046,
        -16.022037506103516,
        -18.007259368896484,
        1.7015516757965088,
        -7.497042655944824,
        0.056495551019907,
        -1.146689772605896,
        -0.6619781255722046,
        -0.03571201488375664,
        1.261162281036377,
        -0.20934557914733887,
        -0.36269158124923706,
        0.010915289632976055,
        0.6188080310821533,
        0.1614011824131012,
        -0.27752697467803955,
        -2.0745441913604736,
        0.17820318043231964,
        -0.5170382857322693,
        -0.4378771185874939,
        -0.6431673169136047,
        -2.4663405418395996,
        0.026919374242424965,
        -2.6743741035461426,
        2.1019091606140137,
        -1.1826822757720947,
        -0.8882752060890198,
        0.1175970733165741,
        0.1364728957414627,
        1.1068609952926636,
        -1.895477294921875,
        0.9493165612220764,
        -0.22605369985103607,
        -0.02079750783741474,
        -1.7811594009399414,
        0.46749916672706604,
        -0.8046742081642151,
        0.008504324592649937,
        1.1521862745285034,
        -0.26891621947288513,
        0.11948046088218689,
        -0.011738286353647709,
        0.06218503415584564,
        17.42854881286621,
        0.000934958690777421,
        -5.856206893920898,
        -2.495032787322998,
        3.832098960876465,
        -0.8007907271385193,
        -0.004323157481849194,
        -0.40794888138771057,
        0.8850955367088318,
        0.2549107074737549,
        0.4188900589942932,
        -0.28149572014808655,
        -0.3615943193435669,
        0.45533397793769836,
        -0.38576486706733704,
        0.028097689151763916,
        0.009742232970893383,
        0.22311250865459442,
        -0.0805274248123169,
        0.3205994665622711,
        -0.0034042398910969496,
        -0.28755617141723633,
        -0.13377739489078522,
        0.11548344045877457,
        -3.4268901348114014,
        0.10902688652276993,
        6.18517541885376,
        -1.3298149108886719,
        0.20140975713729858,
        0.2856276035308838,
        0.011178216896951199,
        0.7517756223678589,
        -1.4989104270935059,
        -0.23228678107261658,
        1.950270652770996,
        -0.9418060779571533,
        0.09623605757951736,
        -0.07094933092594147,
        0.6478117108345032,
        -0.26612746715545654,
        0.3454902768135071,
        0.16737870872020721,
        0.007658774498850107,
        -0.13705064356327057,
        -0.2878400385379791,
        -30.290172576904297,
        -0.15348023176193237,
        -1.845892310142517,
        -3.6309123039245605,
        1.1336991786956787,
        0.0027487457264214754,
        0.006541714537888765,
        -0.29859739542007446,
        0.2994781732559204,
        0.07007988542318344,
        0.27699902653694153,
        -3.1310245990753174,
        0.33742856979370117,
        -0.7192060351371765,
        -0.3425617218017578,
        0.035780828446149826,
        -0.23929883539676666,
        -0.0332750640809536,
        -1.2721766233444214,
        0.021505145356059074,
        -0.2307019680738449,
        -20.413307189941406,
        0.007573429029434919,
        -12.000670433044434,
        -9.651554107666016,
        0.6668701767921448,
        -4.398706912994385,
        0.07634110003709793,
        -0.1437167227268219,
        -0.4483189284801483,
        -0.21791735291481018,
        0.2805313467979431,
        0.6115452647209167,
        -0.065827377140522,
        0.012865718454122543,
        0.2515847980976105,
        0.004809283651411533,
        -0.1617617905139923,
        -1.0586719512939453,
        0.6540714502334595,
        0.2833605706691742,
        -0.16559666395187378,
        -0.43928179144859314,
        -1.8498551845550537,
        0.03630451485514641,
        1.885528802871704,
        3.442105770111084,
        -0.3682006895542145,
        0.022080229595303535,
        -0.1059594452381134,
        -0.5422175526618958,
        1.1692743301391602,
        -1.1068105697631836,
        0.22496110200881958,
        -0.787726879119873,
        0.8022225499153137,
        -0.6105929017066956,
        0.4236691892147064,
        0.5767794251441956,
        -4.028876781463623,
        -0.5865619778633118,
        0.6690710186958313,
        -0.8839680552482605,
        0.025977030396461487,
        -1.1318899393081665,
        -0.2182920128107071,
        0.0475664846599102,
        3.3700175285339355,
        5.219145774841309,
        5.077268123626709,
        0.14324478805065155,
        0.01603512093424797,
        0.2846078872680664,
        0.07941241562366486,
        0.5991207361221313,
        -0.8675839900970459,
        0.7317202687263489,
        0.6124989986419678,
        -0.043991152197122574,
        0.09878433495759964,
        -0.14429627358913422,
        -0.006557765416800976,
        -0.4204798936843872,
        0.39028140902519226,
        0.7680763602256775,
        -0.04259492829442024,
        0.12718750536441803,
        0.8365270495414734,
        0.0003868313506245613,
        15.779678344726562,
        10.082497596740723,
        -21.57657814025879,
        0.33745917677879333,
        0.049925029277801514,
        -0.31133654713630676,
        -1.3651044368743896,
        0.3722895681858063,
        -0.2557278275489807,
        0.2726176679134369,
        0.847421407699585,
        -0.5075956583023071,
        -0.19095316529273987,
        0.04597613960504532,
        -0.12544292211532593,
        -2.788475751876831,
        -0.41670238971710205,
        0.14855457842350006,
        -0.7234653234481812,
        0.0679040476679802,
        0.8960060477256775,
        0.07653933018445969,
        -6.4394850730896,
        -6.997890472412109,
        1.4051052331924438,
        -1.0305472612380981,
        0.12743890285491943,
        -0.6690142750740051,
        -2.519542694091797,
        -0.07385748624801636,
        -4.04054069519043,
        -0.5365431308746338,
        -3.43206524848938,
        -0.07325252145528793,
        -1.3948426246643066,
        -0.032280776649713516,
        -3.3097598552703857,
        -1.2955626249313354,
        -0.6582552790641785,
        -0.06351812928915024,
        0.007525728549808264,
        0.1245354562997818,
        -0.006727128755301237,
        -33.49774169921875,
        8.139015197753906,
        8.267627716064453,
        -2.0013906955718994,
        0.4500495195388794,
        0.030158396810293198,
        0.15727898478507996,
        0.2110053151845932,
        -0.392437219619751,
        -0.2444382607936859,
        -0.059815503656864166,
        0.3615541458129883,
        -0.014087913557887077,
        -0.44688642024993896,
        0.02836565114557743,
        0.011722555384039879,
        -3.8520967960357666,
        -0.5760315656661987,
        -0.0528876893222332,
        0.005680576432496309,
        0.03533823788166046,
        0.13909174501895905,
        0.05895289033651352,
        -6.474780082702637,
        -13.730222702026367,
        0.741168737411499,
        0.1637726128101349,
        -3.528351306915283,
        0.3865866959095001,
        0.32216718792915344,
        -0.47029948234558105,
        0.14383003115653992,
        -0.4766763150691986,
        -0.08940904587507248,
        -0.6082687973976135,
        -1.1684082746505737,
        0.056798066943883896,
        0.010296185500919819,
        0.7866989374160767,
        -1.2275371551513672,
        -0.33075830340385437,
        0.005984100978821516,
        -0.882544755935669,
        -2.7974355220794678,
        0.06901087611913681,
        5.385823726654053,
        7.439576148986816,
        -9.266051292419434,
        0.3188983201980591,
        0.04160241037607193,
        -1.2351971864700317,
        -0.9163233041763306,
        0.1672220379114151,
        1.0580427646636963,
        0.595958948135376,
        -0.30512380599975586,
        0.6104686856269836,
        -3.369894027709961,
        -0.2857407331466675,
        0.050446584820747375,
        0.2542526125907898,
        -0.24189065396785736,
        0.04702218994498253,
        0.00961501244455576,
        -0.03536548838019371,
        0.47420236468315125,
        -0.0021412859205156565,
        9.186121940612793,
        12.66986083984375,
        -0.21955221891403198,
        -0.48374974727630615,
        -0.0016065111849457026,
        -0.16910958290100098,
        -0.5880665183067322,
        0.36326050758361816,
        0.1767277717590332,
        -0.5251603722572327,
        1.0694489479064941,
        0.1854700744152069,
        -0.26962658762931824,
        -1.0984277725219727,
        0.04126625508069992,
        0.256725549697876,
        -0.44099971652030945,
        0.0801822766661644,
        0.006157402414828539,
        -0.08933237940073013,
        -0.48659569025039673,
        -29.18726348876953,
        4.353375434875488,
        7.507171630859375,
        0.3984038531780243,
        0.12270516902208328,
        -0.33384835720062256,
        -1.8576316833496094,
        -0.9983856678009033,
        -0.8342475295066833,
        1.7141828536987305,
        -0.9258157014846802,
        0.2539328932762146,
        -1.2651033401489258,
        -2.1042768955230713,
        -0.2968524098396301,
        -5.214883804321289,
        -0.4243314862251282,
        0.28632262349128723,
        0.2749035954475403,
        -0.13529448211193085,
        -0.15775640308856964,
        -1.5988826751708984,
        -3.767709970474243,
        7.063457012176514,
        10.344154357910156,
        -0.7039790153503418,
        -5.8049774169921875,
        -0.35542434453964233,
        -0.03768078237771988,
        0.9238120913505554,
        0.6771429181098938,
        0.09586077928543091,
        -0.884913980960846,
        0.6941638588905334,
        0.2377333790063858,
        3.1821253299713135,
        -0.6038402318954468,
        0.35810142755508423,
        0.6366845965385437,
        -0.9153680801391602,
        -0.10267814993858337,
        -0.005139091517776251,
        0.05113144591450691,
        -0.5251560807228088,
        -11.014715194702148,
        -15.984454154968262,
        -14.141383171081543,
        2.2430007457733154,
        0.08050838112831116,
        -0.0818326324224472,
        -0.6070635914802551,
        1.0643926858901978,
        1.1314526796340942,
        1.2802566289901733,
        0.28752970695495605,
        -0.012660106644034386,
        -0.007924890145659447,
        -0.39333343505859375,
        -0.3699335753917694,
        0.2294265627861023,
        0.5793386101722717,
        -0.5617166757583618,
        -0.677914023399353,
        0.02626432105898857,
        -0.22160185873508453,
        -0.03590216860175133,
        -1.5973001718521118,
        -14.685136795043945,
        -8.597512245178223,
        0.28762322664260864,
        1.2415419816970825,
        0.1735660433769226,
        0.07895948737859726,
        1.5035951137542725,
        0.33858001232147217,
        0.8877312541007996,
        -1.0068150758743286,
        0.10781024396419525,
        -0.2804349362850189,
        0.3173561692237854,
        0.010558579117059708,
        -0.011327062733471394,
        -0.22097216546535492,
        0.5728137493133545,
        0.3994057774543762,
        -0.06389699131250381,
        0.4845302999019623,
        -0.11679515987634659,
        0.012541831471025944,
        19.954225540161133,
        8.023416519165039,
        -17.964200973510742,
        0.6698669791221619,
        0.1491508036851883,
        -0.06928057968616486,
        -3.041076183319092,
        0.2475728690624237,
        0.8038585186004639,
        -0.6557790040969849,
        -1.8891499042510986,
        0.4447491765022278,
        -2.5696403980255127,
        0.027916498482227325,
        0.1535968780517578,
        0.4233676791191101,
        -0.5499421954154968,
        -0.04305776581168175,
        -0.009593096561729908,
        0.07820703089237213,
        19.449983596801758,
        0.01877504028379917,
        12.500633239746094,
        11.468920707702637,
        -14.728053092956543,
        -6.702427864074707,
        -0.0005038456292822957,
        -0.023299522697925568,
        -0.30828773975372314,
        -0.2155640870332718,
        0.061687171459198,
        0.18298931419849396,
        -0.05881873518228531,
        -0.20636403560638428,
        0.7420417070388794,
        0.013081956654787064,
        0.008457571268081665,
        -0.1441161036491394,
        0.3117975890636444,
        -0.16353800892829895,
        0.018962247297167778,
        -0.06477861851453781,
        -0.7891228795051575,
        -0.007939168252050877,
        0.6496912240982056,
        -1.2336690425872803,
        -0.143548846244812,
        0.22949284315109253,
        -0.005489835515618324,
        -0.7388443350791931,
        0.47138237953186035,
        0.08496230095624924,
        -0.2848700284957886,
        1.449381709098816,
        0.4480266273021698,
        1.3237367868423462,
        -0.48988229036331177,
        -1.977981686592102,
        -7.371567726135254,
        0.032517071813344955,
        -0.2028917819261551,
        0.4201335906982422,
        -0.1636286824941635,
        -0.37561798095703125,
        -0.41912510991096497,
        -10.57194709777832,
        4.757793426513672,
        2.6962530612945557,
        -0.6701148748397827,
        0.5260984897613525,
        -0.025638777762651443,
        0.7668564319610596,
        0.1093299388885498,
        0.6039867997169495,
        -1.0441094636917114,
        -0.43499454855918884,
        -0.27819183468818665,
        -0.1311936229467392,
        0.07863429933786392,
        -0.034438762813806534,
        -0.2708563506603241,
        -0.17813150584697723,
        0.13280819356441498,
        0.24428941309452057,
        0.002452280605211854,
        -0.20695357024669647,
        2.2197048664093018,
        -0.1121872290968895,
        4.138592720031738,
        5.973873615264893,
        -3.9803898334503174,
        -1.1070101261138916,
        -1.5344290733337402,
        -2.167048931121826,
        2.637507915496826,
        -0.9406821131706238,
        1.0182241201400757,
        0.20959287881851196,
        0.27740278840065,
        1.1690142154693604,
        1.8293111324310303,
        0.16579337418079376,
        -0.05234748125076294,
        4.157314777374268,
        7.049337387084961,
        -0.6948577165603638,
        0.7853686213493347,
        -1.037381649017334,
        2.8985447883605957,
        0.13206250965595245,
        3.2629284858703613,
        5.031564712524414,
        1.0357120037078857,
        0.4583735764026642,
        0.03639686852693558,
        -5.418466567993164,
        3.020925283432007,
        -12.058239936828613,
        -3.919287919998169,
        -11.810388565063477,
        -2.2616162300109863,
        -7.700509071350098,
        7.404270172119141,
        -2.2323153018951416,
        -8.698750495910645,
        0.7500980496406555,
        -0.2582338750362396,
        -0.4768603444099426,
        -0.005184262525290251,
        -0.1458876132965088,
        1.3631755113601685,
        0.3205854594707489,
        7.172986030578613,
        2.2720377445220947,
        -0.04781133309006691,
        0.685278594493866,
        -0.5655055046081543,
        0.22367368638515472,
        2.3269731998443604,
        -0.42773449420928955,
        0.04974326491355896,
        0.7981006503105164,
        -0.4877259433269501,
        0.5293889045715332,
        -1.0804041624069214,
        -0.15827211737632751,
        0.14200617372989655,
        0.2369159460067749,
        -0.2977234721183777,
        -9.695405960083008,
        -0.006728317588567734,
        -3.0489511489868164,
        -0.6795566082000732,
        0.02667096070945263,
        14.133417129516602,
        4.042356491088867,
        -19.019372940063477,
        -1.5421169996261597,
        -0.03516189381480217,
        -0.0016830096719786525,
        0.24509772658348083,
        -0.004092495888471603,
        -0.05086979642510414,
        -0.03591171279549599,
        0.04656530171632767,
        0.07797152549028397,
        -0.29803091287612915,
        0.005344117525964975,
        0.13889725506305695,
        -0.4976944327354431,
        0.98505038022995,
        0.8120021224021912,
        0.03761429712176323,
        0.336818665266037,
        -0.4399556517601013,
        -0.009412347339093685,
        -16.99654197692871,
        -10.175472259521484,
        3.511716365814209,
        -3.238626718521118,
        0.07808548212051392,
        0.2660006284713745,
        -0.1556231677532196,
        0.3425953686237335,
        -0.3301333487033844,
        -0.15333661437034607,
        -1.7676550149917603,
        0.42898792028427124,
        -0.3997897505760193,
        -0.02229790948331356,
        -1.125797986984253,
        0.6442832350730896,
        1.4412320852279663,
        0.10808892548084259,
        0.10946527123451233,
        0.32412946224212646,
        2.1353142261505127,
        -2.757157564163208,
        9.498785972595215,
        5.896778106689453,
        1.1614371538162231,
        1.593177080154419,
        0.10271745920181274,
        -0.7671884894371033,
        -1.0243113040924072,
        -0.8145492672920227,
        0.27808117866516113,
        -0.34706225991249084,
        1.0213412046432495,
        0.9806687235832214,
        1.5953627824783325,
        -0.575570821762085,
        -1.1615098714828491,
        0.12695394456386566,
        0.0950775146484375,
        0.18605028092861176,
        0.4082513153553009,
        -0.18821106851100922,
        2.1753945350646973,
        0.10770242661237717,
        -0.2962822914123535,
        -0.6804895997047424,
        0.7164751887321472,
        -0.8843271136283875,
        0.08878433704376221,
        -4.84100866317749,
        1.8369557857513428,
        -5.127944469451904,
        -2.9367268085479736,
        -4.2056965827941895,
        0.5530304312705994,
        -1.542781949043274,
        3.793335199356079,
        -0.8796212673187256,
        -6.9997172355651855,
        0.111533023416996,
        -1.0148429870605469,
        -0.15053091943264008,
        -0.004551132209599018,
        -0.2918183505535126,
        -0.9666720032691956,
        0.04560217633843422,
        8.30864429473877,
        5.7315473556518555,
        0.4860016405582428,
        -0.4581673741340637,
        0.26467105746269226,
        0.01385323517024517,
        1.5703208446502686,
        -1.4694873094558716,
        0.22994796931743622,
        -0.7473676800727844,
        0.01751716062426567,
        0.3253129720687866,
        1.5493477582931519,
        0.13610613346099854,
        -0.03272085636854172,
        2.671112298965454,
        -1.492518663406372,
        -0.2880550026893616,
        0.08471640944480896,
        0.18184389173984528,
        0.020496336743235588,
        0.03258167952299118,
        -17.01179313659668,
        -19.320405960083008,
        -0.44904929399490356,
        0.6021424531936646,
        0.027499308809638023,
        0.01719769462943077,
        -0.006849435158073902,
        -0.9408628344535828,
        -0.24091947078704834,
        -0.8554579019546509,
        0.38158372044563293,
        0.01172799151390791,
        -0.8260359764099121,
        0.5661277770996094,
        -0.01667104661464691,
        -0.42773616313934326,
        0.765209436416626,
        0.8392646312713623,
        -0.05373409390449524,
        0.8850064277648926,
        3.6873011589050293,
        0.055599432438611984,
        -2.284332036972046,
        -2.029670238494873,
        1.1465884447097778,
        -0.31125912070274353,
        -0.6174695491790771,
        0.7379242181777954,
        2.127108097076416,
        0.6774621605873108,
        -3.588459014892578,
        0.42022621631622314,
        0.6887316703796387,
        -1.0461831092834473,
        -0.754662275314331,
        0.07218588888645172,
        -0.11361338943243027,
        -0.2911734879016876,
        0.5375314950942993,
        0.6367594003677368,
        0.06438300758600235,
        0.46452346444129944,
        -2.0485994815826416,
        -0.13293342292308807,
        -5.492194652557373,
        -2.923130989074707,
        4.833975315093994,
        2.0616774559020996,
        0.035360969603061676,
        0.7042625546455383,
        0.44156619906425476,
        -1.079311490058899,
        -1.1455491781234741,
        -1.4921040534973145,
        -1.6193345785140991,
        -0.9250931739807129,
        -1.5400185585021973,
        0.5502435564994812,
        -0.07720267027616501,
        -0.21360820531845093,
        0.33061373233795166,
        0.0422075092792511,
        0.0424574539065361,
        -0.24926719069480896,
        -0.0839807540178299,
        -8.51739501953125,
        -16.817790985107422,
        -15.794174194335938,
        -0.33870044350624084,
        -0.3057206869125366,
        0.011253138072788715,
        0.2929481565952301,
        -0.915143609046936,
        0.0787556990981102,
        0.8526365160942078,
        0.2889746427536011,
        0.06441770493984222,
        -0.5910435318946838,
        0.7180718779563904,
        -0.012986984103918076,
        0.16359665989875793,
        0.524435818195343,
        -0.5055418014526367,
        -0.03624730929732323,
        0.03423425182700157,
        0.05634865537285805,
        -19.19270896911621,
        -0.016902785748243332,
        2.565707206726074,
        5.611876964569092,
        1.9943304061889648,
        -1.1557633876800537,
        0.2321547120809555,
        -0.7011138200759888,
        0.42956995964050293,
        0.3197575807571411,
        0.964499831199646,
        -0.09564187377691269,
        -0.7915716171264648,
        -0.2555427849292755,
        -0.3359794318675995,
        0.020793143659830093,
        0.02367897517979145,
        -0.47719675302505493,
        0.4826694428920746,
        -0.014058531261980534,
        0.006019257474690676,
        0.022061241790652275,
        0.3171488642692566,
        0.03762662038207054,
        -5.854229927062988,
        -8.506467819213867,
        2.0626323223114014,
        0.5408622622489929,
        -3.2124671936035156,
        0.5460777878761292,
        1.0771857500076294,
        1.665872573852539,
        -0.1906685084104538,
        -2.2356112003326416,
        0.027624962851405144,
        0.1835131049156189,
        -2.424163818359375,
        -0.5224400758743286,
        -1.2685580253601074,
        0.35526934266090393,
        -0.30353108048439026,
        -1.9887446165084839,
        -0.014447086490690708,
        -1.6671711206436157,
        0.005318132694810629,
        0.06571650505065918,
        -14.592752456665039,
        -11.250161170959473,
        3.616227865219116,
        -2.30672287940979,
        -0.1299493908882141,
        0.31509318947792053,
        0.7124307155609131,
        -0.16100096702575684,
        -1.0261492729187012,
        -0.14239081740379333,
        0.03442917764186859,
        0.10479236394166946,
        -0.553155243396759,
        0.19712582230567932,
        -5.574265956878662,
        -0.13319158554077148,
        0.3268618583679199,
        0.26735347509384155,
        -0.053791873157024384,
        0.15949541330337524,
        0.748357355594635,
        -1.1073262691497803,
        5.706936836242676,
        3.4712910652160645,
        -0.991653561592102,
        -1.138527512550354,
        -0.10744092613458633,
        -0.002474359003826976,
        1.623647689819336,
        0.221824049949646,
        -0.7945604920387268,
        0.4690394401550293,
        -0.17033344507217407,
        0.8597323298454285,
        2.9541752338409424,
        -0.45300599932670593,
        -0.6910867691040039,
        1.360903263092041,
        -1.3375811576843262,
        -0.0016615471104159951,
        -0.010500096715986729,
        -0.03486546128988266,
        -0.28540927171707153,
        -0.22960910201072693,
        -16.56012535095215,
        -18.11203956604004,
        4.0959792137146,
        -1.8730210065841675,
        -1.4039912223815918,
        -0.2592843174934387,
        -2.0230793952941895,
        0.6352337002754211,
        0.5918019413948059,
        -0.1823398619890213,
        -0.002030908362939954,
        0.6804335117340088,
        -0.1341935694217682,
        0.020159296691417694,
        -0.17668576538562775,
        0.37535926699638367,
        -0.36069151759147644,
        0.42816463112831116,
        -0.10179615765810013,
        0.2807660400867462,
        1.324525237083435,
        -0.27814123034477234,
        -17.63117790222168,
        -11.888346672058105,
        2.104815721511841,
        1.1203548908233643,
        0.010845084674656391,
        0.43838828802108765,
        0.2876088321208954,
        -0.05306251719594002,
        -0.891358494758606,
        0.0502217598259449,
        -0.2990550696849823,
        0.4554808437824249,
        -0.32098856568336487,
        -0.033450767397880554,
        -0.00855835061520338,
        -0.46223947405815125,
        0.4085111916065216,
        0.6910346746444702,
        0.008062198758125305,
        -0.33272644877433777,
        -2.5570292472839355,
        0.014335112646222115,
        21.425779342651367,
        15.036504745483398,
        -23.16008758544922,
        -1.775585651397705,
        0.12053795158863068,
        -0.8176239728927612,
        0.7282183766365051,
        0.4320738911628723,
        0.5139461755752563,
        -0.4027886986732483,
        0.5013677477836609,
        0.7476720809936523,
        -0.045884061604738235,
        0.052915673702955246,
        0.24881573021411896,
        0.22096195816993713,
        -0.5473322868347168,
        0.06077363342046738,
        0.006638620514422655,
        -0.05678556486964226,
        0.22573690116405487,
        -15.144586563110352,
        -18.416200637817383,
        -19.70994758605957,
        0.7041634321212769,
        0.05167795717716217,
        -1.5631532669067383,
        0.06260348856449127,
        0.4000397026538849,
        -0.7042264938354492,
        0.6257073283195496,
        0.14654016494750977,
        -0.41420361399650574,
        0.6995954513549805,
        -0.6576805114746094,
        0.10271260142326355,
        0.007265606429427862,
        -0.4399881064891815,
        0.31358009576797485,
        0.05312376841902733,
        0.0013320617144927382,
        -0.061261389404535294,
        0.31599515676498413,
        0.004022665321826935,
        5.581089973449707,
        6.6358771324157715,
        2.4484496116638184,
        -5.133682727813721,
        0.0733850747346878,
        -0.010538490489125252,
        0.959269642829895,
        -0.7238327264785767,
        0.4854268431663513,
        -0.39617666602134705,
        -0.2766627073287964,
        0.3755822777748108,
        -0.5337724089622498,
        -0.6339063048362732,
        0.045385267585515976,
        -0.5631817579269409,
        0.469818651676178,
        -0.2761111259460449,
        -0.005720827728509903,
        0.3049464523792267,
        0.30919748544692993,
        -22.03786277770996,
        -37.853004455566406,
        -29.425249099731445,
        -0.6200176477432251,
        0.27121004462242126,
        0.01596110686659813,
        0.2529296875,
        -1.656678318977356,
        -0.8984396457672119,
        0.04509061202406883,
        0.6634212136268616,
        0.8175666332244873,
        -0.8154104948043823,
        1.8502683639526367,
        0.06375813484191895,
        -2.0120668411254883,
        1.4622904062271118,
        0.6660749912261963,
        0.47037383913993835,
        0.40887904167175293,
        -0.4935987889766693,
        2.707818031311035,
        -9.710376739501953,
        -13.632345199584961,
        -7.728847503662109,
        1.2633812427520752,
        -1.3866524696350098,
        -1.7347991466522217,
        0.08590298891067505,
        -1.1636013984680176,
        -0.5897142291069031,
        0.305408239364624,
        -2.9688849449157715,
        0.16449573636054993,
        -0.19280380010604858,
        -2.983177423477173,
        0.25151270627975464,
        -0.7249982953071594,
        0.11785191297531128,
        0.02044093608856201,
        -0.3572486639022827,
        0.008023293688893318,
        -0.21989025175571442,
        -0.894065260887146,
        0.017412230372428894,
        18.88874053955078,
        15.375734329223633,
        3.4399757385253906,
        2.878194808959961,
        0.031947966665029526,
        0.02103155478835106,
        -0.5699130892753601,
        -2.691603183746338,
        -0.0939183309674263,
        -0.6223809719085693,
        0.4768892824649811,
        0.06863133609294891,
        1.6024662256240845,
        0.08175215125083923,
        -1.5110288858413696,
        -1.8060294389724731,
        -2.211785078048706,
        -0.389860600233078,
        0.4876246154308319,
        0.19150777161121368,
        0.13134610652923584,
        0.07767106592655182,
        -3.580606698989868,
        -5.499257564544678,
        1.1071147918701172,
        2.4110100269317627,
        0.1261742264032364,
        -1.2611968517303467,
        -8.687292098999023,
        -1.3899199962615967,
        -1.538893461227417,
        -0.67463219165802,
        1.1877026557922363,
        0.495060533285141,
        5.632944107055664,
        -0.3892594277858734,
        0.143731027841568,
        -0.13169798254966736,
        -1.216439962387085,
        0.21582823991775513,
        -0.6329307556152344,
        -0.6129154562950134,
        1.3928707838058472,
        -2.3705267906188965,
        -1.1749775409698486,
        1.0362765789031982,
        0.714540958404541,
        -0.7984591126441956,
        -0.5653159022331238,
        0.06212275102734566,
        1.1326590776443481,
        2.5256009101867676,
        -0.09837895631790161,
        -3.3697099685668945,
        0.08001721650362015,
        -1.7054132223129272,
        -6.271042823791504,
        -0.11971311271190643,
        -2.3569540977478027,
        1.1481460332870483,
        0.20529261231422424,
        0.07859453558921814,
        -0.0065591526217758656,
        -0.19414348900318146,
        -0.7452154159545898,
        0.0292213074862957,
        6.216588020324707,
        4.886934280395508,
        -2.6420793533325195,
        0.3263742923736572,
        0.02701304666697979,
        -1.3478323221206665,
        -2.0584664344787598,
        -0.144778311252594,
        1.0469861030578613,
        0.33291327953338623,
        -0.03139396011829376,
        -0.8484395146369934,
        -1.0811725854873657,
        0.30819353461265564,
        -1.8967971801757812,
        -0.9305766224861145,
        -1.6933786869049072,
        0.12032198160886765,
        0.17221808433532715,
        -0.4916336238384247,
        -3.1597344875335693,
        -1.1615915298461914,
        -13.100251197814941,
        -15.973395347595215,
        1.9440842866897583,
        -6.250411510467529,
        -0.028677137568593025,
        -0.42481720447540283,
        -0.34187352657318115,
        0.11167145520448685,
        0.4076727628707886,
        -0.8736649751663208,
        1.050006628036499,
        -0.3310098648071289,
        0.9347692728042603,
        -0.05139794573187828,
        0.10331328958272934,
        -0.007554511073976755,
        0.014349889010190964,
        -0.0022803456522524357,
        -0.012450233101844788,
        0.04530007392168045,
        0.391907274723053,
        -0.0004147875006310642,
        4.3578901290893555,
        -3.9397873878479004,
        -1.265048861503601,
        1.7376056909561157,
        -3.9887375831604004,
        0.40375858545303345,
        0.20283637940883636,
        -0.4502638578414917,
        -0.2855975031852722,
        -0.9729906320571899,
        0.3879161775112152,
        0.885500431060791,
        -0.5867024660110474,
        -0.27410513162612915,
        -1.1224464178085327,
        0.5352325439453125,
        -1.4846525192260742,
        0.30188965797424316,
        -0.2269672304391861,
        -0.2561441659927368,
        0.2667417526245117,
        0.04759233817458153,
        4.643916130065918,
        5.853382110595703,
        2.0937576293945312,
        -3.9323060512542725,
        0.23407886922359467,
        0.32714006304740906,
        -0.9286385774612427,
        -0.38941165804862976,
        -0.41968634724617004,
        0.6432669758796692,
        0.37048837542533875,
        -0.9965715408325195,
        -0.39250558614730835,
        -0.002039365703240037,
        0.16795459389686584,
        -0.07479871809482574,
        0.04911723732948303,
        0.11953584104776382,
        0.01934286393225193,
        0.08790355920791626,
        -0.5437119603157043,
        -0.06884405016899109,
        27.055891036987305,
        23.602628707885742,
        -0.9835648536682129,
        1.1428433656692505,
        0.023790933191776276,
        -0.06508131325244904,
        0.6418918967247009,
        -1.3928072452545166,
        0.5820667743682861,
        -0.4706385135650635,
        -0.6602048873901367,
        0.09669207781553268,
        1.438148856163025,
        0.06873544305562973,
        0.09737718105316162,
        0.10989606380462646,
        -0.18334923684597015,
        0.07122471928596497,
        -0.011690010316669941,
        -0.16847649216651917,
        0.08019036054611206,
        -10.135178565979004,
        -33.37070083618164,
        -37.21510314941406,
        4.184080600738525,
        -11.607636451721191,
        -0.3825230598449707,
        -0.313078373670578,
        -0.6612938046455383,
        0.5847827196121216,
        0.41998523473739624,
        -0.6918126344680786,
        0.9649548530578613,
        -0.5269218683242798,
        0.5415026545524597,
        -0.013043798506259918,
        -2.1016461849212646,
        -0.4720676839351654,
        -0.43285447359085083,
        -0.21171168982982635,
        -0.019669756293296814,
        0.1720922738313675,
        1.3444572687149048,
        0.12141987681388855,
        16.32611656188965,
        7.901610374450684,
        -2.490299940109253,
        -0.17972131073474884,
        0.151287242770195,
        0.1841050088405609,
        -0.733311653137207,
        -1.1772757768630981,
        -0.654479444026947,
        -0.3097688555717468,
        0.3308786451816559,
        0.09223362058401108,
        0.8878424167633057,
        0.292365700006485,
        -0.05355169251561165,
        0.01479995995759964,
        -0.12916262447834015,
        0.19679470360279083,
        0.012342087924480438,
        -0.17199420928955078,
        -0.18480128049850464,
        -0.013566919602453709,
        -15.823138236999512,
        -15.344308853149414,
        3.721402883529663,
        1.1436301469802856,
        -0.33450761437416077,
        -0.05623065307736397,
        2.3677523136138916,
        -0.338940292596817,
        -0.2544589638710022,
        0.20806282758712769,
        -0.790137767791748,
        0.8418188691139221,
        1.181120753288269,
        -0.14335455000400543,
        -0.6761583089828491,
        -0.2720318138599396,
        0.321041077375412,
        0.1356642097234726,
        0.011084896512329578,
        -0.13038860261440277,
        -0.3251257538795471,
        -7.21589994430542,
        -25.129087448120117,
        -32.5413818359375,
        1.1348600387573242,
        -1.991987943649292,
        -0.536892294883728,
        0.1372172087430954,
        1.7196296453475952,
        -1.1508862972259521,
        0.5309740900993347,
        -2.7417683601379395,
        -0.3536500334739685,
        2.1818459033966064,
        -1.2264093160629272,
        -0.8788230419158936,
        0.060638174414634705,
        -2.4372804164886475,
        0.9818152785301208,
        -0.024567196145653725,
        -0.06628348678350449,
        -0.03049161285161972,
        0.1978839784860611,
        -0.0007873326539993286,
        -17.206071853637695,
        -13.73396110534668,
        1.5758695602416992,
        0.4180701673030853,
        -0.05281022936105728,
        -0.5020509362220764,
        0.21711860597133636,
        1.3090929985046387,
        0.3893733024597168,
        0.17605017125606537,
        0.04515799134969711,
        -0.09539704769849777,
        -0.17028163373470306,
        0.0015549911186099052,
        -0.1139238178730011,
        -0.022739352658391,
        -0.1549224704504013,
        -2.824894905090332,
        -0.0007622268749400973,
        -0.7522619962692261,
        -0.28560304641723633,
        0.17601649463176727,
        -14.614581108093262,
        -9.63631820678711,
        3.737767457962036,
        0.013297907076776028,
        -0.09018770605325699,
        -0.1763000637292862,
        -0.9770528078079224,
        0.43856263160705566,
        0.03865503519773483,
        0.3615800738334656,
        -0.4272242486476898,
        0.1642715185880661,
        -1.018290638923645,
        -0.032328855246305466,
        -4.619396209716797,
        0.2916063964366913,
        -0.35070136189460754,
        -0.21630331873893738,
        0.0048623341135680676,
        0.19608759880065918,
        1.1697036027908325,
        -29.225112915039062,
        13.104963302612305,
        14.766904830932617,
        -1.3570119142532349,
        0.0774531215429306,
        0.22932668030261993,
        -0.28641098737716675,
        0.16899138689041138,
        0.7813471555709839,
        0.5718080401420593,
        -0.14458394050598145,
        0.17165666818618774,
        0.1442137360572815,
        -1.4640346765518188,
        -0.01815440133213997,
        -0.00029003742383792996,
        0.3395632207393646,
        -0.38580697774887085,
        -0.18640872836112976,
        -0.032978031784296036,
        -0.6897727847099304,
        -0.8869463205337524,
        0.028059205040335655,
        -4.397241115570068,
        -1.8823455572128296,
        -4.741643905639648,
        -8.283950805664062,
        0.25829556584358215,
        -2.8393619060516357,
        -1.766670823097229,
        -0.4585384130477905,
        0.4102622866630554,
        -0.685372531414032,
        0.8395678997039795,
        -0.6181907653808594,
        1.0367980003356934,
        0.5245863795280457,
        -0.006796959321945906,
        -0.8098323345184326,
        0.4950719177722931,
        -0.21562203764915466,
        0.06197158992290497,
        0.29169097542762756,
        12.637839317321777,
        0.09451952576637268,
        -13.433457374572754,
        -14.154520034790039,
        5.98216438293457,
        -4.455667018890381,
        0.02703467383980751,
        -0.5087385177612305,
        0.9300928711891174,
        0.452784925699234,
        0.44813987612724304,
        -0.2922587990760803,
        -0.11870034784078598,
        0.7650155425071716,
        -1.109692096710205,
        0.01926584169268608,
        0.3197900950908661,
        0.10749059915542603,
        -0.04046735167503357,
        -0.5817098021507263,
        0.0399099625647068,
        -0.5844911336898804,
        0.7500359416007996,
        -0.1921393871307373,
        -7.729260444641113,
        2.566849708557129,
        -2.8017334938049316,
        -0.34890857338905334,
        0.09576296806335449,
        1.017466425895691,
        0.17396028339862823,
        -1.094298005104065,
        -0.004584218375384808,
        -0.9403475522994995,
        -0.90141361951828,
        -0.7644287943840027,
        0.354023277759552,
        -0.05112418532371521,
        0.020180949941277504,
        -2.8823087215423584,
        0.5534197092056274,
        0.05304646119475365,
        0.04318790137767792,
        0.13862097263336182,
        -0.5239337086677551,
        -0.24883827567100525,
        -7.4197258949279785,
        -13.362310409545898,
        0.15801475942134857,
        -0.1980176717042923,
        0.16835008561611176,
        0.35469144582748413,
        -0.009595793671905994,
        -0.295500248670578,
        0.17232772707939148,
        -0.06435573101043701,
        -0.12635236978530884,
        -0.40683314204216003,
        -0.26648038625717163,
        -0.13270562887191772,
        -0.006507351528853178,
        0.06947255879640579,
        -0.004072678275406361,
        -0.5597712397575378,
        -0.011325359344482422,
        0.0301784910261631,
        0.4095495045185089,
        -27.45079803466797,
        -14.88006591796875,
        -8.633286476135254,
        1.1701898574829102,
        0.2595733106136322,
        -0.24081075191497803,
        0.3245464563369751,
        -0.1608014553785324,
        -1.4960297346115112,
        -0.03213151916861534,
        -0.11330727487802505,
        -0.2795369327068329,
        -1.0894780158996582,
        2.069845199584961,
        0.5975044369697571,
        0.2621408700942993,
        0.023925088346004486,
        0.8827781081199646,
        -0.1114930659532547,
        0.12209463119506836,
        -0.021701157093048096,
        -1.0069316625595093,
        -23.93351173400879,
        -1.6341370344161987,
        0.8934271335601807,
        -0.6743490695953369,
        0.21248555183410645,
        -0.04697661101818085,
        -0.9690839052200317,
        -9.05752944946289,
        -0.6163145899772644,
        0.9450894594192505,
        0.20022745430469513,
        0.6744647026062012,
        -1.9704333543777466,
        0.6951245665550232,
        0.22188183665275574,
        -5.241313457489014,
        0.40606889128685,
        0.1394200176000595,
        0.12271377444267273,
        -0.01105483341962099,
        -0.13210682570934296,
        -0.5758902430534363,
        -22.89896011352539,
        15.043935775756836,
        15.85862922668457,
        -0.6345741152763367,
        -2.110712766647339,
        0.09563753753900528,
        0.19767476618289948,
        -1.0503417253494263,
        -0.4773913323879242,
        -0.6402574777603149,
        -0.015877140685915947,
        0.7912263870239258,
        0.15684208273887634,
        0.7084675431251526,
        0.0516570582985878,
        0.31033870577812195,
        0.3190530836582184,
        -0.7164567708969116,
        -0.36328402161598206,
        -0.05947309359908104,
        -1.0955262184143066,
