{
  "inputs": [
    {
      "name": "trk_pt",
      "offset": 0,
      "scale": 1
    },
    {
      "name": "trk_eta",
      "offset": 0,
      "scale": 1
    },
    {
      "name": "trk_lambda",
      "offset": 0,
      "scale": 1
    },
    {
      "name": "trk_dxy",
      "offset": 0,
      "scale": 1
    },
    {
      "name": "trk_dz",
      "offset": 0,
      "scale": 1
    },
    {
      "name": "trk_dxyClosestPV",
      "offset": 0,
      "scale": 1
    },
    {
      "name": "trk_dzClosestPVNorm",
      "offset": 0,
      "scale": 1
    },
    {
      "name": "trk_ptErr",
      "offset": 0,
      "scale": 1
    },
    {
      "name": "trk_etaErr",
      "offset": 0,
      "scale": 1
    },
    {
      "name": "trk_lambdaErr",
      "offset": 0,
      "scale": 1
    },
    {
      "name": "trk_dxyErr",
      "offset": 0,
      "scale": 1
    },
    {
      "name": "trk_dzErr",
      "offset": 0,
      "scale": 1
    },
    {
      "name": "trk_nChi2",
      "offset": 0,
      "scale": 1
    },
    {
      "name": "trk_ndof",
      "offset": 0,
      "scale": 1
    },
    {
      "name": "trk_nInvalid",
      "offset": 0,
      "scale": 1
    },
    {
      "name": "trk_nPixel",
      "offset": 0,
      "scale": 1
    },
    {
      "name": "trk_nStrip",
      "offset": 0,
      "scale": 1
    },
    {
      "name": "trk_nPixelLay",
      "offset": 0,
      "scale": 1
    },
    {
      "name": "trk_nStripLay",
      "offset": 0,
      "scale": 1
    },
    {
      "name": "trk_n3DLay",
      "offset": 0,
      "scale": 1
    },
    {
      "name": "trk_nLostLay",
      "offset": 0,
      "scale": 1
    },
    {
      "name": "trk_algo",
      "offset": 0,
      "scale": 1
    }
  ],
  "layers": [
    {
      "activation": "rectified",
      "architecture": "dense",
      "bias": [
        -0.3541078269481659,
        1.7260044813156128,
        -1.7308921813964844,
        1.6421623229980469,
        -0.5678637623786926,
        -0.740060031414032,
        0.9195171594619751,
        -0.3378602862358093,
        1.9699715375900269,
        -0.8935732245445251,
        -0.5448147058486938,
        -1.3628017902374268,
        -0.5419037938117981,
        -0.40516921877861023,
        0.556443452835083,
        2.0528862476348877,
        -1.6372389793395996,
        -0.2564040422439575,
        0.18183863162994385,
        1.4491803646087646,
        -4.9331865310668945,
        0.126896932721138,
        0.31153467297554016,
        1.7984896898269653,
        -0.2673693299293518,
        -0.066374272108078,
        -0.8830487132072449,
        -2.0439257621765137,
        -0.4553266763687134,
        0.44196653366088867,
        0.6090183854103088,
        2.063845157623291,
        0.8441162109375,
        0.5307348370552063,
        0.2140434980392456,
        -0.23567838966846466,
        0.5162392258644104,
        0.2014060616493225,
        -1.588744044303894,
        -0.20044328272342682,
        -0.5897597074508667,
        -0.6399672627449036,
        0.40030115842819214,
        0.32878848910331726,
        -0.4779070019721985,
        -2.1931610107421875,
        -0.0595155693590641,
        1.6115189790725708,
        -0.7589869499206543,
        0.33522486686706543,
        -1.6057897806167603,
        -0.7711449861526489,
        0.267042875289917,
        0.3016880452632904,
        0.2006542831659317,
        -1.3684194087982178,
        -0.8030462861061096,
        0.2880657911300659,
        0.2178138792514801,
        1.6500827074050903,
        -0.3985861837863922,
        -0.9267392754554749,
        -4.768492698669434,
        -0.8938530683517456,
        0.10313666611909866,
        1.2079821825027466,
        -1.3764559030532837,
        0.50288987159729,
        -1.1086715459823608,
        -0.9990680813789368,
        -0.5927059650421143,
        0.38899293541908264,
        -0.3486224114894867,
        -0.898213267326355,
        -0.41043031215667725,
        2.26369047164917,
        -0.7557421326637268,
        0.9123252034187317,
        -1.0869685411453247,
        0.14784951508045197,
        -0.4520779550075531,
        -1.5848428010940552,
        -1.064714789390564,
        0.6888335347175598,
        0.6097572445869446,
        -0.5036427974700928,
        0.26922520995140076,
        -2.571356773376465,
        -0.5681294798851013,
        0.961778998374939,
        -0.4087945818901062,
        -1.4608814716339111,
        -0.28278642892837524,
        0.23228299617767334,
        -2.648939371109009,
        -1.4079253673553467,
        -0.12013072520494461,
        0.45646390318870544,
        0.7693530917167664,
        -0.32106709480285645,
        -0.7426102161407471,
        -0.2601732015609741,
        0.47923415899276733,
        -0.14988385140895844,
        -1.03975510597229,
        -0.2834647595882416,
        1.3698348999023438,
        -0.07483193278312683,
        -0.9866441488265991,
        -2.9499928951263428,
        0.9573543667793274,
        0.8584451675415039,
        -0.5750007629394531,
        -0.06085893511772156,
        -0.7593101859092712,
        -1.5742919445037842,
        -0.1527119129896164,
        -1.6573739051818848,
        -1.9174045324325562,
        0.18586869537830353,
        0.270920068025589,
        0.5427959561347961,
        0.5151215195655823,
        -1.8471277952194214,
        -0.7986244559288025,
        0.43089839816093445,
        1.1918607950210571,
        -1.3636082410812378,
        2.6756746768951416,
        0.8569925427436829,
        0.7401257753372192,
        1.324829339981079,
        -1.438133716583252,
        -1.034017562866211,
        0.17564117908477783,
        -1.2552193403244019,
        -0.8773648142814636,
        0.26910096406936646,
        2.907949686050415,
        -1.7548449039459229,
        0.6841445565223694,
        -0.5400059819221497,
        -2.19962739944458,
        -0.03435741364955902,
        1.3769230842590332,
        1.634724736213684,
        -0.5713794827461243,
        2.43585467338562,
        0.6465296745300293,
        1.057090163230896,
        1.5199626684188843,
        1.5725302696228027,
        -0.01344702485948801,
        -1.286371111869812,
        -0.21850599348545074,
        -0.32976004481315613,
        -1.3496370315551758,
        0.5969529151916504,
        -0.4649598002433777,
        -0.16353775560855865,
        0.9860773682594299,
        0.19289763271808624,
        0.5997155904769897,
        -0.01454164832830429,
        1.525009274482727,
        0.09086903184652328,
        0.36451083421707153,
        -0.8689070343971252,
        -1.6578254699707031,
        2.6503844261169434,
        1.5143717527389526,
        1.1263116598129272,
        -0.16390058398246765,
        -1.7827379703521729,
        -1.0934622287750244,
        -0.4956932067871094,
        -0.9522278904914856,
        -0.6951578855514526,
        -0.04926278442144394,
        -2.620313882827759,
        -1.1666978597640991,
        -0.5373286008834839,
        0.9871004819869995,
        0.7522199153900146,
        -1.9107568264007568,
        -1.7375786304473877,
        1.4931925535202026,
        -0.816711962223053,
        0.38256004452705383,
        -0.28420284390449524,
        -0.5596292614936829,
        0.5024944543838501,
        -0.8107401728630066,
        -1.5173298120498657,
        0.627705454826355,
        0.22732415795326233,
        -0.7584052681922913,
        0.8140652775764465,
        -0.5376728177070618,
        -0.9453085064888,
        -0.4402164816856384,
        -1.1516783237457275,
        -0.1313861608505249,
        2.365823745727539,
        -1.3616082668304443,
        0.7691793441772461,
        -0.27057337760925293,
        -0.8232916593551636,
        -0.2564772367477417,
        0.5159830451011658,
        -1.0778406858444214,
        -0.3515721261501312,
        -2.959465742111206,
        -0.8814281821250916,
        1.6255394220352173,
        0.2162986546754837,
        0.39254966378211975,
        0.006283543072640896,
        -0.8724716901779175,
        -0.8430639505386353,
        -2.121469736099243,
        -0.9707569479942322,
        0.16680340468883514,
        1.309813141822815,
        2.381276845932007,
        -0.7738446593284607,
        -0.20459218323230743,
        -2.5291738510131836,
        1.9625047445297241,
        -1.2321901321411133,
        0.8589960336685181,
        1.2227327823638916,
        -1.1878244876861572,
        1.103139042854309,
        -1.328391432762146,
        -0.18365763127803802,
        -1.0899858474731445,
        -1.3158313035964966,
        -1.0725423097610474,
        -0.7864554524421692,
        2.431593418121338,
        -1.1689131259918213,
        -0.7006819844245911,
        -2.8257334232330322,
        0.08576055616140366,
        0.6474253535270691,
        0.0400666818022728,
        -0.48782339692115784,
        2.5346853733062744,
        -1.2949637174606323,
        0.2095765918493271,
        -0.6989973783493042,
        1.1504406929016113,
        -0.4788467288017273,
        0.08883450925350189,
        -0.6086158752441406,
        -1.362359642982483,
        -0.5047563910484314,
        1.0132496356964111,
        -0.3852574825286865,
        1.4057124853134155,
        -1.596150517463684,
        -1.3255695104599,
        -0.7985474467277527,
        -0.7338660955429077,
        0.008546728640794754,
        -1.499472737312317,
        1.5628434419631958,
        -1.8836607933044434,
        -1.0713680982589722,
        0.42545557022094727,
        -0.6848172545433044,
        0.7358770370483398,
        1.3080403804779053,
        -0.5303078889846802,
        -0.6393600702285767,
        1.3996907472610474,
        1.450879693031311,
        -0.7741057872772217,
        -0.21523268520832062,
        1.4323967695236206,
        1.4899429082870483,
        0.6321740746498108,
        -1.248195767402649,
        -2.305945873260498,
        0.16869507730007172,
        -1.9329373836517334,
        -0.4091339409351349,
        1.408453345298767,
        0.17931275069713593,
        0.23031868040561676,
        -0.9239403605461121,
        0.01680907979607582,
        0.7242016196250916,
        -1.6670045852661133,
        2.329045057296753,
        -0.3562382757663727,
        -3.89460825920105,
        -0.3572598397731781,
        0.30358731746673584
      ],
      "weights": [
        -0.13361285626888275,
        0.03879857808351517,
        0.10736057907342911,
        0.025947395712137222,
        -0.02107173204421997,
        -0.05299057811498642,
        -0.005708876997232437,
        -0.014282379299402237,
        -0.3724772334098816,
        -0.3415209650993347,
        -0.42098623514175415,
        -0.4020316004753113,
        -0.014477178454399109,
        -0.3761810064315796,
        -0.06281965970993042,
        -0.08164047449827194,
        -0.3606271743774414,
        -0.29984837770462036,
        -0.3412950336933136,
        -0.28864240646362305,
        0.06909240782260895,
        -0.4119741916656494,
        0.011326717212796211,
        4.292166233062744,
        4.248011112213135,
        0.23323452472686768,
        -0.2597636878490448,
        0.27680227160453796,
        0.6336272954940796,
        0.0214934591203928,
        0.99639493227005,
        -0.4063083231449127,
        -3.570297956466675,
        -0.685475766658783,
        0.16909268498420715,
        -0.8757208585739136,
        1.371802568435669,
        -0.6462619304656982,
        -0.5896116495132446,
        -0.6974475979804993,
        -0.1334061622619629,
        -0.6414663791656494,
        1.242327094078064,
        0.02262336201965809,
        -0.6948254108428955,
        0.4839879274368286,
        -0.5878329277038574,
        0.11309602111577988,
        0.00709585240110755,
        0.04993855580687523,
        -0.6651776432991028,
        0.016707677394151688,
        -3.023603677749634,
        -1.8201816082000732,
        -0.2856360971927643,
        -0.3499145805835724,
        0.12639908492565155,
        -0.05790124461054802,
        0.9992048740386963,
        -0.18871840834617615,
        0.7862469553947449,
        -0.5318877100944519,
        0.05933484807610512,
        0.024979611858725548,
        0.2874390482902527,
        -0.28825023770332336,
        0.018959226086735725,
        0.42470598220825195,
        0.08653195947408676,
        0.19663254916667938,
        -0.022391965612769127,
        0.26061534881591797,
        -1.7805973291397095,
        -0.0068077812902629375,
        -5.716953754425049,
        -5.479405879974365,
        3.3925206661224365,
        -0.4726635813713074,
        -0.30027297139167786,
        -0.9598315954208374,
        0.4119064211845398,
        0.28250256180763245,
        0.7577605843544006,
        0.0622757263481617,
        -0.028869641944766045,
        0.1752704232931137,
        0.024145741015672684,
        -0.04582938924431801,
        -0.08460315316915512,
        -0.8762786388397217,
        -0.3432978391647339,
        0.05072898790240288,
        -0.45281025767326355,
        0.07862704992294312,
        -0.10677480697631836,
        0.002484892727807164,
        -1.810743808746338,
        -2.5330519676208496,
        0.9094111919403076,
        0.603205680847168,
        -0.22937428951263428,
        -0.20337921380996704,
        -2.2556071281433105,
        -1.6681362390518188,
        -0.6315665245056152,
        -1.4843119382858276,
        -0.791283369064331,
        1.4405388832092285,
        0.24447116255760193,
        -0.9857375621795654,
        0.014136437326669693,
        1.0987441539764404,
        0.9913778305053711,
        -0.4470331370830536,
        -0.01928720250725746,
        -0.3365322947502136,
        0.15289922058582306,
        -0.03374303877353668,
        0.39931178092956543,
        -0.468382865190506,
        0.2077464610338211,
        0.9449567198753357,
        -2.9759719371795654,
        0.2937602698802948,
        -0.047171253710985184,
        -0.3253535032272339,
        -0.049529146403074265,
        -0.14447355270385742,
        -0.5854294300079346,
        0.11405003070831299,
        0.39020851254463196,
        -0.01761815696954727,
        -0.05508977919816971,
        -1.2310224771499634,
        -1.5399314165115356,
        0.011336570605635643,
        0.010148357599973679,
        0.15056684613227844,
        0.18826118111610413,
        -0.02101713791489601,
        1.5913431644439697,
        0.6791441440582275,
        0.9141755104064941,
        1.4267857074737549,
        -0.21907341480255127,
        0.05711866170167923,
        -1.4180926084518433,
        -1.0675846338272095,
        0.10226938128471375,
        -0.665437638759613,
        0.5012888312339783,
        -0.2327016294002533,
        -1.1981236934661865,
        -0.4575951397418976,
        -0.0047538685612380505,
        -0.2880312502384186,
        -0.5693562626838684,
        -0.0033268181141465902,
        0.021699652075767517,
        -0.014002024196088314,
        -0.009366041980683804,
        -0.010698942467570305,
        10.771842956542969,
        13.073543548583984,
        -1.5429717302322388,
        -2.5503346920013428,
        0.05204704776406288,
        0.3306867778301239,
        1.0426032543182373,
        -1.5611555576324463,
        0.45023199915885925,
        -1.3389378786087036,
        0.2444419264793396,
        -1.4875258207321167,
        -1.338573932647705,
        -0.32197630405426025,
        0.0036305563990026712,
        3.4442312717437744,
        4.117218017578125,
        0.056863248348236084,
        0.03154544532299042,
        0.12437119334936142,
        -0.06044534221291542,
        -0.0004877414903603494,
        4.059985160827637,
        1.978316307067871,
        -2.163179636001587,
        0.2383783608675003,
        0.12753617763519287,
        -0.22177450358867645,
        0.5307841300964355,
        -0.28008678555488586,
        -0.9037315249443054,
        -0.215022012591362,
        0.34627074003219604,
        -0.46177834272384644,
        0.4847399592399597,
        -0.006616094149649143,
        -0.4011835753917694,
        -0.18910011649131775,
        -0.09508675336837769,
        -0.7492825388908386,
        0.07164253294467926,
        -0.8725259304046631,
        0.09327832609415054,
        0.008905395865440369,
        0.22484968602657318,
        0.881111741065979,
        -0.08487936854362488,
        -0.5555464029312134,
        0.01904737763106823,
        -2.471055746078491,
        -0.47051844000816345,
        -1.2332096099853516,
        -0.512252688407898,
        -0.8871375322341919,
        -0.1785745918750763,
        -1.2399846315383911,
        0.7971151471138,
        -0.5993764400482178,
        -0.3843885660171509,
        0.3274889290332794,
        -0.5093716382980347,
        2.187241792678833,
        -0.05064050108194351,
        2.2081944942474365,
        0.12047290802001953,
        -0.12294591963291168,
        -6.040873050689697,
        -5.146110534667969,
        0.9943771958351135,
        0.024757960811257362,
        -0.0972401425242424,
        -0.014288305304944515,
        0.11974149197340012,
        -0.3738515377044678,
        0.029877258464694023,
        -0.4089961349964142,
        0.4269876182079315,
        -0.5821661353111267,
        1.1679842472076416,
        0.2805110216140747,
        -0.03413737192749977,
        -1.2163783311843872,
        -0.44205427169799805,
        -0.03368829935789108,
        -0.0017230610828846693,
        0.058399464935064316,
        -0.27599620819091797,
        0.0069854650646448135,
        -11.710333824157715,
        -17.01133918762207,
        0.6896495819091797,
        -0.20154596865177155,
        0.5303675532341003,
        0.43696606159210205,
        0.2522650957107544,
        -0.3537499010562897,
        -0.19768530130386353,
        -0.2325151562690735,
        0.1836458295583725,
        -0.3677559196949005,
        -0.3477528393268585,
        -0.1295960247516632,
        -0.010608617216348648,
        0.2156018763780594,
        0.21107570827007294,
        0.16984951496124268,
        -0.002004028530791402,
        0.05072381719946861,
        -0.07908295840024948,
        0.014152424409985542,
        -3.494863986968994,
        -4.14834451675415,
        1.3124417066574097,
        0.29650676250457764,
        -0.21126829087734222,
        0.25106608867645264,
        0.2908554673194885,
        1.2653262615203857,
        -5.608518123626709,
        1.0505144596099854,
        -2.128682851791382,
        0.2905379831790924,
        0.03681105747818947,
        -0.027382366359233856,
        0.08440624922513962,
        0.24543072283267975,
        -0.1397378146648407,
        0.10332758724689484,
        -0.03752531111240387,
        -0.14064514636993408,
        0.06250157207250595,
        -3.7446084022521973,
        -12.815157890319824,
        -10.280769348144531,
        1.291043996810913,
        0.04157540202140808,
        -0.02715657465159893,
        -0.04491948336362839,
        -0.38066619634628296,
        0.26194852590560913,
        0.20231392979621887,
        0.11130281537771225,
        0.019905442371964455,
        -0.028138965368270874,
        0.28218066692352295,
        -0.0016405796632170677,
        0.061673808842897415,
        -0.2097889631986618,
        -0.3345230221748352,
        -0.004938118625432253,
        0.012288431636989117,
        -0.0640094205737114,
        -0.3305007219314575,
        -1.5358928442001343,
        -17.860437393188477,
        -16.519615173339844,
        -1.894813895225525,
        -4.465358257293701,
        -0.6005210876464844,
        -0.1964760571718216,
        -0.15483953058719635,
        -0.04753826931118965,
        0.18562312424182892,
        0.15826642513275146,
        0.470566064119339,
        -0.23787014186382294,
        0.2869233191013336,
        -0.21207360923290253,
        0.005456356797367334,
        0.5603243112564087,
        0.012542120181024075,
        0.11503088474273682,
        -0.009083009324967861,
        0.03259586542844772,
        0.4094710052013397,
        -0.00023484713165089488,
        7.3306379318237305,
        6.034705638885498,
        -15.234664916992188,
        -3.279315710067749,
        -0.12711197137832642,
        -0.37849533557891846,
        -0.5803889036178589,
        0.8927374482154846,
        -0.21310490369796753,
        0.8235018253326416,
        -0.4135492444038391,
        0.1418941169977188,
        0.13828636705875397,
        0.01638142578303814,
        -1.8985466957092285,
        -0.5996723771095276,
        0.026509998366236687,
        0.08647233992815018,
        0.08613259345293045,
        0.05912177264690399,
        -0.19452370703220367,
        -2.297184705734253,
        1.1248972415924072,
        3.34366774559021,
        -0.06653071939945221,
        0.5949037075042725,
        -1.7038216590881348,
        0.10692202299833298,
        1.0305366516113281,
        0.03195498511195183,
        1.0299233198165894,
        -1.0275065898895264,
        0.11180125176906586,
        -0.33451464772224426,
        -0.34806808829307556,
        -0.4890272915363312,
        0.08516014367341995,
        0.7456415891647339,
        0.885481595993042,
        0.04110964015126228,
        -0.12617409229278564,
        -0.16871224343776703,
        -0.6076000928878784,
        -0.6330801248550415,
        -2.342785358428955,
        -1.6993144750595093,
        -3.3537442684173584,
        0.2747841775417328,
        -1.5424329042434692,
        -0.11046165972948074,
        0.5639273524284363,
        -0.2771022617816925,
        0.1343773752450943,
        -0.27614280581474304,
        0.5377485752105713,
        -0.5433134436607361,
        0.9114298820495605,
        0.02307933010160923,
        0.0025872124824672937,
        1.7680155038833618,
        -0.2497452348470688,
        0.36485639214515686,
        0.028278805315494537,
        0.33959105610847473,
        -0.5387094020843506,
        0.0062722619622945786,
        -9.814491271972656,
        -7.92148494720459,
        1.7981228828430176,
        -0.6946277618408203,
        -0.09733950346708298,
        -0.5573622584342957,
        -2.2758195400238037,
        0.4624894857406616,
        0.5935457944869995,
        0.18851633369922638,
        -0.598480224609375,
        0.40593594312667847,
        -2.240293264389038,
        0.01940731145441532,
        -0.024650463834404945,
        -0.2732621729373932,
        -1.217360019683838,
        -0.035534728318452835,
        -0.15642663836479187,
        -0.10577457398176193,
        -0.49646034836769104,
        0.005466260015964508,
        1.7544569969177246,
        0.39084628224372864,
        2.8806302547454834,
        0.6018873453140259,
        0.07001503556966782,
        -0.11883767694234848,
        -0.8673643469810486,
        -1.158477544784546,
        -0.286661833524704,
        -1.0623489618301392,
        0.06294398754835129,
        -0.5079464316368103,
        -0.09742444008588791,
        0.4258546233177185,
        -0.3552090525627136,
        0.09563779085874557,
        0.12469007074832916,
        0.12937888503074646,
        0.42288902401924133,
        0.09562937170267105,
        0.4595211446285248,
        0.028152035549283028,
        -0.7993752360343933,
        -0.15936967730522156,
        -2.5486364364624023,
        -1.6155751943588257,
        -1.7134650945663452,
        -5.594998359680176,
        1.8819249868392944,
        -5.212680339813232,
        -3.4075727462768555,
        -4.955006122589111,
        -3.2545251846313477,
        -5.462314605712891,
        2.136364221572876,
        -2.963958263397217,
        0.044428057968616486,
        1.302159309387207,
        0.8703582882881165,
        -0.08018696308135986,
        0.04583779722452164,
        -0.03576261177659035,
        0.1393681764602661,
        -0.13751746714115143,
        -1.219683289527893,
        -0.6395407319068909,
        -3.532914638519287,
        0.8668286204338074,
        0.031059646978974342,
        -0.6675521731376648,
        1.3603286743164062,
        -0.3524262309074402,
        -0.7454237937927246,
        -0.40810808539390564,
        -0.21854142844676971,
        -0.5508851408958435,
        1.4005533456802368,
        -0.007719371467828751,
        0.057267721742391586,
        -0.004501855932176113,
        0.051662955433130264,
        -0.42058849334716797,
        -0.030746055766940117,
        -0.38789448142051697,
        0.041331563144922256,
        -1.9981063604354858,
        -17.922142028808594,
        -16.18174934387207,
        -0.7413141131401062,
        -4.602941989898682,
        -1.064563512802124,
        -0.11791274696588516,
        0.45800039172172546,
        0.30537161231040955,
        0.1492496132850647,
        0.06136738881468773,
        0.056476328521966934,
        0.15989330410957336,
        0.766356885433197,
        -0.005799791309982538,
        -0.2519797682762146,
        -0.2604496479034424,
        -1.506235122680664,
        -0.011523394845426083,
        0.013349723070859909,
        -0.013577516190707684,
        0.007217415142804384,
        -0.11011870950460434,
        5.700793266296387,
        3.829289197921753,
        -5.109609603881836,
        -0.23860907554626465,
        -0.39057695865631104,
        0.33955878019332886,
        0.2951957583427429,
        -0.366456538438797,
        -0.5043570399284363,
        -0.15839463472366333,
        0.42712265253067017,
        -0.3925457000732422,
        0.09637647122144699,
        0.040881283581256866,
        -0.024101270362734795,
        -0.18185006082057953,
        -0.1633177101612091,
        -0.0035057207569479942,
        0.0248784888535738,
        0.015350459143519402,
        -0.009975725784897804,
        -0.03145657479763031,
        -0.20905235409736633,
        0.008351312950253487,
        -0.23162388801574707,
        -0.4204590618610382,
        -0.05705585330724716,
        -0.19225630164146423,
        0.04520641639828682,
        -0.1607808917760849,
        -0.13517533242702484,
        -0.27268776297569275,
        -0.11050044000148773,
        -0.18698778748512268,
        -0.025369292125105858,
        -0.26689639687538147,
        -0.2731667160987854,
        -0.27693086862564087,
        0.2711387872695923,
        -0.09432409703731537,
        -0.03458348661661148,
        -0.20507359504699707,
        -0.5989222526550293,
        0.059650711715221405,
        -1.6028380393981934,
        -3.587249755859375,
        2.706857204437256,
        -0.3012271225452423,
        0.11558842658996582,
        0.18690557777881622,
        -0.029076604172587395,
        1.2613972425460815,
        -5.845174789428711,
        0.8323126435279846,
        -1.8409641981124878,
        0.23573531210422516,
        0.0784166157245636,
        0.00727632362395525,
        0.10567738115787506,
        0.06257792562246323,
        0.27918773889541626,
        -0.0469527393579483,
        -0.4836640954017639,
        -0.12465158849954605,
        -0.10603403300046921,
        -0.3031403720378876,
        0.7067422270774841,
        1.4031621217727661,
        -0.7957895398139954,
        0.7977504730224609,
        -2.7661490440368652,
        -0.2595105767250061,
        -0.33670568466186523,
        -0.23769603669643402,
        -0.16690891981124878,
        -0.29174306988716125,
        0.29086488485336304,
        -0.4851544201374054,
        -0.07239867001771927,
        -0.3060704171657562,
        -0.25069621205329895,
        0.3350526690483093,
        0.19825516641139984,
        -0.6051839590072632,
        -0.022549809888005257,
        -0.6828780770301819,
        -0.46372443437576294,
        -0.016000274568796158,
        4.305315017700195,
        1.9468483924865723,
        -3.706813097000122,
        -0.010198011994361877,
        0.26659733057022095,
        -0.32126009464263916,
        -2.2414660453796387,
        -3.4033806324005127,
        -0.36630529165267944,
        -3.4820384979248047,
        -0.6266422271728516,
        -2.435765504837036,
        -3.1009881496429443,
        -1.4558686017990112,
        0.06548047810792923,
        -1.0656999349594116,
        -1.0359983444213867,
        0.8816195130348206,
        -0.16249367594718933,
        0.8932496905326843,
        0.17482808232307434,
        -0.07120110094547272,
        3.52032470703125,
        -0.18906357884407043,
        -0.3559470772743225,
        -0.43781939148902893,
        0.11441881209611893,
        0.1730145961046219,
        -0.4959303140640259,
        -1.846097469329834,
        -1.068044900894165,
        -2.050570487976074,
        -1.1138057708740234,
        -0.7697516679763794,
        -1.4450761079788208,
        -0.6019898056983948,
        -0.002302678534761071,
        -0.14130185544490814,
        0.14372608065605164,
        10.989901542663574,
        0.018267568200826645,
        10.904152870178223,
        5.756121635437012,
        8.331597928190604e-05,
        8.402322769165039,
        7.043279647827148,
        1.8215680122375488,
        0.22486291825771332,
        0.005507849156856537,
        0.039715979248285294,
        -0.08354105055332184,
        -0.0809585452079773,
        -0.09227742999792099,
        -0.02871415577828884,
        0.024691959843039513,
        -0.016863925382494926,
        -0.11883743107318878,
        0.0010280173737555742,
        -0.01827436313033104,
        -0.05129885673522949,
        0.1638507843017578,
        0.2530896067619324,
        -0.465227335691452,
        0.3035869896411896,
        -0.004596295766532421,
        0.006553409621119499,
        -1.0422908067703247,
        -1.37544584274292,
        -2.247694730758667,
        -0.05094624683260918,
        0.4325663149356842,
        -0.18645671010017395,
        -0.44058746099472046,
        -0.3284541070461273,
        0.4204711318016052,
        -0.3507661819458008,
        0.344363272190094,
        -0.4830936789512634,
        -0.7082676291465759,
        -0.12205082923173904,
        -0.1510871797800064,
        -0.03143835812807083,
        0.6885809898376465,
        -0.08752545714378357,
        -0.062028300017118454,
        0.0056297690607607365,
        0.038597024977207184,
        0.011046086438000202,
        4.239899158477783,
        1.4558894634246826,
        0.7129527926445007,
        0.5894851684570312,
        0.08859279751777649,
        -0.4373576045036316,
        0.8722564578056335,
        -0.6110944747924805,
        -0.03973976895213127,
        -0.412760853767395,
        0.1721503585577011,
        0.6846023797988892,
        1.041858196258545,
        0.021854832768440247,
        -0.10997430980205536,
        0.48424527049064636,
        0.600800633430481,
        0.1235184371471405,
        0.7306275367736816,
        0.1486976593732834,
        0.2482883632183075,
        -0.022919878363609314,
        2.9330055713653564,
        0.9573953747749329,
        0.3560395836830139,
        0.24847839772701263,
        0.027425559237599373,
        0.3166581094264984,
        0.09386599808931351,
        -0.9111518859863281,
        -0.09698770195245743,
        -0.4345867335796356,
        -0.0831397995352745,
        -0.09334081411361694,
        0.062368303537368774,
        -0.45285505056381226,
        0.008101841434836388,
        0.014037016779184341,
        -0.2223021537065506,
        -0.03352607041597366,
        -0.34452366828918457,
        -0.04815945774316788,
        0.08353748172521591,
        -0.24653172492980957,
        -1.4010133743286133,
        -0.7200926542282104,
        -3.0885584354400635,
        0.35597914457321167,
        0.002007431350648403,
        -0.5471726655960083,
        0.41881778836250305,
        -1.01194429397583,
        0.592377245426178,
        -0.9798598289489746,
        0.4056060314178467,
        -0.8052839040756226,
        0.8356108069419861,
        -0.05653815343976021,
        0.03878742828965187,
        -1.4357857704162598,
        -0.34090909361839294,
        0.10630060732364655,
        -0.06185203045606613,
        0.04133962094783783,
        0.10142358392477036,
        -0.0010369783267378807,
        -4.611608505249023,
        -1.1444904804229736,
        1.2914267778396606,
        0.5426639318466187,
        -3.9518556594848633,
        -0.46366629004478455,
        -0.8935641646385193,
        0.5385252833366394,
        0.45128142833709717,
        0.41215673089027405,
        0.5920359492301941,
        0.022118786349892616,
        -0.45686447620391846,
        -0.014380610547959805,
        -0.05209602788090706,
        -0.2841765284538269,
        -0.3178732097148895,
        -0.051067352294921875,
        0.0021214147564023733,
        -0.009519247338175774,
        -0.011122161522507668,
        -0.004807357210665941,
        -0.145912766456604,
        -0.1564776450395584,
        -0.263573557138443,
        -0.22488009929656982,
        -0.08541538566350937,
        -0.4346962571144104,
        0.2738385796546936,
        -0.24699001014232635,
        -0.31311410665512085,
        -0.3488191068172455,
        -0.2337469905614853,
        -0.310386061668396,
        0.13666243851184845,
        -0.28711777925491333,
        -3.1617615604773164e-05,
        -0.0029132480267435312,
        -0.013265709392726421,
        -18.7972354888916,
        0.006297121290117502,
        -18.63243293762207,
        0.05447285622358322,
        -5.227942892815918e-05,
        6.796295166015625,
        5.16212272644043,
        2.986204147338867,
        0.08338991552591324,
        -0.014961174689233303,
        0.09485021978616714,
        0.10596092790365219,
        -0.24275287985801697,
        -0.11317845433950424,
        -0.0015765323769301176,
        0.04243680089712143,
        0.001365632750093937,
        -0.10946837812662125,
        -0.0034954312723129988,
        0.05592820793390274,
        2.5449728965759277,
        2.1238009929656982,
        -0.45370668172836304,
        0.1901036947965622,
        -0.43229594826698303,
        -0.28102797269821167,
        -0.7357372641563416,
        -9.316621780395508,
        -11.626863479614258,
        -9.519495010375977,
        -1.331044316291809,
        -0.0641692578792572,
        -0.2516958713531494,
        -0.8077924251556396,
        -0.09757859259843826,
        0.010471181012690067,
        -0.07840792089700699,
        0.08269664645195007,
        0.011131360195577145,
        0.05319663882255554,
        -0.028554540127515793,
        -1.6236519813537598,
        0.14211022853851318,
        -0.13760632276535034,
        0.7244242429733276,
        0.027443980798125267,
        0.6636375784873962,
        0.03301591798663139,
        -0.6417026519775391,
        -0.07093195617198944,
        1.2325061559677124,
        -0.17261089384555817,
        0.002000239910557866,
        0.2231673151254654,
        -0.07756605744361877,
        0.8457183241844177,
        0.6061936616897583,
        0.6282402873039246,
        1.0014326572418213,
        -0.2113974690437317,
        -0.2952170968055725,
        -0.08729419857263565,
        -0.5043252110481262,
        -0.1706719547510147,
        -1.4259366989135742,
        -1.6326268911361694,
        0.132283553481102,
        0.4046577513217926,
        0.24267327785491943,
        0.22836953401565552,
        -0.00026929471641778946,
        -0.47441568970680237,
        -1.8751757144927979,
        0.8370011448860168,
        0.440515398979187,
        0.09551135450601578,
        0.1136101707816124,
        -2.7380897998809814,
        -0.5972872972488403,
        -0.24774028360843658,
        -0.5431920289993286,
        -0.13793614506721497,
        -0.041810404509305954,
        0.4831022322177887,
        -0.3566390872001648,
        -0.0778249204158783,
        1.187111496925354,
        0.18883441388607025,
        -0.24495777487754822,
        -0.48383691906929016,
        -0.015179603360593319,
        -0.192093625664711,
        0.010294965468347073,
        -5.663355827331543,
        -1.2375032901763916,
        0.05602683126926422,
        -1.4009244441986084,
        -0.2319900542497635,
        0.09192756563425064,
        -0.06233824044466019,
        0.11463385820388794,
        0.4254724085330963,
        0.19504784047603607,
        -0.5044695138931274,
        -0.04893360286951065,
        0.3203345537185669,
        -0.29338493943214417,
        -0.0012814011424779892,
        -0.6972464323043823,
        0.3188650906085968,
        -0.0006449145148508251,
        0.021420633420348167,
        0.066290482878685,
        -0.07117186486721039,
        -4.315608024597168,
        -11.55208683013916,
        -7.949009895324707,
        0.4881063401699066,
        0.4894461929798126,
        0.027616392821073532,
        0.11989448964595795,
        -0.18871593475341797,
        0.20512115955352783,
        0.2253391444683075,
        0.08823759853839874,
        -0.0638958290219307,
        -0.13141712546348572,
        -0.07809880375862122,
        0.05260168015956879,
        -0.023084731772542,
        -0.3960263431072235,
        -0.5450486540794373,
        0.09663292020559311,
        -0.055657438933849335,
        0.04188193753361702,
        -0.011237108148634434,
        0.010716209188103676,
        4.039885520935059,
        1.4836583137512207,
        -4.604095458984375,
        -1.1617320775985718,
        0.2531343698501587,
        0.015160403214395046,
        0.07109244912862778,
        -0.42489704489707947,
        0.4763365089893341,
        -0.3335244059562683,
        0.3941178619861603,
        0.9184563755989075,
        -0.788994312286377,
        0.1636936366558075,
        -0.15732058882713318,
        -0.012194634415209293,
        0.5978952646255493,
        0.24346937239170074,
        -0.04354739189147949,
        0.176972895860672,
        -0.017455007880926132,
        0.015160618349909782,
        0.23072990775108337,
        0.8020539283752441,
        3.1176278591156006,
        1.7783057689666748,
        -0.13223837316036224,
        -1.2147287130355835,
        1.2101433277130127,
        1.0806022882461548,
        -0.4080219268798828,
        0.7937146425247192,
        -0.040160171687603,
        0.39527463912963867,
        -0.08735133707523346,
        -0.004162395838648081,
        -0.10178276151418686,
        0.20959879457950592,
        0.026895461603999138,
        -0.40147268772125244,
        0.003784636501222849,
        -0.3099216818809509,
        -0.8398043513298035,
        -0.06509049236774445,
        -3.102351427078247,
        -1.0183053016662598,
        -0.5920594930648804,
        0.4711782932281494,
        -1.6142696142196655,
        -0.3860568404197693,
        -0.3756450414657593,
        -0.12904343008995056,
        0.26328137516975403,
        -0.04871537163853645,
        0.1500406563282013,
        -0.13927780091762543,
        -0.044020876288414,
        0.3686802387237549,
        -0.31486284732818604,
        -0.5076923966407776,
        -0.2488231211900711,
        0.10845355689525604,
        -0.4492753744125366,
        0.15896731615066528,
        -0.4667172431945801,
        0.007953492924571037,
        1.0924694538116455,
        -0.8240320086479187,
        0.5606400966644287,
        -0.4435853362083435,
        0.04828956723213196,
        -1.2636126279830933,
        -3.597485303878784,
        -3.1751370429992676,
        -1.30146062374115,
        -3.2298028469085693,
        -1.1932693719863892,
        -1.4185649156570435,
        -1.2112218141555786,
        -2.044049024581909,
        -0.04529952257871628,
        -0.178151935338974,
        0.21463267505168915,
        0.22208771109580994,
        0.147663876414299,
        0.2017623335123062,
        -0.6393396854400635,
        0.006467999424785376,
        -11.202957153320312,
        -7.822117328643799,
        1.7833701372146606,
        -2.4989371299743652,
        -3.0347981452941895,
        -0.09278492629528046,
        -0.02298467420041561,
        0.3344859182834625,
        0.34390485286712646,
        0.14286184310913086,
        -0.0686088502407074,
        0.3371642529964447,
        0.6848750114440918,
        0.0575801357626915,
        -3.022124767303467,
        -0.11678846180438995,
        0.4900972545146942,
        0.0015924619510769844,
        -0.0028701864648610353,
        0.02584107778966427,
        -0.003239092882722616,
        -3.2006537914276123,
        11.502913475036621,
        11.849934577941895,
        1.1445574760437012,
        -0.5585429072380066,
        -0.013140058144927025,
        0.04232256859540939,
        -0.43622085452079773,
        -0.06936285644769669,
        -0.1269547939300537,
        0.12428615242242813,
        0.3446911871433258,
        -0.22516432404518127,
        -0.008853054605424404,
        -2.1426692910608836e-05,
        0.01995653659105301,
        1.5820564031600952,
        0.8142247796058655,
        -0.5447742342948914,
        0.04480413347482681,
        -0.398707777261734,
        -0.2753444015979767,
        -0.00763084227219224,
        -0.069574736058712,
        -1.8547533750534058,
        -4.160552024841309,
        -0.07130786031484604,
        0.06798698753118515,
        -0.3544543981552124,
        0.045032113790512085,
        0.34218522906303406,
        -1.1582465171813965,
        0.26787206530570984,
        -1.1818052530288696,
        -0.45030948519706726,
        0.17456398904323578,
        -0.374313622713089,
        -0.01177578791975975,
        0.08674132823944092,
        -0.003599666291847825,
        -0.24272917211055756,
        -0.015433740802109241,
        -0.20743080973625183,
        -0.09878997504711151,
        0.001542445970699191,
        -10.423251152038574,
        -7.459053993225098,
        2.0349795818328857,
        -0.9393196702003479,
        -0.07155749946832657,
        -0.1027735099196434,
        0.12278514355421066,
        1.253838300704956,
        0.27656012773513794,
        1.034447431564331,
        0.05545584484934807,
        0.8770699501037598,
        -0.004865070804953575,
        -0.969492495059967,
        0.0065838065929710865,
        -0.2342287302017212,
        -0.4622182846069336,
        -0.18596729636192322,
        0.027653329074382782,
        -0.05040838196873665,
        0.002599987667053938,
        -0.12140745669603348,
        0.6632285118103027,
        0.809931218624115,
        -6.81695032119751,
        -6.464865207672119,
        -0.05263112485408783,
        0.3644149899482727,
        -0.33557578921318054,
        -0.6709595322608948,
        0.11091490834951401,
        -0.8361293077468872,
        0.2661362886428833,
        -0.7343201637268066,
        -0.041860565543174744,
        0.13266539573669434,
        -0.40654855966567993,
        -0.6664006114006042,
        -0.24385389685630798,
        -0.09247206896543503,
        0.37259629368782043,
        -0.09915382415056229,
        -0.027648743242025375,
        0.016230501234531403,
        -1.1352808475494385,
        1.0703058242797852,
        -0.028661858290433884,
        -0.9374667406082153,
        -0.550162136554718,
        -3.0511932373046875,
        1.2406723499298096,
        -0.3045468330383301,
        -1.4203903675079346,
        -0.439176470041275,
        -0.6776166558265686,
        -1.3275593519210815,
        2.5795562267303467,
        -0.38319504261016846,
        -0.2356855869293213,
        0.848148763179779,
        1.4487371444702148,
        0.04024788364768028,
        0.13329005241394043,
        -0.048453837633132935,
        0.8893747925758362,
        -0.03130200505256653,
        1.5484790802001953,
        0.7581750750541687,
        -0.573064386844635,
        -0.29060623049736023,
        -0.15882118046283722,
        -1.2385514974594116,
        2.434063673019409,
        0.772230863571167,
        -0.8415826559066772,
        0.6503242254257202,
        -0.4537314176559448,
        -0.13799788057804108,
        2.2689898014068604,
        -0.1936798244714737,
        -0.02731437236070633,
        0.16761593520641327,
        -0.01343136839568615,
        -0.47696319222450256,
        -0.03884303569793701,
        -0.4033690094947815,
        -0.1677672266960144,
        -0.005282416474074125,
        -1.3874682188034058,
        -0.4602017104625702,
        0.9827092289924622,
        0.7224400639533997,
        0.022941477596759796,
        -0.21832311153411865,
        -0.0989188626408577,
        -0.554596483707428,
        0.7399280071258545,
        -0.7424567937850952,
        -0.3527435064315796,
        0.6375333070755005,
        0.7184514999389648,
        -0.021486401557922363,
        0.028272507712244987,
        -0.4706668555736542,
        -0.8689906597137451,
        0.8875815868377686,
        0.6596637964248657,
        0.9131298661231995,
        -0.07815393805503845,
        -0.11927242577075958,
        -2.277998208999634,
        -1.0777997970581055,
        -0.14135624468326569,
        -0.7078247666358948,
        -0.16463583707809448,
        0.21377351880073547,
        0.16221599280834198,
        -0.5095139145851135,
        0.17387451231479645,
        -0.3906289041042328,
        -0.12710919976234436,
        -0.6003188490867615,
        0.23113420605659485,
        -0.45269015431404114,
        -1.4949544668197632,
        -0.09393595904111862,
        -0.1299179047346115,
        -0.7976242303848267,
        0.10517911612987518,
        -0.7645612955093384,
        -0.00966846477240324,
        -0.3050884008407593,
        5.4453911781311035,
        3.824943780899048,
        -0.23018419742584229,
        -0.11342412233352661,
        0.016676435247063637,
        0.18836180865764618,
        0.023158632218837738,
        0.8020554184913635,
        0.4239443838596344,
        0.15317484736442566,
        -0.2553730010986328,
        -1.1492931842803955,
        -0.18669554591178894,
        0.016055462881922722,
        0.03650164231657982,
        0.5739637613296509,
        0.6682592034339905,
        0.38781440258026123,
        0.26668787002563477,
        0.3102189600467682,
        0.45631641149520874,
        -0.06623098254203796,
        2.5696640014648438,
        1.4580650329589844,
        -0.8003257513046265,
        0.3914099633693695,
        -0.2123131901025772,
        -0.6256164312362671,
        1.1602084636688232,
        -0.821286141872406,
        -0.5428977012634277,
        -0.7751178741455078,
        -0.4529704451560974,
        -0.6609188914299011,
        0.39456892013549805,
        -0.6906736493110657,
        -0.367824912071228,
        -0.06427939236164093,
        0.12458230555057526,
        -0.13447386026382446,
        0.2513194978237152,
        -0.017514105886220932,
        -0.09394830465316772,
        0.005456029903143644,
        -0.11915869265794754,
        0.2979208827018738,
        2.3547024726867676,
        -0.6468441486358643,
        -0.2885938882827759,
        -0.690574049949646,
        0.3644881844520569,
        -0.5963883399963379,
        -0.2560080289840698,
        -0.5459563732147217,
        -0.1358543187379837,
        0.18765051662921906,
        0.7331945300102234,
        -0.17761637270450592,
        0.006330765318125486,
        -0.21216103434562683,
        -0.06274329870939255,
        0.16302333772182465,
        -0.27521440386772156,
        0.11453414708375931,
        -0.8745142221450806,
        -0.053409840911626816,
        1.8985165357589722,
        1.0406792163848877,
        0.017166392877697945,
        0.4956537187099457,
        -0.799933910369873,
        -1.1414369344711304,
        -2.702087640762329,
        -1.816712737083435,
        -0.12839491665363312,
        -2.38727068901062,
        -0.07744509726762772,
        -0.8749812841415405,
        -3.6939516067504883,
        0.2974967062473297,
        -0.15502552688121796,
        0.8081845045089722,
        1.5846428871154785,
        0.017545729875564575,
        -0.11537344008684158,
        0.0035038585774600506,
        -0.6923026442527771,
        -0.005622981581836939,
        2.98832106590271,
        1.7189384698867798,
        1.9268953800201416,
        0.9060642123222351,
        0.16992338001728058,
        -0.20863965153694153,
        0.9955359101295471,
        -2.6901493072509766,
        0.027426183223724365,
        -1.8822050094604492,
        0.4575170576572418,
        0.1548996865749359,
        -0.49348193407058716,
        -0.5475137233734131,
        -0.018299855291843414,
        0.41830673813819885,
        -0.11955709755420685,
        0.0854019895195961,
        -0.06427469104528427,
        -0.041077256202697754,
        -0.050374116748571396,
        -0.0055101546458899975,
        -9.294693946838379,
        -6.310153007507324,
        4.278045654296875,
        0.6014706492424011,
        0.11636094748973846,
        0.26219022274017334,
        0.27141883969306946,
        0.7083036303520203,
        -0.7441187500953674,
        0.7144620418548584,
        -1.5815889835357666,
        0.830400824546814,
        0.12279658019542694,
        -0.19036230444908142,
        -2.78965425491333,
        0.202795147895813,
        0.22876785695552826,
        -0.08329430222511292,
        0.013270920142531395,
        -0.004747272934764624,
        0.03234688565135002,
        0.02075136825442314,
        -3.6959900856018066,
        0.8272280693054199,
        1.383413553237915,
        0.8731566071510315,
        0.03901120275259018,
        -0.21677008271217346,
        0.5941996574401855,
        0.7891179323196411,
        0.5096828937530518,
        0.18564240634441376,
        0.15437637269496918,
        0.17012518644332886,
        0.06455498933792114,
        0.01934082992374897,
        -0.008906664326786995,
        0.10428112745285034,
        0.11776594072580338,
        -0.6754278540611267,
        -0.10926413536071777,
        -0.6347014904022217,
        0.12374185025691986,
        0.033316534012556076,
        0.7377889156341553,
        1.5615626573562622,
        -3.071955919265747,
        -0.31345948576927185,
        -1.159480094909668,
        -4.0650787353515625,
        1.6648402214050293,
        -5.87872838973999,
        -1.9166282415390015,
        -5.603288173675537,
        -1.6246886253356934,
        -5.4697136878967285,
        1.6437677145004272,
        -2.2135114669799805,
        -0.026140669360756874,
        0.7336447238922119,
        0.4560154676437378,
        -0.632788360118866,
        0.11669010668992996,
        -0.5522052049636841,
        -0.52330082654953,
        0.015714626759290695,
        -5.26902437210083,
        -2.3979930877685547,
        3.7892990112304688,
        0.49474844336509705,
        -0.3865698575973511,
        -0.2971704602241516,
        -0.11991097033023834,
        0.2232048660516739,
        0.20690281689167023,
        0.1516260951757431,
        -0.08258377015590668,
        0.00204294640570879,
        0.3241361081600189,
        0.28682851791381836,
        -0.07194996625185013,
        2.996997594833374,
        1.6871415376663208,
        0.9151028394699097,
        -0.32834091782569885,
        0.8955882787704468,
        0.07381734251976013,
        0.019411731511354446,
        -6.670988082885742,
        -5.384730339050293,
        1.897447109222412,
        0.37571579217910767,
        0.03408521041274071,
        0.18057841062545776,
        -0.4267890751361847,
        0.15688303112983704,
        0.05244886502623558,
        -0.013800190761685371,
        -0.0007214578799903393,
        -0.05652250349521637,
        -0.10994090884923935,
        -0.10712940990924835,
        -0.0021786075085401535,
        0.1721082180738449,
        1.1141477823257446,
        0.010722575709223747,
        -1.0483546257019043,
        0.024013353511691093,
        0.04937746003270149,
        -0.01154614519327879,
        4.592164039611816,
        2.857365369796753,
        -0.2962338924407959,
        0.6575802564620972,
        0.000820237270090729,
        0.0060603925958275795,
        1.6806036233901978,
        0.06337940692901611,
        -0.34034523367881775,
        -0.05913605913519859,
        0.36584511399269104,
        0.2995167374610901,
        1.6282986402511597,
        -0.08177052438259125,
        -0.16294795274734497,
        -1.7719522714614868,
        -1.711592674255371,
        -1.333820104598999,
        0.26383841037750244,
        -1.3993371725082397,
        0.4979472756385803,
        0.004407206550240517,
        0.8997907638549805,
        -0.3584461808204651,
        -1.1063177585601807,
        -1.0991272926330566,
        0.299065500497818,
        -1.2133426666259766,
        0.5455647110939026,
        -3.3706390857696533,
        -0.9235287308692932,
        -3.440603733062744,
        -1.3005961179733276,
        -2.1455650329589844,
        0.3390424847602844,
        -1.3635019063949585,
        -0.008850591257214546,
        0.4549456536769867,
        0.3560655415058136,
        -1.5840368270874023,
        0.009015282616019249,
        -1.5517154932022095,
        -0.011086995713412762,
        -0.06405375152826309,
        1.9932384490966797,
        0.3967342972755432,
        0.27667590975761414,
        -0.09978268295526505,
        0.08131895959377289,
        -0.4609503149986267,
        -0.2729759216308594,
        -3.2431600093841553,
        -0.22825241088867188,
        -3.4178476333618164,
        -0.5945187211036682,
        -0.6037551164627075,
        0.44914546608924866,
        0.05087829753756523,
        -0.6495415568351746,
        0.07689140737056732,
        -0.2619698941707611,
        -0.340863972902298,
        -0.023106632754206657,
        -0.31756114959716797,
        0.028497647494077682,
        -0.0270683616399765,
        5.712715148925781,
        5.780963897705078,
        -2.046039342880249,
        0.5580266118049622,
        0.01390144880861044,
        -0.553777277469635,
        1.0724503993988037,
        1.6154210567474365,
        0.4816210865974426,
        0.48495587706565857,
        0.21947456896305084,
        -1.6342072486877441,
        1.4535590410232544,
        0.014713240787386894,
        0.03314931318163872,
        -0.05107331648468971,
        0.23907886445522308,
        -0.25507399439811707,
        0.04381326213479042,
        -0.21203264594078064,
        0.11745006591081619,
        0.005955358501523733,
        0.9109135866165161,
        1.3856291770935059,
        0.8167367577552795,
        -0.06507585197687149,
        -2.6148669719696045,
        0.47121718525886536,
        -0.08315234631299973,
        0.3142494559288025,
        -0.06909765303134918,
        0.6965513825416565,
        0.08332502096891403,
        0.16807419061660767,
        0.25950127840042114,
        -0.9918683171272278,
        -0.346616268157959,
        0.7574818730354309,
        0.18085099756717682,
        0.8838728070259094,
        0.5871878266334534,
        0.8543671369552612,
        0.4705226421356201,
        0.004027518443763256,
        3.3426673412323,
        1.2757502794265747,
        -2.112875461578369,
        0.390321284532547,
        -0.8920828104019165,
        -1.7779927253723145,
        0.032945748418569565,
        -0.982113778591156,
        -0.5833108425140381,
        -1.2988001108169556,
        -0.8161411285400391,
        -1.2149403095245361,
        -1.8538378477096558,
        -0.716006338596344,
        -0.3293105661869049,
        -1.7232154607772827,
        -0.7448667883872986,
        0.5679692625999451,
        -0.07564977556467056,
        0.46700793504714966,
        0.5669440627098083,
        -0.0005235589924268425,
        1.4491575956344604,
        0.3886846899986267,
        1.1175886392593384,
        1.1077884435653687,
        0.1031893789768219,
        -0.8949987292289734,
        -0.8452310562133789,
        -0.18820106983184814,
        0.3316163122653961,
        -0.2437579482793808,
        -0.0020087428856641054,
        -0.09601468592882156,
        0.15781055390834808,
        -0.004019714426249266,
        0.0027779769152402878,
        0.3448956310749054,
        -0.032876066863536835,
        0.017972979694604874,
        0.043262168765068054,
        -0.040056679397821426,
        -0.02351025491952896,
        -0.00031633683829568326,
        0.020409872755408287,
        1.4819526672363281,
        0.17817240953445435,
        0.8478028774261475,
        0.041201360523700714,
        -0.08851156383752823,
        -3.000535011291504,
        -6.951114654541016,
        0.5225732326507568,
        -6.994104385375977,
        0.593300998210907,
        -2.7695345878601074,
        -2.553903102874756,
        0.23737043142318726,
        -0.08638834208250046,
        -0.01159572321921587,
        0.04411674290895462,
        0.4140167534351349,
        0.009364526718854904,
        0.4393749237060547,
        -0.011322402395308018,
        1.5376477335848904e-07,
        5.939227104187012,
        1.2667447328567505,
        0.16447626054286957,
        0.5620799660682678,
        0.03592943027615547,
        0.5851682424545288,
        -0.5630369782447815,
        1.002085566520691,
        -1.7415142059326172,
        -0.10368990898132324,
        -3.3092849254608154,
        -0.08660730719566345,
        -1.2106013298034668,
        -1.0997101068496704,
        0.045483700931072235,
        -1.2533265352249146,
        -1.036222219467163,
        1.1600803136825562,
        -0.19641564786434174,
        1.1559697389602661,
        -0.0825892984867096,
        -0.059578362852334976,
        2.6388511657714844,
        -0.12411335855722427,
        -1.6816352605819702,
        -0.28720033168792725,
        -1.3757050037384033,
        -0.4924079179763794,
        -1.918410301208496,
        -1.7735486030578613,
        -0.6520037651062012,
        -2.075441598892212,
        -1.128334879875183,
        -0.9548337459564209,
        -1.6784148216247559,
        -0.4178727865219116,
        0.0262516550719738,
        0.31007179617881775,
        -0.3344517648220062,
        0.11859443038702011,
        0.0287801343947649,
        0.213064044713974,
        0.13640360534191132,
        0.007287700194865465,
        -0.7762081027030945,
        -2.276238203048706,
        2.4360549449920654,
        -0.41186830401420593,
        0.10612627118825912,
        -1.0932338237762451,
        -0.2728968858718872,
        0.18786606192588806,
        0.8352519869804382,
        0.09305969625711441,
        0.08378185331821442,
        0.17806512117385864,
        -1.3008103370666504,
        0.030731068924069405,
        -0.07844837754964828,
        2.3085408210754395,
        0.6747884750366211,
        -0.9292570948600769,
        0.015058786608278751,
        -0.9187467694282532,
        -0.5867443680763245,
        0.006874981336295605,
        -9.701086044311523,
        -8.261067390441895,
        1.1274354457855225,
        -0.5229425430297852,
        0.1693769246339798,
        -0.029095038771629333,
        -0.2847570776939392,
        0.1132659837603569,
        0.15681974589824677,
        0.010745449922978878,
        0.3083263039588928,
        -0.22441770136356354,
        0.2544879615306854,
        -0.07819538563489914,
        0.017540842294692993,
        -0.4499673545360565,
        -1.1387913227081299,
        0.046129241585731506,
        0.07751461863517761,
        0.1281280368566513,
        0.8987946510314941,
        -0.20765826106071472,
        -1.6917256116867065,
        -0.5080576539039612,
        1.325028896331787,
        0.06457757204771042,
        -0.035185132175683975,
        -0.0012063505128026009,
        -0.24220211803913116,
        0.004309607204049826,
        0.03837045282125473,
        -0.07373733073472977,
        0.39043405652046204,
        -0.7124162912368774,
        -0.15311619639396667,
        -0.004721015691757202,
        -0.3192974030971527,
        0.2794444262981415,
        0.15325772762298584,
        0.08456121385097504,
        -0.11048964411020279,
        0.07516573369503021,
        0.07056126743555069,
        -0.04239854961633682,
        -0.4522165358066559,
        -0.14113153517246246,
        -0.8138256072998047,
        -1.073111891746521,
        -0.11926000565290451,
        -1.2677333354949951,
        0.08390725404024124,
        -0.8369192481040955,
        -1.0270425081253052,
        -0.7688208222389221,
        -1.0641494989395142,
        -0.9400141835212708,
        0.2067500650882721,
        -0.7480512857437134,
        -0.00018928942154161632,
        0.01802115887403488,
        -0.015595178119838238,
        -15.570457458496094,
        -0.004844518378376961,
        -15.229521751403809,
        0.014834020286798477,
        -6.531745748361573e-05,
        5.5495452880859375,
        4.123813629150391,
        2.5607669353485107,
        0.08813527226448059,
        -0.011157610453665257,
        0.013631440699100494,
        0.03205659240484238,
        -0.05274507775902748,
        -0.06632233411073685,
        -0.025302058085799217,
        0.04610861837863922,
        0.0468159094452858,
        -0.06346262246370316,
        0.0015260872896760702,
        -0.08426601439714432,
        -2.8884189128875732,
        -0.6288715600967407,
        -0.004721107427030802,
        0.068898506462574,
        -0.06864213943481445,
        -0.4732731878757477,
        0.005919067654758692,
        -9.69295883178711,
        -6.603656768798828,
        1.3282170295715332,
        -0.39940425753593445,
        -0.02574976347386837,
        -0.19978760182857513,
        -0.7732862234115601,
        0.40560877323150635,
        0.4068477749824524,
        0.21649613976478577,
        0.13114778697490692,
        -0.0692669153213501,
        -0.3055110573768616,
        0.05569339916110039,
        -0.23022332787513733,
        -0.1878691166639328,
        -0.3558449149131775,
        -0.8852684497833252,
        0.05373474955558777,
        -0.9252735376358032,
        -0.27992135286331177,
        -0.00019930818234570324,
        3.3487799167633057,
        1.628516674041748,
        -2.093519449234009,
        -1.37267005443573,
        0.040303654968738556,
        0.30583497881889343,
        -1.379607081413269,
        0.13209259510040283,
        0.02950848825275898,
        -0.04529498890042305,
        0.09868179261684418,
        -0.32819199562072754,
        0.29545003175735474,
        -1.7214686870574951,
        -0.009691538289189339,
        -0.6133599877357483,
        -0.37685978412628174,
        -0.09466726332902908,
        0.2261759340763092,
        0.07237301766872406,
        -0.33313435316085815,
        -0.11288528889417648,
        1.2802398204803467,
        0.758377730846405,
        0.06778584420681,
        -0.0863761380314827,
        -4.2688493728637695,
        0.408848375082016,
        0.4925708472728729,
        0.019665630534291267,
        -0.11234529316425323,
        -0.2848776876926422,
        -0.05583985894918442,
        -0.4504278600215912,
        0.5753082633018494,
        -0.3545822501182556,
        0.020319635048508644,
        0.020213507115840912,
        -0.015621746890246868,
        -0.1824672967195511,
        0.12249692529439926,
        -0.17226280272006989,
        -0.09241317212581635,
        -0.003183492459356785,
        -0.2917189598083496,
        -0.4758716821670532,
        -2.6203579902648926,
        -0.664236843585968,
        -0.08140783756971359,
        -0.6760151982307434,
        0.3669862449169159,
        -1.2190276384353638,
        0.5819053053855896,
        -1.1451408863067627,
        0.5116106867790222,
        -0.053062472492456436,
        -0.3002449572086334,
        0.07928412407636642,
        -0.03452913835644722,
        0.47217515110969543,
        0.2076316773891449,
        -0.2006862461566925,
        0.0025376109406352043,
        -0.15539199113845825,
        0.3842771351337433,
        -0.14630945026874542,
        -1.2164334058761597,
        -2.11499285697937,
        1.897910237312317,
        -2.772831916809082,
        0.10704337805509567,
        0.3296767473220825,
        0.5783424973487854,
        -0.45714059472084045,
        0.2003714144229889,
        -0.5162763595581055,
        0.36667555570602417,
        -0.048086006194353104,
        0.24796447157859802,
        -0.8019090294837952,
        -0.4456250071525574,
        -0.06323512643575668,
        0.022938186302781105,
        -0.15676042437553406,
        0.2682575285434723,
        -0.15446820855140686,
        0.10664045810699463,
        -0.25227290391921997,
        -0.04717366397380829,
        0.5172274112701416,
        -0.46223050355911255,
        -0.6640018224716187,
        0.0009484366746619344,
        -1.2757205963134766,
        -0.504471480846405,
        -0.11099886149168015,
        -0.7271967530250549,
        -0.1337268203496933,
        -0.45422571897506714,
        -0.475949764251709,
        -0.2580665946006775,
        -0.3926965594291687,
        0.05184243991971016,
        0.6553753018379211,
        -0.01900680549442768,
        0.6351103186607361,
        -0.041035812348127365,
        0.6281816363334656,
        0.11900091916322708,
        -0.4581989049911499,
        -8.453710556030273,
        -6.487924575805664,
        1.2749398946762085,
        0.01970144547522068,
        -0.49407318234443665,
        -0.5105510354042053,
        0.5317396521568298,
        0.8121544122695923,
        0.4152178168296814,
        0.4296038746833801,
        0.040927767753601074,
        -0.19172672927379608,
        0.1963294893503189,
        0.0318877212703228,
        -0.04392741993069649,
        0.0625770092010498,
        0.060522373765707016,
        -0.13418088853359222,
        -0.22103220224380493,
        -0.3116389214992523,
        -0.4805549383163452,
        -0.014802539721131325,
        1.0628620386123657,
        -0.002010985044762492,
        -1.8864697217941284,
        -0.5067923069000244,
        0.05446924641728401,
        -2.398228883743286,
        0.7076184153556824,
        -3.773777723312378,
        -1.6287453174591064,
        -3.6887009143829346,
        -1.6722863912582397,
        -3.043025016784668,
        0.3400917649269104,
        -1.4613549709320068,
        -0.0975862517952919,
        2.432100772857666,
        1.2339473962783813,
        0.014268429018557072,
        0.009286662563681602,
        0.023446746170520782,
        0.03000345639884472,
        -0.08637599647045135,
        -10.15164566040039,
        -13.19200611114502,
        0.4827563166618347,
        0.1799287497997284,
        0.15618835389614105,
        0.04338419437408447,
        0.24678459763526917,
        0.37188026309013367,
        -0.11331367492675781,
        0.13293223083019257,
        0.232587993144989,
        -0.10496833175420761,
        -0.07264821231365204,
        -0.765633225440979,
        -0.9308905601501465,
        -0.21601848304271698,
        0.3774896264076233,
        -0.02470332570374012,
        -0.04177290201187134,
        -0.0069503095000982285,
        -0.3113403618335724,
        -0.0053781792521476746,
        -1.3941532373428345,
        -0.9627566933631897,
        0.4838152825832367,
        0.02178737334907055,
        0.07074695825576782,
        0.010571733117103577,
        -0.6613818407058716,
        -0.680855929851532,
        1.0246576070785522,
        -0.7038366794586182,
        -0.1725766360759735,
        -0.09980394691228867,
        -0.14412355422973633,
        0.2231835573911667,
        -0.017157144844532013,
        -0.3967633843421936,
        -0.074647456407547,
        -0.3529016971588135,
        -0.2669139504432678,
        -0.2849348485469818,
        0.2770096957683563,
        0.014369888231158257,
        -3.6483452320098877,
        -1.192724347114563,
        0.7507957816123962,
        0.030444616451859474,
        -3.0864646434783936,
        0.12716785073280334,
        -0.0983957052230835,
        -0.42604532837867737,
        0.11708839237689972,
        -0.020521769300103188,
        -0.022090787068009377,
        -0.13398775458335876,
        0.8206784725189209,
        0.06844530254602432,
        -0.009798749350011349,
        0.2157590687274933,
        -0.13458935916423798,
        -0.0720868930220604,
        -0.6802196502685547,
        0.07001354545354843,
        1.1879764795303345,
        -0.050204042345285416,
        -2.497955322265625,
        -0.3913361132144928,
        -0.3166879415512085,
        0.4674622416496277,
        -0.13175956904888153,
        0.10153062641620636,
        -0.5197688341140747,
        0.06912508606910706,
        -0.08400684595108032,
        0.07584312558174133,
        0.1420939713716507,
        -0.15926896035671234,
        -0.6235042214393616,
        -0.03165559843182564,
        -0.2592966854572296,
        1.0488882064819336,
        0.4915664792060852,
        0.13965211808681488,
        -0.6244576573371887,
        0.19660383462905884,
        -0.08624837547540665,
        0.008279703557491302,
        -1.25726318359375,
        -0.402596652507782,
        -2.4048454761505127,
        0.13490550220012665,
        0.1779099702835083,
        -0.19785071909427643,
        0.22153547406196594,
        -0.8502018451690674,
        0.044810160994529724,
        -0.6444326639175415,
        0.026859266683459282,
        -0.31010061502456665,
        0.8021916151046753,
        -0.39752286672592163,
        0.08714653551578522,
        0.7127171158790588,
        1.0855962038040161,
        0.022144263610243797,
        -1.1165412664413452,
        0.00012862327275797725,
        0.08680794388055801,
        -0.3098302185535431,
        -0.8706713318824768,
        -0.7874511480331421,
        0.44549110531806946,
        -0.06476370245218277,
        0.11322728544473648,
        -0.5211699604988098,
        0.20968331396579742,
        -0.9488420486450195,
        -0.1486179679632187,
        -0.979131817817688,
        0.00656562065705657,
        -0.13264964520931244,
        0.3683960437774658,
        -0.1513938158750534,
        -0.1294533610343933,
        -0.08925919234752655,
        0.3281494081020355,
        -0.6351399421691895,
        -0.03340291604399681,
        -0.5824421644210815,
        -0.008393398486077785,
        -0.40743371844291687,
        -5.679447650909424,
        -4.838510513305664,
        0.8186907172203064,
        -0.07324710488319397,
        0.04940728098154068,
        0.37985268235206604,
        0.7514067888259888,
        -0.30453917384147644,
        0.20185016095638275,
        0.3726695775985718,
        -0.879712700843811,
        0.49324116110801697,
        0.505523681640625,
        0.05939091369509697,
        0.016629012301564217,
        0.15943889319896698,
        -0.26118969917297363,
        -0.07411465048789978,
        0.00898729544132948,
        -0.03930105268955231,
        -0.01486971601843834,
        -0.3605766296386719,
        -3.232612133026123,
        -0.5350237488746643,
        -3.5935468673706055,
        0.40392008423805237,
        -0.05066782981157303,
        0.00251057674176991,
        0.13914713263511658,
        0.8432153463363647,
        0.3857695758342743,
        0.38006436824798584,
        0.5189165472984314,
        -0.29607895016670227,
        -0.32816582918167114,
        -0.3790571093559265,
        -0.4418259859085083,
        0.549841582775116,
        -0.2045397013425827,
        0.2696457505226135,
        0.6053948402404785,
        0.2736927568912506,
        0.08755558729171753,
        -0.825995147228241,
        0.5956431031227112,
        2.524216890335083,
        -1.1246185302734375,
        0.7112990021705627,
        0.20650634169578552,
        -0.8588235974311829,
        0.07416234910488129,
        -0.06422296911478043,
        0.13323204219341278,
        -0.21907131373882294,
        -0.06453356146812439,
        -0.5760513544082642,
        -0.17740756273269653,
        -0.17033147811889648,
        0.007707207929342985,
        1.0715004205703735,
        -0.6206452250480652,
        -0.46790027618408203,
        0.014589576981961727,
        -0.5080642700195312,
        0.39530739188194275,
        0.006719689816236496,
        -2.336256504058838,
        -2.6043717861175537,
        0.8440256118774414,
        -1.616123914718628,
        -0.07214367389678955,
        -2.3730568885803223,
        -1.690322756767273,
        -0.49030181765556335,
        -1.3514666557312012,
        -0.4801308810710907,
        -0.8209883570671082,
        -0.6354078650474548,
        -1.5386438369750977,
        0.5895771384239197,
        -0.006445765029639006,
        0.003566163359209895,
        -0.20762823522090912,
        0.12567096948623657,
        -0.02362070232629776,
        -0.005806644447147846,
        0.07179129123687744,
        0.006282232701778412,
        -12.106971740722656,
        -11.487945556640625,
        4.456584930419922,
        -2.3312344551086426,
        0.07172197848558426,
        -0.7179955244064331,
        0.02367042563855648,
        0.8688678741455078,
        0.556175947189331,
        0.566581130027771,
        0.0650930106639862,
        0.3973402678966522,
        -0.10542584210634232,
        -0.4375145137310028,
        -0.21593287587165833,
        -0.6329537034034729,
        -0.4707501232624054,
        -1.5619900226593018,
        -0.16636499762535095,
        -1.5519310235977173,
        0.4055637717247009,
        0.007989948615431786,
        -3.4732887744903564,
        -1.8779067993164062,
        1.641063928604126,
        0.49256083369255066,
        -1.5444622039794922,
        -0.07774004340171814,
        -1.5763304233551025,
        0.05306818708777428,
        0.37275636196136475,
        -0.42231398820877075,
        0.15159295499324799,
        -0.18935160338878632,
        0.2216976433992386,
        -0.17052453756332397,
        -0.23634347319602966,
        -0.45103368163108826,
        -0.43209579586982727,
        -0.8966194987297058,
        -0.28287458419799805,
        -0.77271568775177,
        -0.18448267877101898,
        -0.02717980369925499,
        2.027195930480957,
        0.1642090231180191,
        0.6617214679718018,
        0.09063298255205154,
        0.028888849541544914,
        -0.1434202939271927,
        -2.1215758323669434,
        -1.2999342679977417,
        -0.5099020004272461,
        -1.7295334339141846,
        -0.5321090817451477,
        -1.3885142803192139,
        -1.0142707824707031,
        -0.8060873746871948,
        0.032290808856487274,
        -0.3254750967025757,
        -0.3065454363822937,
        0.0057565378956496716,
        -0.028980255126953125,
        0.02355242893099785,
        -0.07726088166236877,
        -0.015764718875288963,
        3.0183348655700684,
        2.361522674560547,
        -3.510854721069336,
        -5.586568832397461,
        -0.13971339166164398,
        0.1048046201467514,
        0.02579381875693798,
        -1.1090248823165894,
        0.48255425691604614,
        -1.3027961254119873,
        0.3007200062274933,
        0.06959889084100723,
        -0.7055202722549438,
        -0.21041598916053772,
        0.06281553208827972,
        -0.3508192002773285,
        -0.16191016137599945,
        0.7284947037696838,
        -0.04889509454369545,
        0.7362443208694458,
        0.1546476185321808,
        -1.8130401372909546,
        -16.671478271484375,
        -15.86361026763916,
        0.4054533541202545,
        -2.77211856842041,
        -1.0465688705444336,
        -0.035162534564733505,
        0.18234597146511078,
        0.061456628143787384,
        0.15506422519683838,
        0.16874366998672485,
        0.15659597516059875,
        0.09299889206886292,
        0.5196451544761658,
        -0.32790207862854004,
        0.0396280400454998,
        0.2030991166830063,
        0.7208510637283325,
        0.020747406408190727,
        -0.8029270768165588,
        0.050667617470026016,
        -0.020625319331884384,
        -0.018901187926530838,
        -0.7637070417404175,
        -1.133463740348816,
        -0.41211867332458496,
        0.07266617566347122,
        -0.2733684778213501,
        -0.4875847399234772,
        0.10027483850717545,
        -0.055136535316705704,
        -0.659552276134491,
        -0.04792539402842522,
        -0.725208044052124,
        0.11853023618459702,
        0.49670395255088806,
        -0.5270443558692932,
        -0.47577157616615295,
        0.5210087299346924,
        0.7902466654777527,
        0.6333290338516235,
        -0.2177627980709076,
        0.673743486404419,
        0.09790432453155518,
        0.012704024091362953,
        3.3051376342773438,
        1.7936182022094727,
        -1.2912465333938599,
        0.41061991453170776,
        0.04129188507795334,
        -0.5979955196380615,
        -2.8309531211853027,
        0.23065486550331116,
        0.5506194233894348,
        -0.4723076820373535,
        -0.2926863729953766,
        -2.1567678451538086,
        -3.6923673152923584,
        -0.02634553611278534,
        -0.033681489527225494,
        0.3573529124259949,
        0.24723242223262787,
        -1.0277119874954224,
        0.033513326197862625,
        -1.1583975553512573,
        0.2567060589790344,
        0.012482337653636932,
        -2.874976873397827,
        -0.9272280931472778,
        1.5584070682525635,
        0.05736055597662926,
        -2.159708023071289,
        -0.05814584717154503,
        -0.18590204417705536,
        0.15225233137607574,
        0.3852960467338562,
        0.3102829158306122,
        0.1285502165555954,
        -0.17245616018772125,
        0.532387375831604,
        0.2583768367767334,
        0.011713873594999313,
        0.03170597925782204,
        0.14957311749458313,
        -0.28114181756973267,
        -0.705199658870697,
        -0.28402531147003174,
        -0.32903140783309937,
        -0.2615002989768982,
        -2.6982483863830566,
        -2.7534565925598145,
        -0.3852919936180115,
        -0.6647138595581055,
        0.07031836360692978,
        -0.502471387386322,
        -1.8888497352600098,
        -0.6626848578453064,
        0.44805097579956055,
        -0.6777018308639526,
        -0.08418464660644531,
        0.20932336151599884,
        -1.2675760984420776,
        -0.057586830109357834,
        0.05673098564147949,
        -1.0055955648422241,
        -0.9118117094039917,
        -0.3029228746891022,
        0.012426391243934631,
        -0.3096657395362854,
        -0.2894066274166107,
        -0.1701144576072693,
        0.06785372644662857,
        -0.3775690197944641,
        -2.771765947341919,
        0.17360106110572815,
        -2.9042952060699463,
        -0.16304558515548706,
        -0.4063720405101776,
        0.01000715047121048,
        0.013450758531689644,
        -0.14401060342788696,
        -0.9802518486976624,
        0.19063061475753784,
        0.18954499065876007,
        0.029529200866818428,
        -1.1683281660079956,
        0.13728362321853638,
        -0.07297278940677643,
        -0.936895489692688,
        -0.057190533727407455,
        -1.0434669256210327,
        0.12774905562400818,
        0.08264350146055222,
        -3.1808652877807617,
        -2.908633232116699,
        -0.037688806653022766,
        -2.0063934326171875,
        0.09862150996923447,
        -0.3858233690261841,
        1.0087941884994507,
        0.8726086020469666,
        0.23750139772891998,
        0.6351875066757202,
        -0.2704322636127472,
        -0.01431021187454462,
        -0.3378200829029083,
        0.005915065295994282,
        -0.06636498123407364,
        0.8068882822990417,
        0.747252345085144,
        -0.08663135766983032,
        -0.1349313110113144,
        -0.18705466389656067,
        -0.41638416051864624,
        -0.004674789495766163,
        4.264491081237793,
        0.8200365900993347,
        -3.9152305126190186,
        -1.1439831256866455,
        -0.528881311416626,
        0.7529317736625671,
        -3.2334070205688477,
        -5.9707136154174805,
        -0.23819665610790253,
        -6.026473045349121,
        -1.1245466470718384,
        -2.7920286655426025,
        -1.9536616802215576,
        -2.456592321395874,
        0.03216714411973953,
        -0.27843737602233887,
        0.3416019380092621,
        0.035416487604379654,
        -0.007694825064390898,
        0.13935771584510803,
        0.36010318994522095,
        -3.659928560256958,
        1.1137193441390991,
        -3.20505428314209,
        -21.62357521057129,
        -7.783923625946045,
        0.108383908867836,
        -0.08604130893945694,
        0.04996364191174507,
        -0.032221514731645584,
        -0.016847947612404823,
        0.15101191401481628,
        0.08949991315603256,
        0.0070557501167058945,
        0.38455790281295776,
        0.0005056848749518394,
        0.02062760666012764,
        0.5785845518112183,
        1.2109432220458984,
        -0.4610057473182678,
        0.09003604203462601,
        -0.4309205710887909,
        0.5859562754631042,
        -0.35849982500076294,
        -7.322127819061279,
        -7.356638431549072,
        -12.237189292907715,
        -3.57902455329895,
        -1.344765067100525,
        -0.27779000997543335,
        -0.12882466614246368,
        0.31948426365852356,
        0.06426209211349487,
        0.19583432376384735,
        0.23096293210983276,
        -0.020783422514796257,
        0.43583545088768005,
        0.10670584440231323,
        0.013063172809779644,
        0.8508719801902771,
        0.5245134234428406,
        0.07022710144519806,
        0.3785335123538971,
        0.20814907550811768,
        0.3232443034648895,
        -0.01901068538427353,
        2.683133363723755,
        0.4826797842979431,
        -1.7917932271957397,
        -0.7732157111167908,
        -0.1343032568693161,
        -0.8090817332267761,
        -1.220259428024292,
        -1.3103142976760864,
        -0.6487053632736206,
        -1.3560377359390259,
        -0.650841474533081,
        0.6582313776016235,
        0.8720834255218506,
        -0.6189061403274536,
        -0.04152582585811615,
        0.896491527557373,
        0.6674963235855103,
        0.004024147056043148,
        0.1360243260860443,
        0.009469551034271717,
        0.5473878979682922,
        2.1392610506154597e-05,
        1.5656726360321045,
        0.7928231954574585,
        0.59562087059021,
        1.1543115377426147,
        0.03512391448020935,
        -1.2432384490966797,
        -3.817261219024658,
        -1.9386085271835327,
        -0.4161304831504822,
        -1.9579235315322876,
        -0.10022387653589249,
        -0.06376655399799347,
        -1.6488749980926514,
        -0.11536315083503723,
        -0.262185662984848,
        -0.02795226126909256,
        -0.0034546691458672285,
        -1.7108149528503418,
        -0.0025043576024472713,
        -1.6931596994400024,
        -0.1048813909292221,
        0.006335316225886345,
        -6.171683311462402,
        -4.030534744262695,
        3.2040231227874756,
        0.2739884853363037,
        0.11575095355510712,
        -0.6105391979217529,
        -0.34649303555488586,
        0.4723057746887207,
        0.38391074538230896,
        0.22985394299030304,
        0.2850899398326874,
        0.21428163349628448,
        0.718440055847168,
        0.0024408423341810703,
        -0.2405216097831726,
        0.36084064841270447,
        0.23750130832195282,
        0.4838469922542572,
        0.33293524384498596,
        0.5424072742462158,
        0.08731076866388321,
        0.031763896346092224,
        -3.9596941471099854,
        -4.367796421051025,
        -0.5745049715042114,
        -2.8705999851226807,
        0.28859975934028625,
        0.6061809659004211,
        0.3218221366405487,
        -1.4143146276474,
        0.3923121988773346,
        -1.3776811361312866,
        0.3724179267883301,
        -0.16434939205646515,
        -0.06302233785390854,
        -0.4472011625766754,
        -0.16193446516990662,
        0.8675820231437683,
        -0.07919761538505554,
        -0.0949937105178833,
        0.019618745893239975,
        -0.09478552639484406,
        0.06944974511861801,
        0.002604158828034997,
        4.889067649841309,
        1.4083516597747803,
        0.7099182605743408,
        0.12895280122756958,
        0.06669916212558746,
        0.26015791296958923,
        -0.5004960894584656,
        0.5826312899589539,
        -1.7296557426452637,
        0.3492254614830017,
        -2.442505121231079,
        0.30281227827072144,
        1.0917023420333862,
        0.015130785293877125,
        0.0196387842297554,
        0.5077678561210632,
        0.478241890668869,
        0.03349144384264946,
        0.06417284905910492,
        0.02440919354557991,
        0.20831738412380219,
        -0.07346570491790771,
        0.2275274395942688,
        -5.668039798736572,
        -4.701843738555908,
        -1.2791190147399902,
        -4.002224445343018,
        0.6985573768615723,
        0.2537861168384552,
        -1.0392963886260986,
        -0.018050383776426315,
        -0.7211166620254517,
        -0.13168196380138397,
        -0.989647388458252,
        -1.91398286819458,
        -1.4832683801651,
        -0.018691828474402428,
        -0.2832114100456238,
        0.07394935935735703,
        0.6975894570350647,
        -0.11809099465608597,
        0.7004343867301941,
        0.21054498851299286,
        -0.010659966617822647,
        1.6067090034484863,
        -1.3733147382736206,
        -5.310094833374023,
        -2.123866558074951,
        0.022339699789881706,
        -0.9880293011665344,
        -1.4925906658172607,
        1.9653263092041016,
        0.457139790058136,
        0.3674383759498596,
        -0.7512058615684509,
        -1.319795846939087,
        -3.4108822345733643,
        -1.668549656867981,
        -0.06997445970773697,
        -0.07758693397045135,
        0.5362216830253601,
        -0.4858744144439697,
        0.22030732035636902,
        -0.5521906614303589,
        -0.05759413540363312,
        0.011382938362658024,
        6.389319896697998,
        6.347778797149658,
        -1.3225194215774536,
        1.1135212182998657,
        0.08658473193645477,
        0.27987152338027954,
        -0.7304881811141968,
        -0.6732821464538574,
        -0.083743155002594,
        -0.06206117197871208,
        0.0846429094672203,
        0.18401870131492615,
        -0.12371720373630524,
        0.013363558799028397,
        -0.41735926270484924,
        0.12122819572687149,
        0.15584847331047058,
        0.14078940451145172,
        -0.1659889817237854,
        0.20642219483852386,
        0.15487118065357208,
        -0.12648488581180573,
        -3.6416373252868652,
        -3.280775785446167,
        0.8385932445526123,
        1.363516092300415,
        0.19902783632278442,
        0.12344697117805481,
        -3.6078736782073975,
        -0.9724739193916321,
        -0.6045696139335632,
        -0.6758437156677246,
        -0.44504514336586,
        0.7090427279472351,
        2.2934107780456543,
        -0.2723139524459839,
        0.014693716540932655,
        2.4355099201202393,
        2.6155405044555664,
        -0.32045847177505493,
        -0.042841408401727676,
        -0.2629842460155487,
        0.4992976486682892,
        0.012593221850693226,
        4.476491928100586,
        2.171024799346924,
        -2.0350875854492188,
        0.9356223344802856,
        -0.10579951107501984,
        0.7057897448539734,
        0.3297722339630127,
        -0.928041398525238,
        -0.6414068341255188,
        -0.8243092894554138,
        -0.8779925107955933,
        -0.35598087310791016,
        -0.08845584094524384,
        0.004604771733283997,
        -0.3510012924671173,
        -0.10154778510332108,
        -0.19189299643039703,
        -0.5717154741287231,
        0.0050787352956831455,
        -0.6992753744125366,
        0.13998982310295105,
        0.007210498210042715,
        0.6765241026878357,
        -0.8623851537704468,
        3.837012529373169,
        0.6561782956123352,
        0.08615782111883163,
        0.13949963450431824,
        -0.413990318775177,
        -1.290086269378662,
        -0.21333177387714386,
        -0.42146244645118713,
        -0.1658942848443985,
        -0.3506750166416168,
        -0.2009885311126709,
        -0.19802919030189514,
        -0.14270493388175964,
        -0.03670664131641388,
        -0.3283773958683014,
        0.2925996780395508,
        0.26042550802230835,
        0.20875497162342072,
        0.40989914536476135,
        -0.2085476517677307,
        0.41260460019111633,
        -0.5382922291755676,
        0.20934419333934784,
        0.1981814205646515,
        0.054310113191604614,
        -1.3718700408935547,
        -0.28307974338531494,
        -3.413853406906128,
        -1.0482820272445679,
        -3.2059547901153564,
        -1.0278223752975464,
        -2.208235025405884,
        -0.24398678541183472,
        -1.5714080333709717,
        -0.05140729248523712,
        0.04235787317156792,
        -0.0666268840432167,
        0.12801779806613922,
        0.09736444801092148,
        0.25898781418800354,
        -0.025099748745560646,
        -0.006359708029776812,
        -12.256024360656738,
        -9.190779685974121,
        2.2109198570251465,
        -0.02911010943353176,
        -1.171489953994751,
        -0.09574078023433685,
        -0.60124272108078,
        0.5775362253189087,
        0.2130178064107895,
        0.3775768578052521,
        -0.3589135408401489,
        0.45899227261543274,
        -0.3763452172279358,
        0.09940052777528763,
        0.028395604342222214,
        1.195174217224121,
        1.169946312904358,
        -0.290505051612854,
        0.6401326656341553,
        -0.39462175965309143,
        0.13376861810684204,
        -0.3200657367706299,
        2.2729344367980957,
        0.3265099823474884,
        -0.3128468692302704,
        0.9837146997451782,
        -0.02381075732409954,
        0.21786168217658997,
        0.20831027626991272,
        -0.4100797772407532,
        -0.14687155187129974,
        -0.4410335123538971,
        -0.07181742042303085,
        0.025284748524427414,
        0.3211382329463959,
        -0.7091437578201294,
        -0.11910249292850494,
        -0.047503676265478134,
        -0.16681869328022003,
        -0.08914294093847275,
        -0.01933813840150833,
        0.03411691635847092,
        0.08346143364906311,
        -0.15342728793621063,
        9.97663688659668,
        10.44906234741211,
        1.5386085510253906,
        -2.2575647830963135,
        -0.22594448924064636,
        -0.17212125658988953,
        1.640307068824768,
        -1.139249324798584,
        0.4696374237537384,
        -1.1478948593139648,
        0.5010271668434143,
        -0.2289193570613861,
        0.44693368673324585,
        -0.0691450983285904,
        -0.02338234707713127,
        -0.018928810954093933,
        -0.039157770574092865,
        -0.016093865036964417,
        0.03124222718179226,
        0.03184334933757782,
        -0.05131223052740097,
        -0.04426199942827225,
        1.9481319189071655,
        3.527402400970459,
        -1.965843677520752,
        1.3855911493301392,
        -0.03030596300959587,
        -0.6474757790565491,
        -0.15720805525779724,
        -0.5733739137649536,
        0.4635182023048401,
        -0.6023164391517639,
        0.22359585762023926,
        -0.9589777588844299,
        0.07993276417255402,
        0.06439792364835739,
        -0.6268660426139832,
        0.5839974880218506,
        -0.275206983089447,
        0.18771220743656158,
        0.48922908306121826,
        0.1866869181394577,
        0.13436152040958405,
        0.008964834734797478,
        2.9946401119232178,
        0.5463437438011169,
        1.721638798713684,
        0.7174867391586304,
        0.18682141602039337,
        0.06195930391550064,
        -0.8522096276283264,
        -1.0191280841827393,
        -0.2592327892780304,
        -0.8387282490730286,
        0.020096339285373688,
        0.20867425203323364,
        -0.3798927962779999,
        0.05432381480932236,
        -0.034238580614328384,
        0.37380439043045044,
        0.31899580359458923,
        -0.3989918529987335,
        0.7133645415306091,
        -0.34256547689437866,
        -0.10499257594347,
        -0.0009566355729475617,
        -0.3708084225654602,
        -1.1820110082626343,
        0.3688312768936157,
        0.21756091713905334,
        0.12560468912124634,
        -0.9246243238449097,
        0.8795290589332581,
        -0.20386537909507751,
        -0.5988747477531433,
        -0.10414408147335052,
        -0.526746928691864,
        -0.06838533282279968,
        1.1521003246307373,
        0.034314773976802826,
        -0.6420009136199951,
        0.002339960541576147,
        0.343244343996048,
        1.2596312761306763,
        0.17472957074642181,
        1.289625883102417,
        0.20935790240764618,
        -0.020725678652524948,
        1.3506600856781006,
        -0.4865523874759674,
        1.1872351169586182,
        -0.016792219132184982,
        0.19483329355716705,
        0.45143115520477295,
        -0.9946240782737732,
        -0.49349015951156616,
        0.1369960606098175,
        -1.2076663970947266,
        -0.11483766883611679,
        -0.21327660977840424,
        0.6123446226119995,
        -0.06383651494979858,
        -0.15139305591583252,
        -0.2988280653953552,
        -1.4114108085632324,
        -0.39091619849205017,
        -0.6303926110267639,
        -0.38989001512527466,
        -0.3861895799636841,
        -0.04742252454161644,
        3.6735572814941406,
        1.7223800420761108,
        2.071615695953369,
        1.3490817546844482,
        0.1792190819978714,
        -0.2796551585197449,
        -1.6300299167633057,
        -1.2496644258499146,
        -0.28789564967155457,
        -0.6907736659049988,
        0.6187841296195984,
        -0.6514011025428772,
        0.11881110072135925,
        -0.16290992498397827,
        -0.009727347642183304,
        -0.2448236495256424,
        -0.4281224012374878,
        0.3062017560005188,
        0.3942248225212097,
        0.30692651867866516,
        0.3238034248352051,
        0.002023177221417427,
        1.1732301712036133,
        -1.3240875005722046,
        -0.3965933620929718,
        -0.32465362548828125,
        -0.03783093020319939,
        -0.9725457429885864,
        -0.6233500242233276,
        -1.5078126192092896,
        -1.148224115371704,
        -1.3151226043701172,
        -0.8072081208229065,
        -1.195530652999878,
        0.6338033676147461,
        -1.3240267038345337,
        -0.00909553375095129,
        -0.17563091218471527,
        0.19121789932250977,
        -0.10909248143434525,
        0.022306576371192932,
        -0.0538845993578434,
        0.9674328565597534,
        0.0016032116254791617,
        -2.3272323608398438,
        3.0712478160858154,
        0.2515144348144531,
        -0.34876900911331177,
        -0.010329550132155418,
        0.7012823820114136,
        0.15050646662712097,
        0.7951915860176086,
        -2.6219940185546875,
        -0.09454528242349625,
        -1.944474220275879,
        -0.6277259588241577,
        -0.7250756025314331,
        -0.02253289707005024,
        0.04488721117377281,
        1.8338466882705688,
        -0.28184446692466736,
        0.2376263290643692,
        0.0570504367351532,
        0.1569080352783203,
        -0.022702813148498535,
        -0.31018930673599243,
        -10.829686164855957,
        -10.060457229614258,
        0.4819670021533966,
        -2.6138782501220703,
        -0.032371386885643005,
        -0.4563445448875427,
        0.0564301572740078,
        0.6365180611610413,
        0.2061319798231125,
        0.329135000705719,
        -0.4695478677749634,
        0.3214339017868042,
        0.2645009458065033,
        -0.006717383395880461,
        0.03372858837246895,
        -0.616374671459198,
        -0.381092369556427,
        -0.12102321535348892,
        -0.24704372882843018,
        -0.1152803972363472,
        0.3258209228515625,
        0.040812525898218155,
        -1.988437294960022,
        -2.7982177734375,
        0.6258274912834167,
        -2.065192222595215,
        1.2560516595840454,
        0.5306829810142517,
        1.9388020038604736,
        -0.935390055179596,
        -0.2930668890476227,
        -1.1370733976364136,
        -0.2875247001647949,
        -0.48957714438438416,
        1.586457371711731,
        -0.15409956872463226,
        -0.1659173220396042,
        0.26395756006240845,
        0.2390800267457962,
        -0.880842387676239,
        0.19222603738307953,
        -0.8407016396522522,
        -0.12223752588033676,
        0.007880072109401226,
        2.6889994144439697,
        0.43016356229782104,
        0.8614561557769775,
        0.3619607985019684,
        0.06763837486505508,
        -0.17684012651443481,
        -1.7208056449890137,
        -2.4284164905548096,
        -0.5812357664108276,
        -2.9392707347869873,
        -1.0555394887924194,
        -1.6097426414489746,
        -2.017005681991577,
        -0.9198756217956543,
        0.02061043679714203,
        0.6212218999862671,
        -0.44956687092781067,
        -0.06793686747550964,
        -0.8488175868988037,
        -0.06800340861082077,
        -0.3799692392349243,
        -0.0013351074885576963,
        -1.231118083000183,
        -1.5722202062606812,
        -1.07277512550354,
        -1.4407689571380615,
        0.0014552875654771924,
        0.2164376825094223,
        0.015004877932369709,
        -0.7569273710250854,
        -0.38352876901626587,
        -0.5698038935661316,
        -0.30875182151794434,
        -0.1888718158006668,
        0.09133490920066833,
        -0.03266613557934761,
        -0.887199878692627,
        0.6723029017448425,
        -0.29540133476257324,
        -0.10203417390584946,
        0.03520152345299721,
        -0.003403161186724901,
        0.002131503773853183,
        0.02158373035490513,
        5.5040154457092285,
        2.0732855796813965,
        2.544280529022217,
        1.4835196733474731,
        0.32690709829330444,
        -0.06323089450597763,
        -1.3010485172271729,
        -3.0337836742401123,
        -0.23951956629753113,
        -2.7228646278381348,
        0.3668266534805298,
        -0.1899431049823761,
        -2.2678213119506836,
        -0.07310596108436584,
        -0.03168192878365517,
        -0.14401037991046906,
        0.45212075114250183,
        0.02286001294851303,
        -0.019324472174048424,
        -0.027114560827612877,
        0.02008923888206482,
        -0.08012013137340546,
        -7.3836350440979,
        -7.560763359069824,
        -0.025586595758795738,
        0.1003420501947403,
        -1.6923781633377075,
        0.8242040276527405,
        -0.027863629162311554,
        -0.6331550478935242,
        -0.21826407313346863,
        -0.6186640858650208,
        -0.5079410672187805,
        -0.944403886795044,
        -0.1229923814535141,
        0.19832231104373932,
        -0.003543291473761201,
        0.09741837531328201,
        0.04135631397366524,
        -0.04898781329393387,
        -1.238265872001648,
        -0.023908358067274094,
